svm_type c_svc
kernel_type rbf
gamma 0.5
nr_class 77
total_sv 163
rho 0.29398993916058869 0.080124012222144547 -0.016252420445565189 0.20571079862447317 0.21086006045402139 -0.0076306678139899759 0.029635029264571885 0.23621597173777875 0.040230256171356421 -0.021905166958939369 0.22756809276710058 0.050633279640131604 0.30599195205045354 0.0088982150031262554 0.028670406723000062 0.023087976871477314 0.042715548994975788 -0.0050687899211598782 0.13767685925944331 0.046203606470816609 0.0040884440622319636 0.07068018209888173 0.044186122138011201 0.082330884904006738 0.23424908670461853 0.038501502886060163 0.14854930908003747 0.033234135800054153 0.014438901713192514 0.093059919286396953 -0.011053173159705589 -0.0075854523447192561 0.0301237603371519 0.017490857195131292 0.056533646951661159 0.047337606447943506 0.25237415149157105 0.043783953498500325 0.07105188238480091 0.070340489382671387 -0.0016511933750958828 0.047189387620840614 0.025831992249171896 0.056711307358825985 0.003442112308202936 0.0036534118602097789 0.013603431695865094 0.048423853654639602 0.048523198537506626 0.079216782877984074 0.049264612094596399 0.023282254488188849 -0.030018074055922588 0.0058548882691493243 0.1119902075983026 0.050214483260861184 0.013946814318366502 0.099305326140724293 0.25771758990443644 -0.010956440580079732 0.2557688610379546 0.035988790099832302 0.059867084421301273 0.020931790961686157 0.062876804445669759 0.062845222619015248 0.11023997853233328 -0.0081082659289999498 0.044942723496783334 0.067139010207482142 0.0099456110704794088 0.046912140960131368 0.054602328957277624 0.083792837202669598 -0.019947870069586184 0.024498349937725088 -0.24513115595934626 -0.31002514885593108 -0.098144826362440388 -0.088497183141363622 -0.30339431394180261 -0.26677453075302188 -0.062196696908734736 -0.25677835612548838 -0.3137324084226496 -0.07117094499286386 -0.23652010830915854 0.013121376140280907 -0.29619107188732241 -0.26765727294855912 -0.27378325769082151 -0.25439948337206597 -0.29838190910085638 -0.16761837767019774 -0.25327295322555854 -0.29023238165449694 -0.23075225156716281 -0.26750142289866474 -0.2171540860459702 -0.067800754252487702 -0.25907883327239767 -0.15205580317956913 -0.26518273986461538 -0.283336564605014 -0.20645999681905974 -0.30229938852866495 -0.3007553488753219 -0.26625245912365658 -0.27806641096128409 -0.24282221198409237 -0.2500359899488705 -0.045213418901547189 -0.25343477743835524 -0.23301202798282955 -0.24142783092888762 -0.29601471383873834 -0.25082996194649021 -0.27007497150340337 -0.24147969247174617 -0.2934076661151005 -0.29453797897398404 -0.28166998030716545 -0.24928918690208995 -0.24910025192111926 -0.22370181808141162 -0.24823196127804786 -0.27243590669774559 -0.3075712273666702 -0.28854908659459833 -0.18812215500404297 -0.24817467367007673 -0.28380241613135126 -0.20510290255713651 -0.052430305393117389 -0.31022040779308524 -0.048102871398546812 -0.25417017225927097 -0.23856647744948176 -0.27474479429938498 -0.23548466535047841 -0.2356109229618758 -0.1898623057534734 -0.30200518990278563 -0.25375155999893828 -0.23199410651045305 -0.28485310883427162 -0.25339299376872965 -0.2459845193408311 -0.22155698616026773 -0.31197077110679994 -0.32420791228423051 -0.077201829694809737 0.15125388934297368 0.16010187884225738 -0.060202237620684329 0.015677520368101761 0.1860636089654113 -0.012499238748168497 -0.074405531716548873 0.17715418121485749 0.010645267762008023 0.25782812386310999 -0.043710666898004832 -0.02407799857429728 -0.029502064177950395 -0.0099576244891057819 -0.058013711260847076 0.085594585826499162 -0.0074578777277037409 -0.051944294026062016 0.016970863066696935 -0.02658514554631531 0.029804968526848004 0.1825887566607432 -0.013250977787695725 0.09687092417502921 -0.019353496852144787 -0.13164403680470546 0.040713894712806217 -0.064191880945890956 -0.065819100585702686 -0.023777084421344772 -0.035140152844365384 0.0033694789040204765 -0.0052298695295062061 0.2031048814799091 -0.0087900396325738938 0.015040767937691657 0.0048799612008071109 -0.054290745473510753 -0.0065139793131275261 -0.026754413481735698 0.0040477301607707806 -0.050864771871459866 -0.048908618882208259 -0.039021087068341877 -0.0041484324080108296 -0.0043038817924335978 0.026773152149252719 -0.0033123817204942394 -0.029334473557739865 -0.032217490235788904 -0.04682550322593395 0.05979432811200272 -0.0069365909522193583 -0.042882516937913985 0.046953286155405727 0.20647672500611872 -0.063463929356945725 0.20217022128020837 -0.062452157732715813 0.0071188915888624194 -0.031778670086639246 0.010333871831692328 0.010307128987428513 0.058170158453527229 -0.076868853068804088 -0.0076295931809667542 0.014634190529254966 -0.042638885647361652 -0.0088609903999692756 -0.00017183895677231665 0.031292402820219334 -0.07243702824886826 -0.028097250232709307 0.24386904413864724 0.22727001946486822 0.0096671627750265551 0.048871915538028776 0.25385961097450277 0.057443015780927434 -0.0046725040317624877 0.24381895901687084 0.084446369688759126 0.32241173830041103 0.026340576224554237 0.046200297321744431 0.040625325641398306 0.059930050790751851 0.012484657115996995 0.16344138590787707 0.072029319087469373 0.023118953611526053 0.10111213107247065 0.057801180304682988 0.099548659113857629 0.27099074102158144 0.054974341363020526 0.16538737565131295 0.050702520225697649 0.037537104707848767 0.11015563136748933 0.0084581598175670469 0.009693710733890349 0.047219434836454209 0.035114483722346428 0.10112757069425737 0.064537741702836049 0.27085143361010622 0.060991123852582284 0.10719869133759791 0.078342126269190265 0.020411185578534441 0.063803765706845122 0.043057343869760734 0.074147325640087969 0.040213136309446382 0.020899967035624495 0.031134280256477707 0.066082660057757564 0.065867155800460833 0.096369886689262454 0.06645595105275412 0.04050467938717834 0.0024876562841625515 0.023178539536973197 0.12899505896761193 0.070661153179196926 0.030656256979798704 0.11638220617209057 0.27152852696309548 0.0064753721949408777 0.31496380036177707 0.065711372915574162 0.076794213873383671 0.037988776680846645 0.080091254021217445 0.079965595238783771 0.12725348429277619 0.0083367095056453497 0.062146845934828061 0.085412971675715516 0.027175326554411086 0.040814766384505249 0.077950736406087698 0.10943577552359608 -0.0027142399566997249 0.0421690370064082 0.0094445984605480426 -0.20915294944233284 -0.17356262712631348 0.035937381008399986 -0.16304857363712771 -0.22273806450728631 0.026888102889034309 -0.14263476309659054 0.11087798353739846 -0.19598697103655871 -0.17444878993794788 -0.21086460793379236 -0.16052655641067709 -0.20697097129037603 -0.066739008492263413 -0.16051008138103312 -0.19880049617761814 -0.13714455395929373 -0.19074257944661713 -0.12198886581569607 0.033540777623069715 -0.16542439753662136 -0.054984323236569044 -0.16978012707345783 -0.19303620007705513 -0.11085355854929979 -0.21120165184285639 -0.20905634551258157 -0.17296882772870195 -0.18561134956043526 -0.16385617242353925 -0.15598395552002678 0.052988633877723491 -0.15944918206824185 -0.13904523750397282 -0.14887332965168873 -0.27356375053454274 -0.15682091434282963 -0.17697475949970937 -0.15312307431019231 -0.21873471688022897 -0.19956006505751481 -0.20084885487172285 -0.1550980228978826 -0.15504162716358838 -0.12466768243220722 -0.15410690647272118 -0.17945259911611267 -0.21646606363884627 -0.19620966342513829 -0.091917926563985577 -0.15464229989683412 -0.20119001343534904 -0.10468470505602887 0.046655771655662412 -0.21470586320813609 0.058013408341481963 -0.16102017596343393 -0.14402314159368851 -0.25766726820146357 -0.14086433804341864 -0.14093918023008536 -0.093747370489877205 -0.21037733745464657 -0.15833641466878792 -0.13671220227843606 -0.19226487410334842 -0.16454578896124836 -0.15941041063034939 -0.12813743255204935 -0.22100209514985861 -0.18083661926478672 -0.2181464944416987 -0.18258679303177963 0.026480762634391419 -0.17219199223054515 -0.23165937905709771 0.017565318426239439 -0.15115674916706467 0.10150820260532546 -0.20236267703966945 -0.18342952600576343 -0.18875681185339022 -0.16977158819380195 -0.21557689345529335 -0.075972421333561219 -0.16720454050553041 -0.20693382798859111 -0.14377768754654832 -0.1834078908526266 -0.13111368933557632 0.022202976471965924 -0.17458338177992525 -0.064751112700828534 -0.17887580700444675 -0.19984099014462564 -0.12349891732937221 -0.21969314876193596 -0.21807580759654735 -0.18206600319215205 -0.19418575824535558 -0.15689250848475828 -0.16616042071612283 0.043530912822996592 -0.16865106162871213 -0.14609211004617503 -0.15623792368803177 -0.21231465807273014 -0.16601409642613302 -0.18613384649677014 -0.15620818431683511 -0.20823216206550926 -0.20737181319578826 -0.19793271455868322 -0.16413666744362651 -0.164209420331316 -0.13393150808102386 -0.16522540774639669 -0.18857252102617406 -0.225180051744613 -0.20527442542397245 -0.10127678291091613 -0.16324767559072187 -0.20032178089101826 -0.11399762111584349 0.03625787430808184 -0.22130020339500014 0.042233230300244132 -0.1694824055298253 -0.15327659466434265 -0.19094053490938265 -0.15010182770900615 -0.15009072322701877 -0.10334201397761217 -0.2193843622460975 -0.16751878035222956 -0.14591227897279807 -0.2120499555972033 -0.16833782803330702 -0.16095199969014753 -0.13575626084668554 -0.22979519908455995 -0.18740149632094602 0.037111600733281451 0.24629330687627232 0.047749096774808805 -0.014285045919098805 0.23515455393490003 0.069645726759052201 0.31303485558081839 0.017848122845154499 0.036688645505083405 0.030724406849855324 0.052305780673596335 0.0026932299139434349 0.19806971641522692 0.05809289534016783 0.011746215468126143 0.080710100020736197 0.03623500216452074 0.089616578897609322 0.2428375336888382 0.045311871622963393 0.15614756981969463 0.042168479007680844 0.019217273924986643 0.10059768349484104 -0.0016224569831504048 7.9903931349841145e-05 0.03804328357722931 0.025192790949630443 0.064122485883721228 0.05504398435151657 0.26053066483645487 0.051485510862971519 0.075236188868781667 0.064151495876697537 0.0060996688270821744 0.054102644105820191 0.03346262309506666 0.064189613553110147 0.01001375281030719 0.011272782894991656 0.021198927219069748 0.056505355164456386 0.056223644894696126 0.086942389688347735 0.056893822900232531 0.030901412288050933 -0.0074494812924968713 0.0225898871788714 0.11955862526819633 0.058189362977984924 0.018714053885446717 0.10690023565239211 0.25259684484386635 -0.0032539791146174888 0.26482749824797513 0.050707400577184543 0.067188697798359398 0.028459400291266174 0.070419783412666942 0.070411572599370809 0.11908695672115002 -0.0012981539864673462 0.052556156280336185 0.075654791568620192 0.017566087707143234 0.053805598052788166 0.059310398282533087 0.086312404684837571 -0.012326961390540386 0.032289135664050866 0.20814313788265346 0.010753561974966772 -0.051283863954487197 0.19953256739794431 0.031582912037411273 0.27914350888209483 -0.020519629781957285 -0.00063269315812698734 -0.0063123094569353683 0.014190167598041183 -0.034357190149892601 0.10892230767860464 0.015980648891435131 -0.029127095272516106 0.04032983586242718 -0.00069789953537457777 0.052827465121279435 0.20565678446101945 0.0083267023909162404 0.12136971728534771 0.003847901438328272 -0.030461655912203837 0.063847694964505528 -0.038915553402937876 -0.041072251227866605 0.0029332572480036175 -0.011939118062223187 0.02671328053402492 0.01798720018392044 0.22538823803346761 0.014408576235636829 0.043393760003394496 0.027516621425780444 -0.030963004357823808 0.01860464403102768 -0.0035660458800743445 0.027236201240977097 -0.027232400055662489 -0.025743633152775912 -0.015827304260376318 0.019058392979816877 0.018592966803899515 0.049940094311280367 0.020222946467065992 -0.00612049527994467 -0.04746815483933705 -0.023973752001549758 0.082896337467857475 0.019717792430934973 -0.018991434879934488 0.070075409443383432 0.23799575150037328 -0.040326313592529431 0.22477297257204354 0.011415468316704284 0.030237477837688105 -0.0085755816343043613 0.033514541515504107 0.033484151713323196 0.083089209513809603 -0.017746000668156719 0.015569093025177505 0.037610120483832582 -0.01945576046029928 0.015155633031513596 0.023443580052468022 0.052247076894730182 -0.049310510947809201 -0.004909451024183783 -0.21834357073590224 -0.25681045885288989 -0.0059559385336550516 -0.18532303716500209 0.08013365962188225 -0.23322647944059913 -0.20887207114319198 -0.21410818765762135 -0.19639573645633138 -0.24471820548733014 -0.11193115266778307 -0.2202672763796491 -0.23245172589813323 -0.1725995271801305 -0.2088296496311908 -0.15705605954301577 -0.0042916823402522194 -0.20363522251005928 -0.090783039219961698 -0.20654360742780359 -0.22508400491547034 -0.14691865523397224 -0.24848790143143146 -0.24326659271729742 -0.20830760700112944 -0.26751212452579343 -0.19080336005649315 -0.19150027399375594 0.017124412784625495 -0.19433416518124319 -0.17313981067006781 -0.18195084449675183 -0.23774829080827845 -0.19170632722984618 -0.21175153938054178 -0.18187416340300813 -0.23495223451932645 -0.23266417385506349 -0.22318396277431865 -0.20195891745385985 -0.18993702680276089 -0.15983292749989755 -0.18922130002273285 -0.2221207958699889 -0.25213240857421398 -0.23484999979078999 -0.12744155488087788 -0.19649791786552073 -0.22558544002562173 -0.14010604383739228 0.0097861133701009177 -0.24712670203416418 0.015894215074594674 -0.21004085739304929 -0.18310102405691431 -0.21626402384906218 -0.19523075354732949 -0.17581256687585739 -0.12947463682623284 -0.24443562570209981 -0.19319861526750134 -0.1717057546435482 -0.22676430649444917 -0.21081320104797535 -0.1866323958348661 -0.16512132752622852 -0.25506915719309986 -0.21291172587378793 -0.06305178902555636 0.19439884255172263 0.024153675037846475 0.27606582473515112 -0.031251858658570927 -0.011545536008435142 -0.01705448411534604 0.0025514823771970534 -0.039321428461330792 0.097670356927311172 0.0052275783813186243 -0.036064671873015687 0.029213762182686412 -0.011524761304655849 0.042033015525809701 0.19374428231636526 0.0042540398198649947 0.10902533261713766 -0.0069040373584519903 -0.028588698867691241 0.053130770026387719 -0.055617016686312998 -0.047683186226231765 -0.010189053250128109 -0.023984081970112047 0.015835691931589423 0.0072130813941451788 0.21616170101031279 0.003657503932888796 0.026842758627504543 0.016465684722163358 -0.041667940335384138 0.0063650666648981061 -0.014310261735182661 0.016495750112100169 -0.037414731596829759 -0.036497346362517231 -0.026564569468418665 0.0083093768416773704 0.0082217485479074981 0.039216762660744496 0.0091412825401834159 -0.04578100912994313 -0.063500970898049805 -0.034318648311974807 0.072177254175906841 0.0096728984482212371 -0.029044646748220652 0.05938645421947112 0.20726393872153812 -0.051036915002222877 0.2129875306271887 0.0038492797098722423 0.032115517399430277 -0.019315764447873238 0.031762960671472683 0.022741222723216232 0.070347369144689018 -0.049048560558751807 0.0048158363977953257 0.027006682795543677 -0.030190733151392209 0.0040684623126860612 0.011574986094518966 0.038271425116378481 -0.054746992984883669 -0.015652074977592224 0.25011650973218807 0.083543158541530105 0.3461407707773842 0.030788146837089449 0.050462575918535729 0.044977724942115355 0.064518286994979163 0.016972043298418303 0.1585950292131883 0.067098505699037858 0.026006022053369045 0.091025879109633848 0.050484882862117317 0.10378076605959471 0.2527415245470867 0.059531255120459793 0.16991563927554243 0.055093854646649419 0.033490403812304316 0.11473832798661554 0.012669380676683696 0.014367256500739873 0.051821250728313263 0.039357815627128735 0.077706385635752412 0.069163818339058325 0.27254859406570847 0.065620539342720663 0.088679573946278914 0.078379163410243438 0.020373939879389933 0.06831910704875481 0.047720349210674209 0.078409728330749398 0.024648458273776725 0.025548020464100398 0.035471750897378265 0.070242739754622141 0.07016842459122534 0.10098366137711524 0.07108083793965049 0.049215492904025812 0.0068399081775942158 0.027741952157885316 0.13359371660216615 0.07115308473002574 0.032990962532770188 0.1209189127051981 0.2657859140201464 0.010978337200569326 0.27134396124688892 0.064766361849912746 0.081419543818830181 0.042718675513679513 0.085247224937120933 0.084620773968481777 0.13177925462573375 0.01298932556445038 0.066776168106689598 0.088862126798384233 0.031844461993527931 0.065935892060149187 0.073470067900989755 0.09914132357924256 0.0020449008218869553 0.046378769834278806 -0.1699112425712615 0.086671028355911978 -0.21910194131599617 -0.20032375729275415 -0.20545064022511034 -0.20007236231452941 -0.23227248992259569 -0.093740174409694454 -0.18447775323590124 -0.22367718859144853 -0.16081233879361878 -0.20015181761555739 -0.14822407983528826 0.0047604985671999079 -0.19551913455714831 -0.085088978307543417 -0.19650204808384891 -0.21652037966361745 -0.14648438217390095 -0.2364149775062091 -0.23474017494319233 -0.21212515229118087 -0.21088838108861407 -0.17386134493337518 -0.19228606621652528 0.026543898623553691 -0.18599006408389676 -0.16328330240037398 -0.17319960854650429 -0.22900740149014848 -0.18298926079015812 -0.20495232544936554 -0.17317004745667072 -0.22484501768241699 -0.22408355613114223 -0.21462247585843083 -0.18148053681925821 -0.18136248421770165 -0.15098612962792474 -0.19310475363855764 -0.21155164253375441 -0.24233041679943976 -0.23458514500633043 -0.11854253875213271 -0.181296678489904 -0.21699328326229569 -0.13118716027281468 0.018826394146664344 -0.23774417253382576 0.024801346560496956 -0.18982007698807246 -0.17156949578932426 -0.20761279035593116 -0.17902396510478136 -0.16708857319816464 -0.12688601487334217 -0.23612745964213205 -0.18448717912303758 -0.16296045417445182 -0.22960825120713205 -0.18587161711809902 -0.17794594946429432 -0.15342342486199662 -0.24642509298829882 -0.20410838026003153 0.25161871961234461 -0.053368041340311374 -0.033346510528311682 -0.038723706129785519 -0.019270680732208851 -0.065312249846788295 0.077794072200608605 -0.022968160981077689 -0.058512563816501009 0.0098614507764446524 -0.033459810563748582 0.020392962631637774 0.17495235862100791 -0.018190623944056614 0.087747264670696046 -0.028596956942588486 -0.047252697416538883 0.031504401970723545 -0.10087193686912264 -0.069469513488681772 -0.033557811256287998 -0.048131967896232676 -0.0058241132327697172 -0.014451245630341525 0.19796444067825619 -0.017998467542891045 0.015753817994116522 -0.0051748927945094968 -0.064116988046510295 -0.015320654255611223 -0.035990577827847328 -0.0051786663588740791 -0.060198531360223115 -0.058083011564208767 -0.048249091155077806 -0.013407869268987517 -0.013479761247893535 0.017570415998598612 -0.012538598141220223 -0.038813594531219957 -0.13471530146859426 -0.056963504344376463 0.050625368682231837 -0.010229541229765526 -0.050763469415567558 0.037758640117823337 0.19017225572591645 -0.073054462535966799 0.19684183110168585 -0.024162728855454535 0.011179634722124368 -0.041032322580320781 0.0010979871940981132 0.001089231399411251 0.049079191524787132 -0.072225784596006412 -0.016838979301764496 0.0053763628693200404 -0.051823559432403798 -0.019962795472386208 -0.010139650398367641 -0.0039919798898740812 -0.081644196659854382 -0.037315255169901945 -0.29836178041753575 -0.27996213137128617 -0.28473442368328117 -0.26790693993548731 -0.31061859884880194 -0.17993223394209185 -0.26988822459503597 -0.31030260455822239 -0.24282777192662419 -0.27966782976959875 -0.22954737759634453 -0.079703212211418822 -0.27237991508372394 -0.16615021506630867 -0.29066041964893896 -0.29532219169488477 -0.22221559368123756 -0.31519581919485562 -0.31295218397315211 -0.27865907178560745 -0.29081720940422962 -0.2658649227281219 -0.2628467206261802 -0.072912475444968886 -0.2657327076493472 -0.24453044616174915 -0.25373939364077996 -0.3073362801980225 -0.26321208966447096 -0.28984884363946506 -0.25370923954379992 -0.30563020792197648 -0.30259554106650338 -0.29353858244351411 -0.28951222917915426 -0.26195302316344526 -0.2333966222258877 -0.26190005984080872 -0.29235925197896157 -0.32059663691830453 -0.30305106822692307 -0.20071794133208118 -0.26325947833796515 -0.29581532755578566 -0.21338801967711055 -0.065573634395239805 -0.31571058028320093 -0.059617029749376348 -0.29128587332098665 -0.25143683859334187 -0.2868128120077944 -0.30526427206557083 -0.2478357980034232 -0.20296584208227664 -0.31403990588043501 -0.26453209778726156 -0.24443705063762247 -0.29693604942112251 -0.27617926055256192 -0.25880902407506706 -0.2415148985992171 -0.32905153461196135 -0.28344264744363484 0.020330555511355215 0.014107926769201591 0.033800510680585386 -0.013854927602276731 0.14823123990261988 0.085219722906669876 -0.0047723552692862034 0.1329406790118092 0.019760381202091094 0.073180434703654706 0.25865159545420818 0.028817183465205679 0.13982743795368449 0.024746469184495481 0.0027066849736297753 0.084237881422030744 -0.018142222688662404 -0.01643591357902164 0.02107609934997277 0.011325055064908329 0.057479707324584524 0.038454682695241743 0.24545879209803517 0.034901201604845854 0.062439582561536922 0.04769507450362663 -0.012738734855380272 0.03760714807401478 0.016952710414997296 0.04865899234214905 -0.0089900936377416765 -0.0052917035277762177 0.0046813441733958702 0.040871818036827837 0.039488685309930327 0.070496229773178723 0.040378176445158065 0.014395273822615184 -0.023963838273577835 -0.0030483329434343454 0.10326053247701003 0.042256661316540302 0.0022050934561028018 0.090561791007863657 0.23792129404521356 -0.040021211659397135 0.28421368720368556 0.034278559548573853 0.050790687074486945 0.011997727151833868 0.053980537267528488 0.054423952158972312 0.10139890692820938 -0.017812533828882652 0.036059154067549302 0.058508048457619075 0.0010571407124953269 0.053577531508148236 0.042962656886261552 0.076718919429897961 -0.028831056719436518 0.028851991837423409 -0.0055189834550832956 0.014256355353295095 -0.033534570614519713 0.11108472430331953 0.016996587333352131 -0.025824083305922493 0.045357053930444174 2.176371514507505e-05 0.053556608075881619 0.22978883741633513 0.0090890977566098364 0.1208584092063643 0.0047346045610999078 -0.017032571904358647 0.064624250287365598 -0.037837471497641897 -0.036140857163358998 0.001365115104003326 -0.011139519733841217 0.027743554647556713 0.018769937204682719 0.2269861246759978 0.015212184235522641 0.042794551167524744 0.028006027331811345 -0.030274941866501672 0.017931267071484486 -0.0027675051808335053 0.028047452189809051 -0.030408693746206538 -0.024943971056027688 -0.01502785075447762 0.01989506807437795 0.021142424915316843 0.050878765325159538 0.020714365467907642 -0.0053195833630820168 -0.043663875233163459 -0.023136411007912638 0.083710981857053612 0.021186702782335219 -0.017537228463200008 0.071492273992112276 0.24218174364054343 -0.039816650221058333 0.23715862774026586 0.014603894033373831 0.031037817658862599 -0.0077820671193398984 0.034274032251937064 0.034270301733851975 0.082229139474980381 -0.0375353383688855 0.016370365394761284 0.044658327672765744 -0.018655369327266642 0.017260532482791496 0.023340753539387481 0.050048786145661883 -0.048511943475730256 -0.0041202754040877785 0.019615507266525209 -0.028026078148371127 0.11446425059744422 0.022261084936921142 -0.018992702848683988 0.046866081501045397 0.0055844122973203701 0.059033098198238695 0.22822347194103393 0.01459604469268563 0.12589861675298733 0.010157205213666151 -0.011500813286485957 0.070111762692701765 -0.032332877858244645 -0.03063400502685058 0.0068740758203692772 -0.0056294377260465199 0.033540018862969076 0.024280460345336936 0.23034883887449778 0.020722195538561181 0.043967586712349536 0.033501053985224863 -0.030546084886178198 0.023432108475666954 0.0027470413199087115 0.034461268713117194 -0.020317239539696247 -0.021935474634489062 -0.010186791583882655 0.025373626448230848 0.025290402086476708 0.056249363256761317 0.026206034102952774 0.00019183645180950964 -0.038146306333896478 -0.017241002903322665 0.089140044202771912 0.026281365941008432 -0.012030684367285409 0.076359409890116414 0.22553315605050969 -0.034565737071391017 0.24571439499135411 0.019863007791583242 0.036524726235691592 -0.0031192757164853974 0.039781859813487287 0.040004073001388175 0.087308121167862907 -0.03200892694736257 0.021883009927206185 0.044055785732491727 -0.013146351430295716 0.021114576932271104 0.028912552571747338 0.054506166141143342 -0.043014320476910436 0.0014625222978428911 -0.047604294007005596 0.098141187954383896 0.0026116046345742027 -0.038873137042227793 0.026719452998754958 -0.014071635540760586 0.039470089241918305 0.19149826878152543 -0.005045462348487845 0.12736946990153991 -0.0090895778058980997 -0.031108460954210715 0.050863364088808309 -0.051908257825569799 -0.050383684958609509 -0.057160142244163173 -0.025225895042411892 0.013273782938469491 0.010278283720010438 0.21654675057637551 0.0011293429402011788 0.023626986031027399 0.013914557896477005 -0.044206477724557672 0.0038177721725981798 -0.017000130229607724 0.013944914094343295 -0.040057155213160937 -0.039042560365979535 -0.029110422433733109 0.0057653054530116786 0.0059659893834517839 0.036687529831663457 0.0053271095568880912 -0.019410958247874168 -0.057807792844901076 -0.032831466142698912 0.069652975856378835 0.0065885645158360595 -0.031605365215198696 0.056887568503010896 0.20488021188549319 -0.053577367984948158 0.21066285813440794 -0.00016283190833618676 0.016948420420500231 -0.02186266079303837 0.020229666957700211 0.020193104556593698 0.053026474374965306 -0.05281184890646945 0.0022661980555580752 0.024702066408257485 -0.033210931536028145 0.001353218493656023 0.0090251171108151375 0.035334410492500273 -0.062561527553346305 -0.018200000635568089 0.14255632458704448 0.054106438235944541 0.0090437772226209055 0.075124609618735905 0.033588420590484641 0.086954452556610023 0.23686011252588546 0.03152047478904401 0.15335778673447836 0.038160918327747616 0.01666702400464444 0.097971372372874121 0.00086008901316792083 -0.0026136309520376506 0.03491321031779035 0.025035008349490209 0.061024503440945836 0.052261480066719143 0.25702773560866693 0.048709340469623774 0.072341026041051221 0.061487817766849778 0.0034120799543233002 0.051415523364443508 0.030774693504919005 0.061693687769332282 0.0077061647503968147 0.0085836489370015919 0.018529010008251329 0.053356906136467791 0.053269768071964846 0.084115966840508982 0.054183507106150643 0.028777943317069274 -0.011110536858574032 0.010782682083551959 0.11688525517843684 0.05787036186627649 0.016019074578463771 0.10413167479673846 0.25016198334518436 -0.0060100091283893306 0.25649874214719842 0.049406850585785235 0.09186796510773268 0.025771133010054188 0.067908904201294903 0.067737014310391114 0.11511343270502539 -0.0039932941556674239 0.049867728958384219 0.071978796818800331 0.014871007091192363 0.050066041722477396 0.056622929092553169 0.084320038506460998 -0.015028647133962736 0.029432894344488592 -0.079832457360003301 -0.13533754929591085 -0.068832824127949832 -0.10901036301850253 -0.055747797649750921 0.10299583111324506 -0.10036868907021325 0.011676667495923986 -0.12794309100708587 -0.12600395296640576 -0.044652975596636037 -0.14649955975228171 -0.14452640302571343 -0.10862902703091649 -0.1231736267416958 -0.10078994861345221 -0.09083424247486345 0.13219558748007298 -0.094347803972190059 -0.072529559619341127 -0.081197229520308042 -0.13953145469638617 -0.091243701439282343 -0.11215630377892327 -0.081203833320442453 -0.16170870808047205 -0.13359583378805526 -0.12382635915810047 -0.11668857119841254 -0.09019896155840329 -0.060382957923090709 -0.088595664539867405 -0.11420224375496184 -0.15228210521526972 -0.16405748748731874 -0.025520969317466623 -0.088569971144899839 -0.12624054805556709 -0.03911315466610376 0.11224127666993419 -0.15116770596952278 0.12741737441323792 -0.097637331140297684 -0.078418080444394855 -0.11667070430414872 -0.075247705124943109 -0.074948032364954606 -0.027845190232254458 -0.14595604633059728 -0.092777979536651914 -0.074432711879060434 -0.12733746049693032 -0.08083414922968471 -0.086478067939173814 -0.061702568418729745 -0.15661485194102451 -0.11392421241928753 -0.041524225049986777 0.02851957696389322 -0.016720284023132467 0.036886139459801709 0.20146910198653803 -0.0078969794563520483 0.10403726720977011 -0.012186547990289797 -0.033962218655645415 0.048012641501297214 -0.05537460085156546 -0.052785173537873681 -0.015382664212633431 -0.031268279929598762 0.031466370088985507 0.0020744749534671583 0.21904400549967284 -0.0014836302660306026 0.018949127995983611 0.011325409626684784 -0.0496211926710248 0.0012256607600437835 -0.019477268437873167 0.011354349918211512 -0.06892018782205081 -0.041662902028791124 -0.031942002265803925 0.0067386994042000509 0.0030905174966564873 0.034100048148197032 0.0040008304124291797 -0.022021406644763881 -0.06119067572974559 -0.043175443945346274 0.067065397710239089 0.0064516072231971646 -0.034231587692975129 0.054292854926481254 0.20396116943394535 -0.054937198380743117 0.2290325440661958 0.0027326235398561268 0.014236762512772375 -0.024548053283172604 0.017816941562931114 0.017623382997521905 0.065425864144997847 -0.054182156149809618 -0.00032356078697982324 0.022075061521326923 -0.035351163225072535 0.036537989838197622 0.0065698977754318714 0.055760047163834495 -0.065170856124318735 -0.021093714110146974 0.067675003362155955 0.02478452829830869 0.078180780212696394 0.24000244378515656 0.033590479693550869 0.14704498317079728 0.030452599704423579 0.0076777572785131573 0.088993101772862279 -0.013380381875583658 -0.011644986514932325 0.025906249457679463 0.013356258829939179 0.060323911281175153 0.043255696577614355 0.27124427044448896 0.039676603721674572 0.065811935528536702 0.052653772235981763 -0.005653010093957021 0.045886838139584225 0.021765322704430799 0.052497610395249299 -0.010215160724311025 -0.00045851344670494606 0.0094641093662682241 0.044791700659594508 0.037539779065827075 0.075553648815047142 0.045552750682643667 0.019172069547506311 -0.019202975507349847 0.001753326835708037 0.10797524250731272 0.045670188888706241 0.006727984563464854 0.097088979426792427 0.30050699991247753 -0.015049967371039055 0.25433053957329443 0.053933683099606715 0.055503293090227557 0.016743694619496586 0.059245837444282662 0.058741609867656558 0.10666900396340354 -0.013067960087967064 0.040836036837369541 0.072904156980608967 0.0058337772287392151 0.040379360800646864 0.045909998472766986 0.070616422675793572 -0.024057800044749778 0.020385142654498999 -0.041147517294204662 0.012850171615565287 0.19233176560469789 -0.031945312000339114 0.080152517029269357 -0.036674802987671479 -0.058168816808103187 0.023969691614809007 -0.078626502256336855 -0.076752037436446124 -0.039439812461183575 -0.053110878324341679 -0.012305298062499293 -0.021973675619810871 0.18973300265241433 -0.025541491036305486 -0.027023848124792256 -0.012751030246930334 -0.07550789505099223 -0.022837692971004849 -0.043519019269042489 -0.013036217645579166 -0.087783835277299924 -0.065716349754325026 -0.056229781933253405 -0.021352965384871032 -0.021155015276773707 0.01004590263301844 -0.020051650928171155 -0.046043469686723897 -0.084690801659252551 -0.065246558120733475 0.04310326781385812 -0.016516785266078311 -0.058413156503267491 0.030289271306739595 0.18883007247534306 -0.09571938851063623 0.22011539040067685 -0.027431640983170937 -0.0098734350356033604 -0.049247556747370289 -0.006448912190921861 -0.0064544768154178528 0.04131117563015245 -0.07815098727055704 -0.024380414450405324 -0.001604274686771831 -0.059318044304244776 -0.033347866112562949 -0.017807788817892176 0.014540062726160253 -0.089058728653371305 -0.046313745235361164 0.056388148775787406 0.20706423391063514 0.0090637158469803747 0.12044164144297778 0.0046212540003975526 -0.02613461109371466 0.064600815825675034 -0.038324105534867481 -0.03616674653805519 0.0013396570781187092 -0.011162630984699325 0.027693832960643261 0.018746026845590971 0.22521755171226468 0.015187308363537379 0.038719412008793072 0.049887485630012177 -0.032707703152826915 0.018020481622042082 -0.0027870310240822186 0.028058735302074901 -0.028254271939049936 -0.024966181729985139 -0.015111848937738518 0.01983135403910416 0.019765403164085291 0.050715919987322819 0.020671935826200055 -0.0053419681513353981 -0.044332668149857181 -0.022771583087999335 0.083670250343134522 0.020831891856748167 -0.014195699200814656 0.070836527077926328 0.22748141101949565 -0.039578766628385137 0.22787084643912892 0.014119216451079256 0.031010886450387205 -0.0100845687082197 0.034252340548420766 0.034247901427355114 0.081838523530210275 -0.037566527216721435 0.016347844223745626 0.038536888877689142 -0.018677648017455212 0.015433526285641468 0.035758435129084699 0.049756644993284582 -0.048534248309921008 -0.0041353178593518452 0.15288659352983514 -0.044497438110245431 0.067309551875453122 -0.048927743903294539 -0.071628045503908166 0.011125673062152713 -0.091309601535557838 -0.089502967903212827 -0.052181806298363359 -0.064663657166966385 -0.026253110214782605 -0.034814672088225057 0.17366985190195777 -0.038365868936265264 -0.015211948199053825 -0.026040228980643409 -0.083557900217317529 -0.036434520296842937 -0.056287274035659834 -0.025556668500350488 -0.079336412582965352 -0.078399139593130371 -0.068534831820772163 -0.033732957380203307 -0.033818237524194564 -0.0028202470376883127 -0.032892375927514407 -0.058868791070047909 -0.097107160989024111 -0.076216957945032152 0.030255519534660998 -0.032821876159720098 -0.075423437823168099 0.017393776362045605 0.16705455250720971 -0.092849590331498671 0.17241199903772772 -0.03929515352241944 -0.022557401577496666 -0.061330895083162203 -0.019298860314669687 -0.01930062467835383 0.028411285452892805 -0.090859729732392397 -0.037207943300461163 -0.015027468582190432 -0.072145487299005301 -0.038075714373603839 -0.032299100471451972 -0.0046797399758914887 -0.10176670187907318 -0.057623553408961754 -0.19615461486022745 -0.086480700236668082 -0.20614421721377152 -0.22214378741360991 -0.14200445569024167 -0.24092218593841208 -0.23910662368697017 -0.20351443057672189 -0.21621663271677966 -0.22430884536311654 -0.18677162342317338 0.02174712592786366 -0.19021312755246944 -0.18760123518929678 -0.17792759486094256 -0.25610737054104493 -0.18763039300865433 -0.20743315587694144 -0.17926062872076404 -0.29289917816635802 -0.22948115086338863 -0.22009623306368975 -0.18833493482443014 -0.1878065744852008 -0.15854533435033752 -0.18492211231828609 -0.20982568839635313 -0.2465710924584722 -0.22844819078758188 -0.12324387353872585 -0.19387816500023808 -0.22317752022043683 -0.13987957437935142 0.016715941155239278 -0.25414266068172059 0.032400128681910195 -0.19483889805320026 -0.17488582933946467 -0.21739527857047827 -0.17167990777201594 -0.17175532023936188 -0.1251363755586733 -0.24040712106140175 -0.18949104127846325 -0.17849467384157275 -0.2226139420601059 -0.23271866325721369 -0.18865725415351281 -0.1842752433610377 -0.25077755292556847 -0.2193582625866749 0.11158594507170932 -0.0044367433691675376 -0.026210741052148739 0.05560622107484034 -0.050420385317364105 -0.045318489427506027 -0.0078475668884832074 -0.020418222874447958 0.018280443379422993 0.0096851314208582263 0.21756844064781616 0.0061261996581507949 0.0295075912852041 0.018928389084866354 -0.039215422771589487 0.0088402656168970733 -0.011846182092283076 0.018958812285854765 -0.035001561470086873 -0.034033343675919953 -0.024100263848478479 0.010765618154383186 0.01069265328937693 0.041682147261550423 0.011628409010093165 -0.015803208337049422 -0.076906941203531448 -0.031971471541208205 0.074661201696066021 0.013994794294541039 -0.026580612902712675 0.061847376626548115 0.21029055170848934 -0.048587989842851065 0.21557979939458449 0.0055063361186248761 0.055698253503867867 -0.016849866360354265 0.025441961896078117 0.025217972399150652 0.073013486422367518 -0.047059871755605963 0.0072865138037987937 0.02947357190811313 -0.027729548919003619 0.005793820399481845 0.014038133635017208 0.029991625900753219 -0.05757619853265597 -0.01318589340717001 -0.11897530938939106 -0.13718437785535723 -0.05692355243605339 -0.15753690598300252 -0.15876227326550474 -0.12770642741983793 -0.13137937776899819 -0.093506455858400103 -0.11391003365023977 0.11130240927408908 -0.10707374955746214 -0.082836846162391106 -0.092734209790598127 -0.1500066827171222 -0.10280530841389034 -0.12591633259926771 -0.092703853531731023 -0.1459640638589399 -0.14494535159716143 -0.13522231754338374 -0.10107959251658069 -0.10923859246177359 -0.070369706527588144 -0.13906849886212203 -0.12571125289888307 -0.16330285157177898 -0.14973844839144607 -0.0373597013126079 -0.10008958513138749 -0.13765941340877613 -0.050365941023391841 0.10049594115194925 -0.1591717628799629 0.10633229781053917 -0.10736901887185127 -0.089766484850163364 -0.12807356760901001 -0.08691462990186416 -0.086527805994372348 -0.053755525133289683 -0.15853447794635389 -0.10425858980796913 -0.087518390719273934 -0.14009782033026091 -0.10533118666958008 -0.09759281080262612 -0.072362206764163967 -0.16791821392387202 -0.12451548256010171 -0.021650261312857542 0.060209521142713676 -0.042471409226046232 -0.040774523807545919 -0.0032860417894351604 -0.015788228942104826 0.02372464280643026 0.014151929927979987 0.37668966547339811 0.012194979673724404 0.034191574598266196 0.023364283701121511 -0.034779509390462163 0.013275510612830265 -0.0073526408907369899 0.023394804232615592 -0.031571321788714975 -0.029581812567049226 -0.019667015618343369 -0.031630553524870916 0.015269067345126144 0.010971159557755503 0.016129021057547131 -0.009961870777671137 -0.048280332714833715 -0.035138992791073659 0.079435039758949472 0.01618268671717155 -0.022149341422451223 0.062557155386570751 0.21423321072063889 -0.044174419170555236 0.22327317975074695 0.0097470928707881609 0.026390963986383877 -0.012415711014307758 0.029743317443185695 0.029644745515410274 0.07803254113352992 -0.04214829780564093 0.01172939241074494 0.043066463661816941 -0.023297698336027382 0.011295056396037454 0.018526373568766082 0.044657638540717901 -0.053136179443012875 -0.0087537970975523453 0.08155078809746287 -0.023830531693995769 -0.019234656532447953 0.018423270540916217 0.0058757778975481552 0.044834530949856434 0.035751680360464548 0.24154133673258671 0.032196352431712913 0.057234590219946715 0.10599399941340608 -0.013459279293584082 0.038107893175735257 0.014245736995274351 0.045039742381023651 -0.0091939708090464003 -0.0079395818296622411 0.0019846471955286661 0.036839575542834409 0.036917702227196009 0.06768104316071015 0.037678195788907312 0.0116924533802511 -0.046418703634860982 -0.0057459252586952274 0.10054082616475159 0.03786445790452235 -0.001735824963171933 0.087776396548416319 0.24401875016849245 -0.022539449575387994 0.24148410811728588 0.028253351805077348 0.048055141040951904 0.0092554416302150066 0.051305658675438584 0.05127118598465355 0.098760681375198694 -0.02029498904651578 0.033355664333896987 0.055648596020138746 -0.001647326702041562 0.033506473467778068 0.046251365064351319 0.06942803303488157 -0.031532725775880344 0.012903798474702976 -0.10223202426463718 -0.10051714889506991 -0.063307975252307053 -0.075730253693181399 -0.037360627653720752 -0.047126971162964756 0.16650292553342275 -0.050048756498045063 -0.026329749024822938 -0.036685914084852243 -0.094575557695194212 -0.04678402361102299 -0.070970541900481368 -0.036655528060058437 -0.090336902861576612 -0.089442403670130149 -0.079594797835594422 -0.044904100312462066 -0.044931158967928722 -0.013943885113415683 -0.044982685443692348 -0.069962110306941036 -0.10794997653883738 -0.087472603472179805 0.019150824661206975 -0.043935660492080808 -0.082060465375964092 0.0062679597015914438 0.15580693355209263 -0.10388953064743621 0.16163808091370524 -0.050418869167467094 -0.033664242550868986 -0.072384506233789891 -0.030651944957401582 -0.03040848192750812 0.017400130533183289 -0.10191320973593465 -0.048330686841348169 -0.026149651679466021 -0.10213975813642892 -0.049181402216466913 -0.041585918709116779 -0.015806847410563169 -0.11279612517960644 -0.068738596728886478 0.0017029006327901213 0.039251499255432219 0.026828575102607454 0.065411588990033048 0.05656848098793868 0.26143383913036 0.053017147909272144 0.076523294214355983 0.066309904524732122 0.0077315837951820775 0.055807939018346957 0.035070701499206818 0.065803226329350109 0.012030483035913427 0.012895198168783041 0.022824758932669414 0.057670725702522019 0.057581205887041589 0.088424267996921296 0.058491160437331102 0.033905979412288324 0.010084390262246437 0.01509613112607981 0.12116607831796422 0.060326088623063726 0.020356640102140708 0.10844879516984192 0.25447708805399033 -0.0016867971072060252 0.25988533732076247 0.059149575971653767 0.070502386493441038 0.030077338897456368 0.073870970819972875 0.072025097714300615 0.11935708226106834 0.00034285934402717469 0.054175128267681394 0.07627303573814391 0.019189592342605252 0.054601075682807254 0.061171797457279922 0.088998356740196183 -0.01075407888101618 0.033727979888127084 0.037925094071249624 0.025010711041884001 0.063409152612372954 0.054881499521287395 0.25958431418693506 0.051318256643805404 0.074428024273152357 0.064095805619579102 0.0060146930908645179 0.060444624070047491 0.03337111938732977 0.064102025551536476 0.010293555523976487 0.011192659240235952 0.021117944432493922 0.055951450367222572 0.056381729881440204 0.086741433752429431 0.057947410435070013 0.030839546792555909 -0.0074064172628016539 0.013392116653050424 0.11947786263193562 0.056896822767695879 0.018640700046691321 0.10669422904490107 0.25318713669078863 -0.003388665254158259 0.25799965772972805 0.051966406365207815 0.06709353795808877 0.028378931552469362 0.070543990220876249 0.070331431398085217 0.11800625252953142 0.0106812056189353 0.052476405151405059 0.074613736766512756 0.017486057368672526 0.051662548591072895 0.05927084665331421 0.085207435014736821 -0.012406839397553588 0.032032067345154833 -0.012500322840053674 0.025992236821470151 0.02006723988461024 0.2249040967980438 0.013849114280498192 0.037124019109153 0.026645542031955308 -0.031494043245612363 0.016568007618522791 -0.0041302711214077047 0.026674551177227689 -0.027244272618746922 -0.026304110376031625 -0.016387859355490683 0.01849503223965205 0.018898444862094514 0.049377992973646909 0.021637403173859541 -0.0066823353502780004 -0.045431351214811386 -0.025277148333452615 0.082338603601539842 0.01968678857882783 -0.018870053567097988 0.06950560925428155 0.21718074862033854 -0.040878603655989457 0.22275516856021702 0.013347103177844707 0.029702316968611066 -0.0091350306227913521 0.032957597657572384 0.032923549423558622 0.13269795418731839 -0.042369577558519632 0.015007854584389179 0.037372354844741676 -0.020070432464237863 0.014241017215761594 0.021768408314131439 0.048174236266206823 -0.049869905959912218 -0.0054701832037044058 0.039018620488797895 0.029906793385189517 0.23633719241677581 0.026349123498245471 0.049963826534590562 0.039122064301288333 -0.019200365572132626 0.029058471372831365 0.0083754144420138781 0.039498616946482865 -0.015054536983547532 -0.013834481016561834 -0.0040400437109253916 0.031282805540326891 0.030888729687544216 0.061830403024468503 0.031803901541974697 0.0058488512562650244 -0.032626907899217239 -0.011645244820822843 0.094721741920090211 0.033009577547156874 -0.0063730138831832803 0.081942940313131762 0.22879504724359909 -0.026322625276549643 0.23883799886167628 0.025737010594903145 0.044212769410510194 0.0033682010254264174 0.045520462051004899 0.045947473537564967 0.092894388806161493 -0.026386939269801901 0.0275092807724308 0.049668532373147285 -0.0075202860142324548 0.028068227058764359 0.034240174274961045 0.061370374443968291 -0.037400947100337395 0.0070885219229631343 -0.0085845424871375687 0.22716458255713992 -0.012139626380306251 0.012445148987777849 0.00067304852630113601 -0.060884486211467588 -0.009427104905609815 -0.030144567267410972 0.0006914668778953112 -0.041221537125431695 -0.052316350818380396 -0.042550410337152483 -0.0017530728092653455 -0.0077899299434603265 0.023492010049362064 -0.0066571292941532949 -0.032659000367856628 -0.071166951039056209 -0.050845764285786951 0.056481617559560438 -0.0098440015495102704 -0.045203932093417325 0.044019988657734994 0.20103216717605643 -0.068530239243733387 0.2583082826457907 -0.012125490560724725 0.0037071574454557331 -0.036348632404031085 0.0072292669414058645 0.0069567084715136179 0.054684587193112616 -0.064797264869723273 -0.010973215816068258 0.013523516436098502 -0.04597628164613194 -0.075911673895359966 -0.0066755178044751087 0.01446296657395087 -0.075763413848741454 -0.031701863106926562 0.20949639098772194 -0.0035780250022016428 0.0196482036447003 0.0092461465724332226 -0.048855444225571372 -0.0008484667769775141 -0.02158690643430821 0.0092765812146768847 -0.044598682091129709 -0.04369504794368477 -0.033783839166033586 0.0010849422603613453 0.0010113916927987541 0.032015739504407718 -0.0023124759414976763 -0.024080595051239266 -0.062365594067341157 -0.042295765697790873 0.065047680425355692 0.0020003495968350842 -0.036276313918747215 0.052199478358411815 0.20029699740935622 -0.058219817055485505 0.20603624006856192 -0.0044283957341862508 0.012275880952087157 -0.02653288257245405 0.01555730991635519 0.015531942013402968 0.075795013515505827 -0.056264791621741181 -0.0023970818466268018 0.019933479894586083 -0.039313913503705535 -0.0032435938806405643 0.004358213898585179 0.030170002263801184 -0.067234403906598156 -0.022869583141759863 -0.21991506897120464 -0.19108663535747744 -0.19834897654612801 -0.25357122435307911 -0.20811330743689826 -0.23926038445780751 -0.19831238223903577 -0.25739589216213754 -0.2486305458481062 -0.23931624596208001 -0.2738944360064155 -0.20908014183853749 -0.21486292793714817 -0.2089727712509156 -0.23043181891204575 -0.26757511860945049 -0.25772193494361656 -0.14500416369495439 -0.21314884059306061 -0.24167886816936296 -0.17749110186300301 -0.007313049063786943 -0.26227326180809524 -0.0013109088418788984 -0.2395990353033304 -0.19588241525847899 -0.23249542837461495 -0.21806689063580006 -0.19230004741270987 -0.14805598585503199 -0.26059242822954942 -0.20958106074869928 -0.19792226891837783 -0.24291613292579617 -0.23017538276992794 -0.20415150040084659 -0.19228912161650044 -0.27065043015008811 -0.229096224538474 0.023173059342558481 0.012807854516603271 -0.045309303019663141 0.0027089181884439378 -0.018048599127616433 0.012838295608905729 -0.041047005552348234 -0.040146555596088901 -0.030214890328857699 0.0046454090905417838 0.0045684094885071486 0.037202149578610053 0.005491757478431101 -0.020515670827690759 -0.058818141289876363 -0.038520024080979862 0.072118346468843617 0.0055570283600239944 -0.032724480983694904 0.056318912231584917 0.20371133498497707 -0.054678048571761027 0.2094420015347076 -0.00086099044441237383 0.015831535292962221 -0.022967678310653251 0.0190901719883728 0.01908744669212193 0.067089368288064555 -0.052676082246052428 0.0011599595259351502 0.023429315268357266 -0.033940035751313088 0.00031653112302540838 0.0079166788592313821 0.033709725305860937 -0.063663910416848157 -0.019305236026635669 -0.01040613779118727 -0.067692453243400702 -0.020492119784056035 -0.041181280897837721 -0.010407539816978522 -0.12855544096854041 -0.063236638944272935 -0.053568072208934336 -0.018905089004919662 -0.018599991882514239 0.012407833776607938 -0.017720857742694059 -0.043688968908571726 -0.083152909400261779 -0.050297800831072423 0.045461923898487057 -0.026107610725271631 -0.05641043460378279 0.03268243551845261 0.19316491373730749 -0.08027008879027181 0.23930011386604197 -0.025956186941219886 -0.0073648025479043002 -0.046354038823467052 -0.0040858377656254417 -0.0040838869909781391 0.044978448203203313 -0.076482824694305118 -0.022019615762872424 0.0024711138840655547 -0.056969914424038925 -0.027875131474683134 -0.015399438763567561 0.0061764631857788655 -0.086718826681661837 -0.042911059492413743 -0.058948343731868726 -0.010236364058129117 -0.030771204914635336 3.0333024117684503e-05 -0.054225317585561914 -0.052910216098190133 -0.043041181012261162 -0.0081630162809365331 -0.0082404330279045694 0.022767912573981045 -0.0073215022659088771 -0.033323715837450155 -0.072368605273547326 -0.050723808876015727 0.055811573657600762 -0.0072684000906195756 -0.02329118513755506 0.042945166851523373 0.19337775181288511 -0.067456491183741224 0.19738151014002983 -0.013817254291302802 0.0030309555557774853 -0.036038069308276438 0.006291022486642271 0.0062885308783557263 0.053971915245049164 -0.065634298809123914 -0.011642602541736312 0.010555773658803091 -0.04664396331000225 -0.012541501405039955 0.0028591857787199902 0.020958231174020157 -0.076428875464430973 -0.032114559255373001 0.048015893855545243 0.027360796159767789 0.047301776293199572 0.007161096901219929 0.0051943889291102326 0.015387045367725293 0.049982599394439338 0.049882913650030836 0.080736006214196632 0.050783297542699279 0.024804308840480425 -0.01356813827392234 0.0073766862007138365 0.11346813423412799 0.051679844884663449 0.012802078776150019 0.10081399516660661 0.25093733638608112 -0.010054242801224592 0.2883665886703633 0.044653238357692027 0.061159051561229388 0.0072163185397470147 0.064333264347200242 0.064617484853572715 0.11167837766272468 -0.0073973498618226038 0.046466759946605089 0.06865550462167172 0.011470961703090773 0.046438555659800054 0.054772777122972342 0.081269185185343262 -0.018422933797758421 0.03099351881083617 -0.020678627900604638 0.010124499408767302 -0.043802642689554416 -0.042849152477541404 -0.0329365488826606 0.0019322866896574762 0.0018295310630869227 0.032844009788128611 0.0027753412792732371 -0.023232691639488511 -0.062592774113469418 -0.040660687965159231 0.065845911623805237 0.0028454919982944292 -0.036717971234256047 0.053036667075154573 0.20973385930992394 -0.057375537784288243 0.20686118528152966 -0.0046377580295895622 0.013123786460529389 -0.025686023569905455 0.016386032531984191 0.016379740224656068 0.064019644957233612 -0.05739464037934626 -0.0015489630971929783 0.020676418111362845 -0.036574332759024622 -0.0023965408966116573 0.0054028318310434817 0.031273727056199671 -0.066390298448293417 -0.022021798431230036 0.030796083756298817 -0.023106720208506341 -0.022181302092447647 -0.012262960439862974 0.022886998177556475 0.022585497080326623 0.053942524404055697 0.023647391299397677 -0.0025551181671953915 -0.04089033478734725 -0.020316446641933213 0.086550056113581159 0.023545474562955811 -0.014745165243868617 0.073771714613728695 0.22083160865956589 -0.036758553086468054 0.22662002080139029 0.017154090175724234 0.033780871223934028 -0.005009027448439245 0.037126006911336155 0.037033768718435243 0.08541185523625959 -0.034753091296859689 0.019135438812983303 0.041408033527741361 -0.015952988665411193 0.018326997607191864 0.025892549363846475 0.051747689284940418 -0.045754716372684398 -0.0013437506444699532 -0.054562454838853067 -0.055765069867592915 -0.077756252935683196 -0.0081937541194975344 -0.0082680893764151223 0.022737485327400178 -0.0073519254244022612 -0.033354045287940781 -0.071578980112719043 -0.050755006083393714 0.05578120579021216 -0.0072889953563766091 -0.045546207651289035 0.042914787895475023 0.19144338933592925 -0.073703719121787192 0.20307472609208985 -0.013701241599977406 0.0030015442206684844 -0.03823144417794392 0.0062604737972254635 0.0077828095841382516 0.053941157651479284 -0.065481227996564959 -0.01167303721779487 0.01052231555306159 -0.046674299941427702 -0.0125462599362895 -0.0049220172946517447 0.020920290853177627 -0.07645910807581674 -0.033377268857393366 0.00090058675579626421 0.010917238028432124 0.046430137363761087 0.046577178589729935 0.076951659710869952 0.046521926595554361 0.020530502545714716 -0.017933355955244569 0.0036197191045017948 0.10930984251710302 0.04783465093152138 0.0096618501380211375 0.097460265415258512 0.29066175802334715 -0.010923172324735761 0.40038445531679939 0.041710340390960908 0.056926228887244981 0.016805917589463149 0.060158419776361965 0.060118881792426179 0.10774277867091205 -0.011686975410954136 0.042193187409730458 0.07097359342272172 0.007192719736287009 -0.0001408245869387478 0.073913508309042281 0.037464179641476275 -0.022699562574504801 0.02278005269858625 0.012215282019610512 0.044772362420921148 0.044694562249861701 0.075584151225107032 0.045609843497596746 0.019629929503127447 -0.018723679226486392 0.002196513437626136 0.10842041973803022 0.04568265630177952 0.0074396070731673845 0.095652062338192803 0.24187727254608729 -0.014921017332807079 0.24910241431901381 0.039272654699433265 0.055948117840154327 0.017331069721911382 0.059201637344421437 0.068140513897095606 0.10659921945458138 -0.01257706936962745 0.041291929289296925 0.063458713889987334 0.006292228893324211 0.040456875259930927 0.048039325460548149 0.073738861767494723 -0.02359956772018609 0.021665135799834232 0.034852134163605837 0.03477707313024566 0.065705745265977861 0.0356926621431774 0.0097080580804835906 -0.028642712772418741 -0.0077263204098095145 0.098576755315848655 0.035792789664229621 -0.0024857979996358876 0.08580697687640515 0.23251381494332474 -0.022459589202968141 0.24562631225399092 0.029379244058088286 0.046045949463812838 0.0088430258290815942 0.049292523865929354 0.052600323713978735 0.096748172512120784 -0.022498751256629139 0.031373113771023989 0.053553103600496497 -0.0036304505138188199 0.030626976821527905 0.038137094954083947 0.06391287997340267 -0.033513410787313722 0.01090100720013819 -7.2917340369531557e-05 0.031613169801851304 0.00084247277422224082 -0.02516501920482488 -0.063458204060706264 -0.04426739699108484 0.063928992037858623 0.00091688133295607637 -0.037358678233532117 0.051973559197302635 0.19928896519840675 -0.059396009318835111 0.20655096627353897 -0.0056145032952671075 0.01119495944919844 -0.027618960357837972 0.014810463930606655 0.014455054437993381 0.062175659566368065 -0.057324592838747093 -0.0034819444264920234 0.019404402215510631 -0.038502702588134083 -0.0038875716082253579 0.0032771765431365597 0.029557895853922309 -0.068312654856354238 -0.023963517314879154 0.03106158147993382 0.00056720121388901775 -0.025088588091479787 -0.0634814802907544 -0.044440135856731955 0.064008262863748264 0.00096236182846165714 -0.037385747504599061 0.05166221222218393 0.21039110109893619 -0.059233358163667746 0.20671104328483597 -0.0053775293068960119 0.011267512506274042 -0.027543755638200714 0.014533135669131624 0.014523506114877042 0.063436599107715791 -0.058243014775253898 -0.0034073354240173673 0.00943620712619897 -0.038428237544300227 -0.0042050022673499306 0.0037204133581194478 0.029433667121306094 -0.068238236913296113 -0.023878925650098401 -0.030081330923870442 -0.056025061635002101 -0.094215622359813983 -0.073665901057748839 0.038701232884434528 -0.030005460102918831 -0.068198734973525299 0.046235745728228722 0.16954841949777411 -0.090052138660202258 0.1768186587687241 -0.036431325384767073 -0.019737780855206048 -0.058466152322716708 -0.016479447748632008 -0.016480614275645993 0.031242960641673249 -0.088044883627546811 -0.034557066027432651 -0.013274077457385222 -0.069339941163873875 -0.035332581692281026 -0.027656822109824938 -0.0018595462965658844 -0.098981729262217058 -0.054824513948210543 -0.026005114817163173 -0.06428287486295764 -0.044034941051157878 0.063096037996203849 6.9948630954274628e-05 -0.038197983471145433 0.050287796229271882 0.19847039513046552 -0.060163579357561253 0.20419345150572626 -0.0064961915918184572 0.010356685286576782 -0.028456593376415099 0.013644679254291355 0.013613063146574528 0.087544635308194951 -0.058801357288013632 -0.0043238398879388061 0.017956593651308483 -0.03947620646370921 -0.0051778163802509445 0.0024315525612341495 0.028307357208436912 -0.069149836568452 -0.024793694185862424 -0.039733573182057891 -0.017433042662189938 0.088949663285605968 0.026164362952331773 -0.012191008844775104 0.076157626630184994 0.2232424601326663 -0.034207103913457895 0.22892380036799612 0.019814361511256651 0.034972711903484707 -0.0024540802087583448 0.049084542662236615 0.039587702681950145 0.087118930095151342 -0.032203014580129891 0.021690752415842146 0.043852466265757561 -0.013338229495797648 0.020864950560239296 0.028446574731868807 0.054287201366798668 -0.02954703421191952 0.001211388879616614 0.020952132961415633 0.12686385870811584 0.066814292760338928 0.026215838229059017 0.11421074760448985 0.26376313628231746 0.0041389756392249573 0.26550895332671004 0.070652973831749899 0.078495918892025326 0.035896915235931762 0.079582542162151743 0.077837297288700036 0.12522120360717415 0.0066919866441972342 0.059994913125078618 0.08206269142311462 0.025023533485997999 0.06093039364767501 0.06716110960671659 0.095204024449694516 -0.0048812750776793768 0.039549316948605612 0.10627248095511332 0.044996286236806904 0.0052433089167060985 0.093776123996279645 0.24003162952879695 -0.016819451000806465 0.24766443604382854 0.037602175001631773 0.053813230958665866 0.014980418189419699 0.057117109555471578 0.057006712090555398 0.11002492552982293 -0.014817608579849498 0.039096737545193043 0.06337137995931888 0.0041017481241106034 0.039499195747307606 0.045862907753394647 0.074088523068764761 -0.025794574109952981 0.018648468651577963 -0.063013301806372463 -0.10104031826729695 -0.01411613426087604 0.13705603847539263 -0.12278319374340847 0.14292600368461342 -0.069397807745000026 -0.052788404576288556 -0.091395227565819748 -0.049535714671704263 -0.049538093659402482 -0.0018457734567140507 -0.12080364248265771 -0.06739217666475962 -0.045539971266985307 -0.10217868972635774 -0.068226870245628443 -0.060664045435030282 -0.034927021673922032 -0.13164908920566801 -0.08776027210721675 -0.038304934960687084 0.050202705052610638 0.20280476231012382 -0.061233698374081227 0.21372478793349212 0.02847012460839175 0.010003642589949444 -0.028554532048163633 0.013628401755941022 0.013540807747842529 0.061711725582906031 -0.05853278761907367 -0.0043963847791036719 0.018017657582592654 -0.039417577581413447 -0.039624046245908873 0.002412194417235029 0.053389279385290922 -0.06922246503879495 -0.02488170887307177 0.088276126761257095 0.26705575187277658 -0.022029940404079199 0.24372633739907446 0.031978008885740303 0.048517571133295023 0.009291953569668044 0.051773401980187025 0.05177047759390252 0.099209818768869723 -0.020036814040624757 0.033855646355855543 0.056186133235825872 -0.0011474595038683489 0.033199071196219322 0.039241370283614636 0.06671834210741473 -0.031033371032567786 0.013406596007328466 0.15041877673218632 -0.11006857981835595 0.15885026499606841 -0.056610112765962159 -0.03992141112023103 -0.078617105664727058 -0.03666943092318066 -0.036670319631396484 0.01104064439214658 -0.10807317853834272 -0.05628698362125558 -0.04420394994306584 -0.089420156624154742 -0.05556775039798912 -0.047890249621320977 -0.022103987447310923 -0.11897850958975156 -0.074978949992406049 -0.25581513931706595 0.0078895150778683244 -0.22422626735107132 -0.18860382761879124 -0.22877867025048396 -0.1853301425224228 -0.18527326820305956 -0.13893586141014044 -0.25514433104137113 -0.20268818521728826 -0.1895307906671122 -0.23585775005932616 -0.21474737746053318 -0.23559205004450762 -0.19930078423240649 -0.26389470061624165 -0.22235296680616012 0.2913719807320847 0.053875174267268719 0.070541542472469743 0.031989421384164149 0.073736920318138707 0.077653071610201602 0.1210161120014229 0.0020096081146946405 0.05585794776952626 0.078035152896407889 0.020877881163950458 0.056578489148650997 0.062627909124766026 0.089333279862785955 -0.0090193628119834626 0.042643565337848119 -0.21378549925925294 -0.1944729976414431 -0.23999464912569468 -0.19108035478963245 -0.1914405701902771 -0.14482336051644817 -0.25933628692140737 -0.20897868447803686 -0.196971752973468 -0.24150620687773877 -0.27019656127201769 -0.20950928161963361 -0.19637823080427758 -0.26944462787347501 -0.25106749729690481 0.01746564123458379 -0.022129388389481461 0.024245744111128901 0.019947974924834924 0.068431087631709492 -0.053514817954099389 0.0020209259302032333 0.024350625553184468 -0.033015154503856677 -0.013846395380299102 0.0091068917499599559 0.072906034738492942 -0.062815731940866149 -0.018446609442237687 -0.038817618452499633 0.003297526269051805 0.0032564327812500881 0.050956858371252106 -0.068484828516454238 -0.014672020336093054 0.0075234920248395953 -0.049663676384716512 -0.016027410869020479 -0.0079234472131883837 0.016119764142166464 -0.079601396752996767 -0.035140743547751832 0.042043220616554258 0.042106515504627504 0.089553521421578478 -0.02974915524216501 0.024144778140118374 0.04631218466828077 -0.010884770672532483 0.023470800972533484 0.031767993459697677 0.056972093536305661 -0.040756830284024263 0.0036994392999178446 -2.3874127076847887e-06 0.047756523527686653 -0.071747539921826364 -0.01793043095339911 0.0042659734198713974 -0.052917864878721133 -0.018958511555712092 -0.01119059175462357 0.014963781709616469 -0.083795375591278698 -0.038410881110377049 0.047696735782028099 -0.071707980472641375 -0.017928043924146576 0.0042671672370787981 -0.052905855500102593 -0.018772527858945134 -0.011180598550100649 0.01462392420683711 -0.082683426674226998 -0.038917942745231707 -0.12096460300193056 -0.065549172813738621 -0.045131017350280973 -0.10293272774967867 -0.066889547370457478 -0.058844086534872928 -0.033292016762772984 -0.12983618181107862 -0.085929022836796071 0.053851401443531829 0.076060561881003616 0.018865026748326567 0.053153449476146232 0.060691226384150344 0.087195147841590853 -0.011029631509685122 0.033403328999889022 0.022222747133839239 -0.035027898268670019 -0.00084346922086906751 0.0067565857691871132 0.032549014259288619 -0.064848311678362372 -0.020473367168831622 -0.057153920182769567 -0.024042451522933637 -0.015806639530444679 0.009813082271028133 -0.086900901373979045 -0.042685088626487025 0.034160373645104332 0.041751215298599313 0.067473336986028171 -0.029887140665230228 0.014549340548662628 0.0093980118137579286 0.041729887587451595 -0.064008786257139044 -0.019743836487000087 0.02621490963713773 -0.071568369045180491 -0.027261971033847837 -0.097147606827273331 -0.053099185256266529 0.044423066214154344
label 1 2 3 6 7 8 9 10 11 12 13 14 15 16 17 18 19 20 37 38 39 40 41 42 43 44 45 46 47 48 49 50 51 52 53 54 55 56 58 59 60 61 62 63 64 65 66 70 71 72 73 74 75 76 77 78 79 80 81 82 83 84 85 87 88 89 90 91 92 93 94 95 96 97 98 99 100
probA -1.9454677361779156 -1.9456399184348303 -1.9457557891843837 -1.9460897424650025 -1.9463085958612409 -1.9452120735562535 -1.9461434878784858 -1.9455392379692236 -1.9461406941456918 -1.9457899431662393 -1.9454569324586044 -1.946161349152874 -1.9455952159288863 -2.0235762954154795 -2.0076112692690287 -1.9465150127110522 -1.946036767786568 -1.9459921722611577 -1.9456893750594597 -1.9459433351617554 -1.9459892613708016 -1.9463679436629373 -1.945909582183271 -1.9458613284419222 -1.9453584666380002 -1.9456332865973647 -1.9458203976077659 -1.9463413346987699 -1.9463651043600021 -1.9459461214498959 -1.9459466888762014 -1.945115236526676 -1.9457957722320112 -1.9459876197383377 -1.9456778070174154 -1.9458853839935095 -1.9458495961218307 -1.946008125878776 -1.9463179874667162 -1.9457605017495645 -1.9454977600212371 -1.9459059007842701 -1.9462967120232506 -1.9454664933453338 -1.9459696480036843 -1.9460239173714102 -1.9460005181829445 -1.9458485093976001 -1.9458492989117497 -1.9461364900451386 -1.945817312245631 -1.9465318354152013 -1.9385859511222154 -1.9460197839032132 -1.9461762809468195 -2.0128539625641126 -1.9460549418047799 -1.945271798556661 -1.946033971908314 -1.9453758730234523 -1.9456679894677793 -1.9458689246912944 -2.1187188557035794 -1.9459553181959572 -1.9452863948431995 -1.9452874711587815 -1.9462511847864261 -1.9454776059645333 -1.9459686813967358 -1.9460687193131421 -1.9460135748339664 -1.9454783103266167 -1.9461524090942284 -1.9461869731605048 -1.9458067733091819 -1.9463931676635244 -2.1500807293751434 -1.9463092507405935 -1.9462405084215761 -1.9461712732529128 -1.9455484539312711 -1.9464052050790974 -1.9459822601475376 -1.9462549965741678 -1.9463594599142282 -1.9460588223592798 -1.9455362751527749 -1.9461266102212764 -1.9459799435926814 -1.9463151934201517 -1.9463153646745477 -1.9461606370601963 -1.9462249199245294 -1.9457229467286796 -1.9456165201952009 -1.9455264180216028 -1.9458193488586035 -1.9463095947886213 -1.9457241070136702 -1.9456121934461454 -1.9462852636682619 -1.945652671915697 -1.9455087372924147 -1.9456128618478543 -1.9463579031018492 -1.9998988706015755 -1.9461762165011336 -1.9463962070163823 -1.9455538580255289 -1.9462686856366451 -1.9461237024613118 -1.9455185269150987 -1.9455789543023836 -1.9455995630383063 -1.9455811994594454 -1.9460964038862005 -1.9462438132133117 -1.9464673797359957 -1.9458920324044471 -2.4325614096193391 -1.9456456774247726 -2.0567389913711924 -1.9463873761280317 -2.4440337183169776 -1.9461104651527243 -1.9461099710605885 -1.9463844985010819 -1.946254400965554 -1.9458600042429188 -1.9461030609182051 -1.9461094323574895 -1.9456963067668571 -1.9454815291748084 -1.9459327044945456 -1.9462815180157151 -1.9458485822440585 -1.9461585598890965 -1.9456096608071651 -1.9456956688750529 -1.9456378064335116 -1.9455509858256477 -1.9461734094690608 -1.9461902068482457 -1.9463199374825826 -1.9462184817003918 -1.9455953100429546 -1.9462895161356477 -1.9460935041794938 -2.4497815990986274 -1.9463289955318643 -1.9462044396590121 -1.9458229373404032 -2.357663963734892 -1.9461562900075411 -1.945198704878931 -1.945946702449757 -1.9463053326195989 -1.9463418036336744 -1.9450660216582996 -1.9455761424071669 -1.9461425118858198 -1.9460799098525334 -1.9455823448810401 -1.9458747660642823 -1.9457144583086057 -1.9457222720571223 -1.94632457046702 -1.9459698315025349 -1.9456669294373683 -1.9462996925830549 -1.946094545466527 -1.9464325391096617 -1.9457092480276104 -1.9463754646432132 -1.9454286913626258 -1.946054644925211 -1.9458381136680898 -1.9459879452820834 -1.945570924264022 -1.9461088590377051 -1.9459117357062379 -1.9457947156916244 -1.9457888044053726 -1.9463322847856794 -2.1024511511820898 -1.9463489683559678 -1.9455663855320731 -1.9454635709901984 -1.9460700985838424 -1.9462973066496656 -1.9459031478097268 -1.9459008306830494 -1.9463349636955465 -1.9461430113877796 -1.9459596738074054 -1.9452300728578542 -1.9457166318439456 -1.9459544757714373 -1.9462572973188843 -1.9460557781919634 -1.9459153857218001 -1.941952183773473 -1.9458056968891253 -1.9462072202209395 -1.9461986990178697 -1.9464148949111288 -1.9463556564012696 -1.9465877103052223 -1.9458067976550817 -1.9458209203673305 -1.9458707251124561 -1.9456693802623415 -1.9457416318736616 -1.9452788801500454 -1.9456978331398547 -1.9456017216936599 -1.9459810195066776 -1.9455124749533441 -1.9456204374306103 -1.9455171927907497 -1.9460368727308435 -1.9457681386715731 -1.9452515407763988 -1.9456231593336488 -1.9459103518464438 -1.9457683170095279 -1.946222782705568 -1.945945675619186 -1.9457256748563738 -1.9458935449147934 -1.9452617638613803 -1.946316759953802 -2.3618755176503101 -1.9457137499280741 -1.9459376591260231 -1.9459206415940975 -1.9457510170555654 -1.9459229690028048 -1.9453461567492598 -1.9455947550796691 -1.946402587305003 -1.945726152720854 -1.9460123020702889 -1.9457777963803564 -1.9459696734401182 -1.9456598874397764 -1.9459061264780566 -1.9453975519585018 -1.9456348562757264 -1.9456469542110573 -1.9459739864219197 -1.9452485502979333 -1.945998399315213 -1.9458977909064117 -1.9456896570219433 -1.9459791451238708 -1.9460859803540589 -1.9454123393260336 -1.9453225804561962 -1.945336636283179 -1.9456603251790254 -1.9460653113975734 -1.9458767114231905 -1.9453983219472271 -1.945832054343626 -1.9460346123249777 -1.9458903610370915 -1.9451775260894373 -1.9458226887516685 -1.9453530312755958 -1.9461194785009819 -1.9457671820270681 -1.9454130698872349 -1.9458138997058005 -1.9461361889289286 -1.9451015592281036 -1.9458263588515075 -1.9449591371450923 -2.0420116424167727 -1.9458766423353313 -1.9457046138465686 -1.9459693134277569 -1.9462186864903095 -1.946044323009906 -1.9462929909998052 -1.9458576191114065 -1.9462572754425143 -1.9462205572288094 -1.9457214570805133 -1.9459925615090994 -1.9724343666376569 -1.9462643183302686 -1.9458442142532071 -1.9290223590530486 -1.9461181286804075 -1.9456766610435512 -1.9463008123182666 -1.9457724105266643 -1.9460455540524759 -2.3345245330784703 -1.9463101598357002 -1.945792442624156 -1.9463310929448416 -1.946243240161841 -1.9455397746894902 -1.9459016362822097 -1.9462151339821891 -1.9449908112661498 -1.9455998155627632 -1.946227298879567 -1.9462997853662547 -1.9456840008265721 -1.9457361773572175 -1.9463325592800125 -1.9458157974199424 -1.9467198321596968 -1.9456538844143407 -1.9456638272048441 -1.9460379910480463 -1.9464798739785099 -1.94566865991433 -1.9464336185863866 -1.9462885452820879 -1.946515930973802 -1.9965614243699037 -1.9461469186025191 -1.9457647417674631 -1.9465454045598831 -1.9453644283748865 -1.9463265025957222 -1.9461575346426352 -1.9462862070260294 -1.9461865608762696 -1.9460841494421637 -1.9463097234747264 -1.946340031292751 -1.9457452280754315 -1.9460662171344429 -1.9461177131577878 -1.9460362834144198 -1.9463515939848317 -2.3551832360207241 -1.9464896377720584 -1.9457325085339217 -1.946225186416972 -1.9456321925752547 -1.9467045084830361 -1.9462816054759748 -1.9462538490165258 -1.9459160636673494 -1.9457997138014327 -1.9462654480269805 -1.9455106570938507 -1.9461193618800074 -1.9455140792994214 -1.94591430612328 -1.9461345192996864 -1.9463321167403209 -1.9454666818180075 -1.945467934163791 -1.9461685249434635 -1.9461715487351161 -1.9462723093789327 -1.946770589778251 -1.9463190873725411 -1.9461629971676393 -1.9464979602707213 -1.945518430500168 -2.3291710263474066 -1.9460488022903994 -1.946253061146513 -1.9463916216062493 -1.9456883491149075 -1.9462502126736183 -1.9465439401654063 -1.9457078706151401 -1.9457113613227608 -1.9460533719513542 -1.946321274322574 -1.9456611059738333 -1.9456876268242742 -2.3643765684557669 -1.9461722219707578 -1.9456955151495963 -2.3651262046968866 -1.9462249055281395 -1.9457493876349916 -1.9457255359626116 -1.9463835001598837 -2.4372016782681452 -1.9462788161529709 -1.9459021756573887 -1.9464448111081627 -1.9455849811714683 -1.9462946905394092 -1.9461094123937293 -1.9461355355106649 -1.9463821677066917 -1.9455429788546561 -1.9455715159264344 -1.9459000985880481 -1.9457758555682287 -1.9462116851012483 -2.3719496409716454 -1.945475709393131 -1.9462972808132806 -1.9462530961829985 -1.946334769281945 -1.9456805867595146 -1.946241120283575 -1.9462303175695861 -1.9457199925736333 -1.9462313121739281 -1.9462321888619976 -1.9456957729531525 -1.9462013605799711 -1.9456100302813357 -1.9465364004927586 -1.9462053125598573 -1.9461040072043383 -1.9461607934526062 -1.9454536584640743 -1.9461960019012261 -1.9457428904341674 -1.9460815530278446 -1.9457703026673279 -1.9462200580582258 -1.9456990529365064 -1.9456701433814669 -1.9456484927281319 -1.9456342766433978 -1.9459116248343904 -1.9460403269963802 -1.9462003206277934 -1.9455957083276905 -2.3801965643235419 -1.9462820437636255 -1.9461416760424908 -1.9456827475227776 -1.9466237143091603 -1.9456978580671647 -1.9460551717113357 -1.9456259939269442 -1.9457744719531651 -1.9458207163706951 -1.9462481662160851 -1.9459923763078706 -1.9454612452881177 -2.0224562015307863 -1.9460834881440772 -1.9449452987084876 -1.9460742871895387 -1.9459413152921037 -1.9461733995449644 -1.9455897469100056 -1.9464646276942745 -1.9459812790682123 -2.0594797992147003 -1.9938862218998472 -1.9458951438320713 -2.076111812879744 -1.9457416203182554 -1.945912636244999 -1.9459517626148162 -1.9463084434867202 -1.9452162829107431 -1.9450994605176508 -1.9458137745286175 -1.945402186261787 -1.9460799628420307 -1.9456370240817864 -1.9458303293604584 -1.9456613319832612 -1.9465200764343027 -1.9460209858464914 -1.946771482041733 -1.9455876658331588 -1.9461324709178907 -1.9460190348408393 -1.9455550626095057 -1.9464924323805446 -1.9458011835267237 -1.945667004496521 -1.9456571743101396 -1.9452189549472103 -1.9455014682609042 -1.945837690403821 -1.9454256250412447 -1.9464159035377178 -1.9454062722428245 -1.9455744353053162 -1.9459939140463338 -1.9464936447727215 -1.9455166050853967 -1.9453699302184502 -2.4063435419239569 -1.9456898993527936 -1.9460809341400342 -1.9451627445006936 -1.9459919629858922 -1.9459919702752255 -1.9456546078458561 -1.9451928536726288 -1.9456346015097969 -1.9452437358381411 -1.9460791793823153 -1.9457124907630508 -1.9454216895883829 -1.945386916392208 -1.9458204008153877 -1.9460808451095457 -1.9462673745347032 -1.9454536865635887 -1.9454566512837035 -1.9461618948635082 -1.9461519670304788 -1.9462113158541166 -1.9463297310320689 -1.9464483085419699 -1.9462359217825094 -1.9452121979703769 -1.9455847583685466 -1.9462009318000524 -1.9452755642897082 -1.9461727568986227 -1.9466972551394042 -1.9462169452078546 -1.9456510660001298 -1.9454880676356481 -1.9455120425241383 -1.9461048482403529 -1.946117378194602 -1.9460840250069902 -1.945621520940068 -1.9458884498355304 -1.9461158110201207 -1.9456099098263233 -1.9463268779076728 -1.9459161332116044 -1.9452544080239578 -1.945922710663047 -1.9453503548252151 -1.9462483894557328 -1.9459051455800422 -1.9457796434400474 -1.9458947828054853 -1.946140127110191 -1.9459391500290613 -1.9464295920655783 -1.9463490224962854 -1.9463084505980075 -1.9451584505208011 -1.9460082498690452 -1.945853971435715 -1.9459655737722148 -1.9462951296049951 -1.9461756735475848 -1.9464812367337252 -1.9454841948522277 -1.9461994310045245 -1.9464759150894388 -1.9463258478158432 -1.9465859989897272 -1.9460653519861959 -1.9457016720334359 -1.9457751575524596 -1.9460742678309015 -1.9462574906343477 -1.9460463582985874 -1.9460494767906236 -1.9455043248359765 -1.945566284661171 -1.9453173604311675 -1.946034085922004 -2.0274325713806616 -1.9453973320781521 -1.9458950020099286 -1.9455748289129169 -1.9462113215215917 -1.9460928838122371 -1.9459079708659801 -1.9463247651967905 -1.9457956506510099 -1.9461876865766168 -1.9461054254722541 -1.9461384544918254 -1.9461833128752999 -1.9462404404143707 -1.9457575775033253 -1.9462545849143869 -2.4308590220371071 -1.9454358731293562 -1.9463698428038894 -1.9464932751023525 -1.9462567356057403 -1.9461729919792601 -2.4439873620754695 -1.9461392735119691 -1.9462439679398642 -1.9459167415880234 -1.9463951636904253 -1.9460946268189128 -1.9458842307872681 -1.9468111048548635 -1.9462158099379918 -1.9460222771826254 -1.9458070810089541 -1.9466404756149256 -1.9452540351804519 -1.9455469763736133 -1.9458171881396324 -1.9456700049258646 -1.9455183278967496 -1.9455770389828855 -1.9461870030753328 -1.9456700901958026 -2.0290554788302613 -1.945580380049299 -1.9465022681137711 -1.9463894019383656 -1.945591795612686 -1.9461960929670497 -1.945514315271855 -1.9462559464202907 -1.9455999441212313 -1.9462631250184663 -1.9456749577276322 -1.9458991387258329 -1.9457305842487647 -1.9455773114212294 -1.9463510537676694 -1.9464252014141976 -1.9463700314074108 -1.9461400115829908 -1.9458456417397785 -1.946267115499225 -1.9461926980701096 -1.9464874343155656 -1.9465282889129536 -1.9464709182940234 -1.9456473979821254 -1.9463243957913059 -1.9462669996090363 -1.9455131837962536 -1.9459352491272932 -1.9457672837434545 -1.9461993175531416 -1.9462237260962763 -1.9456287061243065 -1.9462702010237376 -1.9460638264636458 -1.9460746353291749 -1.9466305518915692 -1.9465247359323095 -1.946512148784052 -1.9462656091584019 -1.9454143639440775 -1.9459388585516701 -1.9456868643132679 -1.9453246532348161 -1.9460232624760112 -1.946526220446261 -1.9455771051302866 -1.9455073231937261 -1.9460067479993539 -1.9464430676271591 -1.9464782423557703 -1.9466289326996151 -1.946322720244539 -1.945587485212362 -1.9460695105000896 -1.9465043245699569 -1.9460428917415507 -1.9458383626986364 -1.9463372255769695 -1.9456913633971591 -1.9455478271983868 -1.9457198798798103 -1.9454979397152159 -2.0049641273522614 -1.9464258314344014 -1.9465480518253888 -1.9454982381825359 -1.9454553639936016 -1.9453847605890944 -1.9466190818861817 -1.9461036533099674 -2.102684030206043 -1.9455417200805469 -1.9457097665199692 -1.9459175541081881 -1.9458387054873822 -1.9452178374864497 -1.946422967021306 -1.9461409224795696 -1.9465994596179019 -1.9455301789073731 -1.9456242312807224 -1.9462187275839546 -1.9456201219649485 -1.9460064494591953 -1.9464329573258692 -1.9465836762761983 -1.9459155260941128 -1.9465031856219923 -1.9458509923500289 -1.94613297554262 -1.9463815175028558 -1.9463596824735967 -1.9466295941496148 -1.9459627791710405 -1.9457890586235926 -1.945558710836939 -1.9459775124189598 -1.9465584491036469 -1.945629465339328 -1.9458088083644829 -1.9458007046871382 -1.9458438168894774 -1.9463107365058734 -1.9457152220153118 -1.9461441827798498 -1.9464294469182033 -1.9455168975299197 -1.9461097533022274 -1.9465393010424126 -1.9457749323075646 -1.9462757505360195 -1.9451652575966181 -1.9450844488728125 -1.9637021198663935 -1.9645082679907651 -1.9462666801656539 -1.9458100557960418 -1.9458457743901596 -1.945608235924875 -1.9455111392953794 -1.9462989018602477 -2.0368633170083363 -1.9457867190321096 -1.946067508380269 -1.9456522824371021 -1.9461425654343123 -1.9456292409150973 -1.9456207270374133 -1.9464735640145208 -1.9460822488956238 -1.9456741911216457 -1.945613199668899 -1.9465242193428889 -1.946534265084672 -1.9458354383061476 -1.9460576388424975 -1.9460495263455206 -1.9452591189035677 -1.9460285655511387 -1.9458381631784958 -1.9458827417039068 -1.946557818341399 -1.9457456699922659 -1.9460231625431899 -1.9458902293367286 -1.9458334950922276 -1.9456062258349265 -1.945696012895507 -1.9456591176615707 -1.9461409441306028 -1.9456214397605938 -1.9457468389194832 -1.9458450120904958 -1.9457356951810181 -1.9457593675113098 -1.9455903648748625 -1.9461082570827095 -1.9457111825949325 -1.9458726621215026 -1.946121915152778 -1.9468245437003457 -2.1427267428171812 -1.9462455249983006 -1.9457381206182354 -1.9465356793609678 -1.9462012596899521 -1.9456733478993717 -1.9460480387285159 -1.9463132810660708 -1.9461417462985762 -1.9464727872769669 -1.9462622764551163 -1.9454939983676898 -1.946601497600198 -1.9464436645387058 -1.9464213399321939 -1.9463043306223844 -1.9457624626886656 -1.9461539026137322 -1.9454710872360097 -1.946602332788411 -1.945609379548052 -1.9457525785253573 -1.9460932690212582 -1.9464427629006034 -1.9463210061391443 -1.9463935758828099 -1.9465962382904296 -1.9458710295736918 -1.9457884081176124 -1.9459018236554944 -1.9464722050368082 -1.9457563800084647 -1.9455721537131829 -1.9455051823133882 -1.9457275258947584 -1.945615865711253 -1.9466878555283962 -1.9456254195236686 -1.9456293229733135 -1.9455301896271424 -1.9455314321458705 -1.9462607944158057 -1.9455028999066297 -1.9461577417346032 -1.9455229451522091 -1.9458496707736643 -1.9455461392587199 -1.9460557446139735 -1.9456032715005862 -1.9460984794949703 -1.9458395739743928 -1.9467303710553958 -1.9463877471360025 -1.945577703127173 -1.9458003284887009 -1.9463445515220079 -1.9459962144070488 -1.9457259554360677 -1.9461529786097329 -1.9460799134542486 -1.9454852032988161 -1.9465793758284065 -1.9463144797505219 -1.9462309149143489 -1.94556642267885 -1.9462698277002028 -1.9718981363004739 -1.9462949288630489 -1.9461319252254248 -1.9462134683308328 -1.9456248230040394 -1.9450285066827768 -1.9460903897839241 -1.9458697230569646 -1.9463377363812562 -1.9458762980789723 -1.9461870799144736 -1.9454948872399018 -1.9457152185466324 -1.9464697279500756 -1.9467035995383797 -1.9461890853860737 -1.9457437540636342 -1.945676826950091 -1.9464634425880287 -1.9463054378785387 -1.9462944194770802 -1.9458050364972701 -1.9453143864918954 -1.9454185184680406 -1.9453199374781625 -1.9461150790206738 -1.946081058528178 -1.9464777886243925 -1.9465107418867638 -1.9458600316106218 -1.9459843608371092 -1.9463189151341553 -1.945752388006089 -1.9456033067013572 -1.945907584449323 -1.9464604116526425 -1.9458579639104834 -1.9463517452098502 -1.9454133972496022 -1.9455202954530604 -1.9460550003936898 -1.9465481296805713 -1.9464050164915938 -1.9466511055299844 -1.9455915872984229 -1.9457580156635639 -1.9460181038798079 -1.946288273013544 -1.9457834856014773 -1.9458723227669863 -1.9467158167626541 -1.9461837594723235 -1.9456428302868523 -1.9451186433356149 -1.9458371255697391 -1.9463547761451769 -1.9457674526129736 -1.9464938832211942 -1.9463064069135907 -1.9454946554295383 -1.9460642511282322 -1.9458768296391293 -1.9454941229535334 -1.9465781437586649 -1.9452683928086929 -1.9457895844458415 -1.946451260741918 -1.9456935757852036 -1.9462854719151608 -1.945362001525615 -1.9455005225263577 -1.9458453072904154 -1.9460935255192151 -1.9455127575993973 -1.9458364764866118 -1.9463071166418935 -1.94639530917855 -1.9458197828435559 -1.9455056243546869 -1.9455566644504998 -1.9455495980473916 -1.9458092641325195 -1.9461264073830222 -1.9454676466786958 -1.9454614298085524 -1.9462062916541423 -1.9458762506190981 -1.945684252939768 -1.9460276707338946 -2.0799909854476302 -1.946306141172875 -1.9461167949841873 -1.945567304930111 -1.9456292645851876 -1.9454309725228187 -1.9460169897890387 -1.9455676870654584 -2.031679284297029 -1.9456047960876575 -1.9456960801412617 -1.9455363729137691 -1.9460307377929997 -1.9456249261121845 -1.9462304586545505 -1.9456480854444302 -1.945883972378649 -1.9461838738825392 -1.946096741513986 -1.9454623017682595 -2.4417683402247294 -1.9460840977249729 -1.9456166356367008 -1.9462156768394179 -1.9457842047333198 -1.9455228983364672 -1.9461904993834025 -1.9464321821467583 -1.9455608067426655 -1.9456997168758237 -1.94635092181104 -1.9454414854672719 -1.946133502944982 -1.9456688564802869 -1.945596491861602 -1.945810129095761 -1.9460074393135864 -1.9461350901077668 -1.9452575052423258 -1.9462889104499368 -1.9460420578949544 -2.0261154838488826 -1.9465610679857654 -1.9460330670370078 -1.9462983101597764 -1.9457134145859369 -1.9459770316155369 -1.9458165252545341 -1.9461260629945054 -1.9459494442243022 -1.9461813966650727 -1.94540351466187 -1.9458781503061835 -2.0716149215587989 -1.9459384139343265 -1.9459470441683355 -1.9454072257319637 -1.9451841325607833 -1.9461198298332165 -1.9460707853977359 -1.9456889328565703 -1.9463697630266439 -1.9451380433121972 -1.9465124487058001 -1.9463988539075807 -1.9459765273205616 -1.9459578237649942 -1.9464039768826924 -1.9461052508281838 -1.9462679814456203 -1.9459630763247753 -1.9459510193996392 -1.9460968977973701 -1.9453204225123484 -1.9463035835693219 -1.9461004336464276 -1.9462905643666302 -1.9461470596130896 -1.9763742355857343 -1.9459943940255109 -1.9451349563752602 -1.9460821708327385 -1.9459438913532308 -1.9459714856497174 -1.9454031158045009 -1.9461210135355336 -1.9461500779072476 -1.9463700036856351 -1.9459138621886332 -1.9460852725153701 -1.9456918141054891 -1.9455717742272316 -1.9459808650267636 -1.9453847473759376 -1.9464660747085549 -1.9455603551624825 -1.9459536858846489 -1.9455172351759877 -1.9460783017445862 -1.9460270134679918 -1.9459916553664289 -1.9460498103968256 -1.9463817797706413 -1.9454303386974914 -1.9455637741587621 -1.9457150268853469 -1.9452596214549549 -1.9464887823407229 -1.9456600453495299 -1.9461563409309135 -1.9456240435688223 -1.9465512034062824 -1.9454944755759553 -1.9453584561107313 -1.9460911379534866 -1.9462965697503387 -1.9462289300852673 -1.9458068734506444 -1.945716685540182 -1.9461272756075352 -1.9462165405617922 -1.9458197140469962 -1.9451372999564494 -1.9454240038923958 -1.94534334537604 -1.945789396208794 -1.9461346903227348 -1.9463321857359028 -1.9452688654461554 -1.946178991711732 -1.9460860932520125 -1.9465598073419605 -1.9464708477989616 -1.9462882486954847 -1.9453121773833104 -1.9459766357392236 -1.9458599933836389 -1.945228436956733 -1.9462129338856473 -1.9462034437962947 -1.9461837144086873 -1.9455342899321173 -2.0984074228025089 -1.9463007143916116 -1.946257905061882 -1.9459831825025746 -1.9459063119275526 -1.9455414372054498 -1.9454218209815919 -1.9460850173362449 -1.9462253309852298 -1.9468485780686 -1.9468480311607352 -1.9459181765128137 -1.94579486937174 -1.9453115834721557 -1.9454646485940146 -1.9464678367679917 -1.9451356332677714 -1.9451554321151046 -1.9459242202340277 -1.9461947078864845 -1.9461974498142658 -1.9453370666029037 -1.9455462624770743 -1.94572632027573 -1.9453589081163272 -1.9462062594493954 -1.9467508452024049 -1.9460451465010606 -1.9464187546391536 -1.945384825185547 -1.9454657402395263 -1.945513707338427 -1.9459559549314616 -1.9461746135832909 -1.9461654123049743 -1.9459154493971269 -1.9455771628193121 -1.9459988703730515 -1.9461323961043135 -1.9459398144978515 -1.9452070616202763 -1.9461788354952325 -1.9453071099424031 -1.9462610961383393 -1.9468443686647967 -1.9459627155260195 -1.9452314532987043 -2.0525540755666478 -1.9460018683734872 -1.9459772842729446 -1.9460931341074568 -1.9463408156613364 -1.9451680252153136 -1.9451779823551576 -1.945525159387542 -1.9451105862705085 -1.9460775791394564 -1.9459393983204307 -1.9462053890269404 -1.9460129804122965 -1.9451891356080915 -1.9461812043781277 -1.9461007518063478 -1.9452643046754723 -1.9456052226917742 -1.9456797838592974 -1.9453724491075064 -1.9466762527950958 -1.9463935556969179 -1.9464945177350077 -1.9464761572339293 -1.9461524188741128 -1.9456547563512347 -1.9453166271144628 -1.9462418172059188 -1.9461851987710657 -1.9451421955787458 -1.9451153934298868 -1.9455822692156941 -1.9460895302628551 -1.9460820410304347 -1.9460282220610805 -1.9460145903388972 -1.9453146454072137 -1.9454106362369727 -1.9456985036585397 -1.9466926456473472 -1.946485537807038 -1.9464252167737734 -1.9457359264958287 -1.946259833419923 -1.9456406584814954 -1.946711604164898 -1.9458004539406812 -1.9462352347142513 -1.9461843041633513 -1.9459352403530852 -1.9466903087026179 -1.9455145950673136 -1.9461240453567579 -1.9457851429977746 -1.9461260477190863 -1.9461499262925093 -1.9455961909953772 -1.9458360305289855 -1.9457797035565989 -1.9458396269567595 -1.9456525173860584 -1.9456043758638082 -1.9454933388042206 -1.94670472277059 -1.9453713443756355 -1.9454852457341376 -1.9464074896670571 -1.9461983594736827 -1.9467715067420177 -1.9464330849082077 -1.9463977337874074 -1.9463530658334447 -1.9460301465715515 -1.9458014868356477 -1.946086860028758 -1.9463302704590386 -1.9463035587816155 -1.9456427735937647 -1.9462169074131423 -1.9456518041293365 -1.9466738303977524 -1.9462619848845033 -1.9463258121552285 -1.945832252858265 -1.9851185827116951 -1.9464739477704283 -1.9461087857389567 -1.9450730049331435 -1.9453238858819528 -1.9456486888209681 -1.9462125366111389 -1.9463176497620749 -1.946650907152371 -1.9457606389043045 -1.9460720398005908 -1.9468775884381522 -1.9456130462207635 -1.9462115886789506 -1.9451040546991365 -1.9459672655797462 -1.9466513836791408 -1.945769310140071 -1.9460811578587782 -1.9461792845841965 -1.9454655074812839 -1.9456204558520573 -1.9451434337170701 -1.9461834124948005 -1.9459795174378545 -1.9455471505316859 -1.9456650551851782 -1.9457608414214831 -1.9457778522526206 -1.9459488549843815 -1.9464499980163339 -1.9459610763791162 -1.9456924744205482 -1.9452203951078715 -1.9455669179806123 -1.9459604464011335 -1.9459672434452207 -1.9464415701741777 -1.9456298151376012 -1.9456320617056038 -1.9459561192809185 -1.9456018645306068 -1.9463154707151407 -1.945748404252893 -2.0173936347199484 -1.9456789602287534 -1.9459433252683378 -1.9464595443093851 -1.9462872643732416 -1.9456319483205002 -1.9453536611376274 -1.945744871553615 -1.9458147070038514 -1.9459501240921482 -1.9456913041342725 -1.9460221096963797 -1.9460257553976845 -1.9449925660517224 -1.9452166902671588 -1.9457416693689535 -1.9460056522440135 -1.9465377922650151 -1.9457781036406254 -1.9455197401325086 -1.945398188872379 -1.945775173661938 -1.9453429944143139 -1.9462415413426937 -1.9454211658766347 -1.9461088009344472 -1.9459329499057922 -1.9456633995526731 -1.9462873831460479 -2.0956822524897625 -1.9456414250213649 -1.9462035933644182 -1.9461904360680018 -1.9463077584619539 -1.9460658745097679 -2.2429620183723622 -1.9455882049717685 -1.9455864720506262 -1.9457428281940528 -1.9466389496729426 -1.9461837497416039 -2.1081698670070348 -1.9461102241203621 -1.9463649738783437 -1.9462157701395071 -1.9456925313209938 -1.9461112773751721 -1.9462768064668468 -1.9460917444952517 -1.9459355087651322 -1.9458222339657654 -1.9456530344735654 -1.9462172664937218 -1.9463904052897114 -1.9462062365090849 -1.9463670173011174 -1.9461608805205528 -1.9461993232242836 -1.946283455509684 -1.9466754500818262 -1.9460835957523641 -1.9461923653723636 -1.9462835910499487 -1.9461152165017519 -1.9460000476569606 -1.9459362601442425 -1.9461618986802656 -1.9458888340318148 -1.9460808037863961 -1.9462726712261056 -1.945994764895602 -1.9460693342221447 -1.9456023999376908 -1.9462056240616443 -1.9463738145799225 -1.9462411636255132 -1.9457968725156642 -1.9458831569159638 -1.9463834546378933 -1.9460676340339242 -1.9458219027309862 -1.946312782336429 -1.9466422005173409 -1.9463811844061303 -1.9464053201665257 -1.9457585651885871 -1.946295840366977 -1.9465173631555286 -1.9463477846891366 -1.9455531980691545 -1.9460175445921368 -1.9462562991386747 -1.9458092006170751 -1.9453962136795244 -1.9464144761578395 -1.9453465268443566 -1.9454164673743144 -1.9463097202581876 -1.9458645298866946 -1.9454959164279695 -1.9461923458069521 -1.9460998823375149 -1.9458442937014229 -2.1148273705919318 -1.9459271851596045 -1.9456190030315124 -1.9461662907660096 -1.9457273605987446 -1.9454786599205514 -1.9456462000953392 -1.9454628875688342 -1.9458661636081709 -1.9464091181174845 -1.9455789646362733 -1.9463407291322847 -1.9461406763336513 -1.9450476553377987 -1.9455499824021176 -1.945452467937379 -1.9457812654421915 -1.9457462751084469 -1.9462985119410066 -1.9460828442141815 -1.9458899879793368 -1.9455666787415384 -1.9461962117475033 -1.9462745657188041 -1.946318881668466 -1.9463546870689794 -1.9451616688580815 -1.9451313531792165 -1.9459356989577608 -1.9462295648999874 -1.9453396092263673 -1.9454480947600588 -1.9458948614404299 -1.9459741712894691 -1.946409839378892 -1.9460138747062246 -1.9456968820175091 -1.9464197622458119 -1.9464578647890385 -1.9462384533153234 -1.9459649036701328 -2.0197448917078473 -1.945321010003241 -1.9452459203892218 -1.9468386297988254 -1.9460594167627814 -1.9465974977228846 -1.9461032706740098 -1.9462885682553477 -1.9462283840277612 -1.9453162603369507 -1.945705023483707 -1.9459743125035065 -1.9461392778699429 -1.9460269069163885 -1.9457282413026873 -1.9455836138840759 -1.9459434965464013 -1.9460716401238181 -1.9460040405322478 -1.9461514634605863 -1.9459442539866612 -1.9459962451380719 -1.9460216444908784 -1.9456340637168064 -1.9458666309634658 -1.9454481944784436 -1.9454874661631041 -1.946086709292062 -1.9462152861767219 -1.9465111504829324 -1.9454383673344233 -1.9455940072718501 -1.9847616647210211 -1.9456078741507761 -1.9460350719312633 -1.9452296867321888 -1.9454605347771536 -1.9452175517585117 -1.945328127735475 -1.9461878687742167 -1.9460017458405923 -1.9460518985038866 -1.9452546353686031 -1.9459624513372042 -1.9453710571449148 -1.9458404454585354 -1.9460318958623524 -1.9451919410941132 -1.9463484808341838 -1.9458830217017122 -1.946258351290685 -1.9455778019892873 -1.9457151818321279 -1.9465950649899848 -1.9462161072499033 -1.9458692488807692 -1.9458346850998893 -1.9450531295258622 -1.9455876104205949 -1.9458727952652812 -1.9465020929853158 -1.9459385041209372 -1.9455382852377587 -1.9460238731612634 -1.9452639076467191 -1.9460130700228957 -1.9454965496554006 -1.9453947692413425 -1.9456980856496455 -1.9460949803484069 -1.9456510466966941 -1.9464025344051241 -1.9456134623407597 -1.9459531464822173 -1.9457020083501373 -1.9464625772822401 -1.9455927352973672 -1.9461311695902093 -1.9467598331404559 -1.945664322415845 -1.9457594661084285 -1.9463208938407996 -1.9464044244247594 -1.9463183364178409 -2.0075068057893506 -1.9460433821062795 -1.9463910363794596 -1.9463041722033576 -1.9458805713570393 -1.9457825679583458 -1.9456452240835218 -1.9460906103500026 -1.9458145210441171 -1.9454711953482413 -1.9456346451695634 -1.9465615719978855 -1.9458328716308313 -1.9460773417960022 -1.9461757787874292 -1.9460877660003613 -1.945459498840638 -1.9461110146473939 -1.945560009395245 -1.945506596744019 -1.9455528096826744 -1.9460995813033171 -1.9462494098459264 -1.9462294144868193 -1.9457607960562071 -1.9458786012254985 -1.9461410560137602 -1.9463432112001604 -1.945941394889888 -1.9452416776960431 -1.9455417402900836 -1.9452899057817938 -1.9457169171960842 -1.9457087005971101 -1.9460679484063623 -1.945148831871014 -1.9461878698057662 -1.9460719593103333 -1.9458856586872022 -1.9463309376229294 -1.9463991656100474 -1.9452616024768128 -1.9452120326363125 -1.9458120209074583 -1.9451835900806773 -1.9462135701854628 -1.9461353260651675 -1.9461663219214711 -1.9455169563599894 -1.9459299915779933 -1.9458756071601488 -1.9463380559613728 -1.9460509478978689 -1.9458896541099386 -1.9455100489376027 -1.9452825504542652 -1.9460649108956223 -1.946385971950344 -1.9468499415368383 -1.9468496453415973 -1.9454461155797411 -1.9896151922403107 -1.9453116354239861 -1.9465864374357982 -1.9463083651380877 -1.9461533896251666 -1.9457892399187575 -1.9454541386204189 -1.9461951595011191 -1.9462022738659481 -1.9461993958482873 -1.9455438569595294 -1.9463539025137719 -1.945474919325664 -1.9460075068976217 -1.9455696391385762 -1.9464655640882924 -1.9467355105267983 -1.9462208606429419 -1.9454886730441208 -1.9457960779798 -1.9464408270449061 -1.946109749447384 -1.9464318352749477 -1.9463931533487562 -1.9457157015282616 -1.9460295567712134 -1.9460933918236776 -1.9465294549772396 -1.9454855323627511 -2.0162173680497397 -1.9458337166417417 -1.9453004154918325 -1.9462769772510762 -1.9459396294168056 -1.946277665818176 -1.9462657279461859 -1.9453595310292824 -1.9458228660828309 -1.9457136802267341 -1.9462961218723218 -1.9462649952563553 -1.9461142329905903 -1.945630510997765 -1.9461560790478312 -1.9462867113535982 -1.9460931766919767 -1.946306353723525 -1.9455276540987532 -1.9454180867041975 -1.94563238692456 -1.9455688645866938 -1.9463714458747938 -1.9465436494440651 -1.9464918907389501 -1.9463809384000585 -1.9456407205657864 -1.9457200213153121 -1.9458770620167407 -1.9462442700916385 -1.9466043838350666 -1.9466257401947398 -1.945947659747622 -1.9462770973852934 -1.94616145212485 -1.9457956581398579 -2.2270295835016327 -1.9452646818586754 -1.9461971867406316 -1.9461705171021748 -1.9462739761108192 -1.9454843872393506 -1.945643381357135 -1.9459527961719192 -1.9457126359584833 -1.9457544208560584 -1.9456462086245154 -1.9458852262238995 -1.9457560174632023 -1.9463220726408113 -1.9455264710402498 -1.9460683627884792 -1.9462751633539648 -1.9464061353168891 -1.9457634912987918 -1.9460606693936275 -1.9462371798984919 -1.9457363376763797 -1.9464154187771914 -1.9453677225966719 -1.9462902454802142 -1.9455754511434762 -1.9459609512375091 -1.9461453999819867 -1.9455174666683415 -1.9460192191703176 -1.9455487227776684 -1.9733739091052134 -1.9453291482554664 -1.9465622134523539 -1.9462607623397512 -1.9456945638016767 -1.945695014440098 -1.945774582355797 -1.9463174048076248 -1.9460484145589652 -1.9461830535593323 -1.9456083962797592 -1.945937064772477 -1.9455599315085341 -2.3797040371087523 -1.9460816911686512 -1.9456548695617497 -1.9458351752776153 -1.9463885319029168 -1.9465561128102093 -2.183168830483198 -1.9456200212718182 -1.9459196705905433 -1.9463079019551119 -1.9464343436513498 -1.9459910463926768 -1.9456696570110312 -1.9464955630399072 -1.9455714341963186 -1.946018359180141 -1.9456309093003898 -1.9456421832807291 -1.9454772858389384 -1.9465302773735182 -1.9461894051457131 -1.9453455363763326 -1.9452841459040682 -1.9465412658541328 -1.9463624705641493 -1.9463634521747293 -1.9456108199910678 -1.9462478063427282 -1.946335788543287 -1.9459705581147098 -1.9451170534232451 -1.9456670682587913 -1.9462958072203866 -1.946549800202086 -1.9455500920981403 -1.9457058543962324 -1.9461389736522803 -1.945524232868012 -1.9456978467387649 -1.9461992052704444 -1.9465006082367236 -1.9458903273824544 -1.9455536958793587 -2.2114249100285299 -1.9460866230982334 -1.9455264689309197 -1.9464078389221238 -1.9465524744104197 -1.9460360954279963 -1.9457175577761938 -1.9460482237634071 -1.9464019521856739 -1.9464736807016476 -1.9460270364892829 -1.9459365337059733 -1.9460705220492021 -1.9462091149661174 -1.9460623321344186 -1.9461739076414655 -1.9463498986379899 -1.9459862922748219 -1.9458183983902457 -1.9458038172100836 -1.9462323148310197 -1.9460291421801512 -1.9461752002378669 -1.945809014403092 -2.2779267302074535 -1.9460653563882959 -1.9461747637135318 -1.9460148259109302 -1.9458563156921802 -2.2671835781264713 -1.9457489553183125 -1.9454575063852573 -1.9463924029683004 -1.9462442314357304 -1.9456342837657647 -1.9463359297743805 -1.9453982520645476 -1.9460728838666996 -1.9464614989581499 -1.9459447734397468 -1.9458599385795594 -1.9457271684766042 -1.9462472123022718 -1.9460964448058022 -1.9457252166535557 -1.9454603246371969 -1.946218231391766 -1.9460715738990977 -1.9456765379258447 -1.9463234822468956 -1.9461060039908338 -1.9463016412469443 -1.9462154258779707 -1.945678524900218 -1.9462923521041628 -1.9463166537793375 -1.9463256037421222 -1.9465865164878826 -1.9454568187475156 -1.9463899148174622 -1.9456900171749165 -1.9459342088228964 -1.9458484794151449 -1.9462640007295116 -1.9463843058534573 -1.946096154045772 -1.945720578573011 -1.9477906376052874 -1.9458845139409675 -1.946409962325047 -1.9459327173483347 -1.945484300869563 -1.9451717903792618 -1.9463185705543775 -1.9459917897370613 -1.9463263035146994 -1.9464435213462346 -1.9464103427639241 -1.9460558036777857 -1.945354431189759 -1.9457356931571728 -1.9452225978784583 -1.9463436532016416 -1.9461701277438326 -1.9456159995987643 -1.9453874656235857 -1.9451069173856865 -1.9464222536956288 -1.9457664133258579 -1.9454648060558504 -1.9460120135314385 -1.9462500602988264 -1.945910501008397 -1.9459105373089944 -1.9463636247987601 -1.9456937778453283 -1.9460900772424379 -1.9467164776557075 -1.9459186302500262 -1.9452822733639663 -1.9457273151229049 -1.946428737547869 -1.9451270251270489 -1.94550439310136 -1.9453019175187387 -1.9677293325972227 -1.946336742515411 -1.9460413143722235 -1.9459555679599783 -1.945298084655932 -2.0626989261624411 -1.9457733022757731 -1.9461093321068847 -1.9465358128598942 -1.9457898207234896 -1.9466845548786269 -1.9462658947539411 -1.9459157214060021 -1.9458121237360853 -1.945745601318662 -1.9462095218183979 -1.9461010845769269 -1.9460082213279295 -1.9460271878062427 -1.9460125309725074 -1.9464925046780779 -1.9465259020544563 -1.9461498026606452 -1.9464559666801156 -1.9462150732555266 -1.9463063088841441 -1.9460713580038818 -1.945898464061564 -1.946391706276501 -1.9460670473120334 -1.9460034977010796 -1.9460113301602184 -1.9455426163165492 -1.9460643186398099 -1.9460752580970679 -1.9459818676741154 -1.9461740944785846 -1.9458139135645858 -2.1241669462963788 -1.9459398079404377 -1.9457089301933459 -1.9466367522550421 -1.9457632872878374 -1.9459888714805165 -1.9453502940778331 -1.9454544195802581 -1.9459683484565653 -1.94591911875113 -1.9462128216503018 -1.9456581392382182 -1.9462767984270835 -1.9462751958023869 -1.9457715847870694 -1.9462763307208684 -1.9464845502048309 -1.9461541313216748 -1.9450338673436205 -1.9462406871752469 -1.946562991995288 -1.945871164745735 -1.9454887811322354 -1.9454976891532401 -1.9463805577086686 -1.9458982561650804 -1.9458229029676171 -1.9454487642028666 -1.9465257210847999 -1.9455158041508906 -1.9463097361799016 -1.9460427377170673 -1.9455344732763133 -1.946481939978904 -1.9458392097101309 -1.9455503986070315 -1.9465081064664798 -1.9457283858993641 -1.9462596210472045 -1.945492193561333 -1.9458454864421191 -1.9456241388921525 -1.9456551526285675 -1.9463354862647919 -1.9457323696636 -1.9460893678596822 -1.9463628798653179 -1.9467577284293378 -1.9456117536979087 -1.9455554330980291 -1.946316438190266 -1.9460352826920406 -1.9457696126727568 -1.9455601008340644 