svm_type c_svc
kernel_type rbf
gamma 0.016949152542372881
nr_class 77
total_sv 462
rho -0.0051282942295074463 0.002644658088684082 0.0095955133438110352 -0.029441714286804199 0.010821101964170212 0.0095591247081756592 -0.013812929391860962 0.074578996875067347 -0.049505800008773804 -1.0495077029659683e-16 0.038535300967330682 -0.034399956464767456 -0.037310153245925903 -0.019212126731872559 0.0055342018604278564 0.0063891112804412842 0.0020026266574859619 0.0013855397701263428 -0.080402612686157227 -0.0044082999229431152 -0.015752702951431274 0.031502634286880493 0.0036519169807434082 -0.043902933597564697 -0.10308444499969482 -0.0015685558319091797 -0.041089922189712524 0.019321560859680176 -0.00053063035011291504 -0.00010234709594482633 -0.0082384049892425537 -0.01460149884223938 -0.021730810403823853 -0.0072333812713623047 0.035078823566436768 -0.0022294153126543904 -0.10508832335472107 0 -0.013603627681732178 0.019190043210983276 -0.00023818016052246094 0.0040495991706848145 -0.013291108040445025 -0.05278363823890686 0.023264497518539429 0 -0.0053005814552307129 -0.0015326142311096191 -0.020269274711608887 0 0.015159359438332793 -0.01594206690788269 -0.0071211755275726318 -0.013467371898556683 0 -0.03330695629119873 0.022162109613418579 0 -0.029116898775100708 0.0045138001441955566 -0.03750300407409668 -0.046593457460403442 -0.015656769275665283 -0.02228119969367981 -0.038705259561538696 0.0096826866548737275 -0.12277445197105408 0.014597833156585693 0 -0.039851903915405273 -1.0755285551056204e-16 0.016713470220565796 0.032725363969802856 -0.003977358341217041 -0.0011349499294080799 0.032577574253082275 -0.029622994453147183 0.0093964338302612305 -0.037652403116226196 -0.039263741471504555 -0.083978712558746338 -0.062633862262266513 -0.13363650441169736 0 -0.03273555834929176 -0.067291193049611342 -0.016808778047561646 -0.13420903682708737 0.032114088535308838 -0.085648119449615479 0.042706668376922607 -0.16342973841653299 0 -0.15633273124694824 0.040479183197021484 -0.13671174971778893 -0.0071982443332672119 0.0059500336647033691 -0.041051441931329202 -0.073498159646987915 0 -0.084354817867279025 -0.14461541175842285 0.0036938232076078859 -0.061430354871993512 0.0017771422863006592 -0.051078045031219509 -0.065064560402064264 0.095076709985733032 -0.078952521085739136 -0.068916971923830964 -0.17688272203220687 -0.046261131763458252 0.0090332329273224571 -0.014314477630793642 0.060318946838378906 -0.045003630446672674 -0.10544940829277043 0.14067399501800537 -0.026813685894012451 0.098600149154663086 0.15804630517959595 -0.16614335775375366 -0.12946291128907844 -0.015309691429138184 -0.063314150632099692 -0.019754158729137276 0 -0.11857679486274719 0.058918197710805732 -0.007864147424697935 -0.040565907955169747 0.018879532814025879 -0.11947831363312302 0.13004234433174133 -0.026254802942276001 -0.030481558140644717 0 0.021957188844680786 -0.06252920265674608 0.18861404728718315 -0.10176700353622435 -0.04230910796957512 0.0068129897117614746 -0.20515340566635132 -0.051683098571054811 -0.061054766178131104 -0.045846049845102814 -0.092650026082992609 -0.019632245352445815 0.058919548988342285 -0.017735302448272705 -0.068708360195160009 -0.0017071704021138581 -0.010917842388153076 0.022891312837600708 0.052559316158294678 0.021595180034637451 0 0.062831014394760132 -0.0007082819938659668 0.00092437863349914551 -0.055264770984649658 -0.0045182704925537109 -0.051327503211476756 -0.010155558586120605 0.055957406759262085 -0.11206340789794907 -0.024117261171340942 -0.021270900964736938 0.0054529309272766113 -0.018328428268432617 -0.045133620500564575 -0.13720616698265076 0.067899763584136963 -0.059329837560653687 0.012483000755310059 -0.024767875671386719 -0.013353168964385986 0.021628439426422119 -0.03405269980430603 -0.053822994232177734 0.017170429229736328 -0.0024641454219818115 0.0087635815143585344 -0.1417241773718578 -8.6736173798840355e-17 -0.0018805861473083496 0.0060099363327026367 -0.026225835084915161 0.001580357551574707 -0.017017211793385931 -0.058162987232208252 -0.010579168796539307 -0.0047722596398286684 -0.025083035230636597 -0.032727586598348755 -0.0037716329097747803 -0.017337143421173096 0.0096700787544250488 0.056566089391708374 0.022944062948226929 -0.025923192501068115 0 -0.024857461452484131 0.011256873607635498 -0.086024343967437744 -0.039296150207519531 -0.0075654387474060059 -0.0468483567237854 -0.021393567323684692 0.06825748085975647 -0.063838720321655273 -0.02964019775390625 0.006989910722523464 -0.099790781736373901 -0.0040143728256225586 0 -0.033458322286605835 0 0.0068402588367462158 0.013037145137786865 0.014088481664657593 0.040126264095306396 -0.0019445099369832617 0.015373528003692627 0.010494287516356584 0.0084826648235321045 0.01910555362701416 0.038726001977920532 -0.0096263587474822998 0 0.025299668312072754 -0.026118278503417969 -0.12487658858299253 -0.020296096801757812 0.021102368831634521 -0.027884960174560547 0.0012187957763671875 0.020980596542358398 -0.006865382194519043 -0.0064089596271514893 0.013491064310073853 0.0021031200885772705 0.0074984729290008545 -0.012965887784957886 -0.043448746204376221 0.0020324885845184326 0.036154568195343018 0.0023831427097320557 0.012330293655395508 0.013287508805525752 0.0090527236461639404 -0.0039476752281188965 -0.004133373498916626 0.0088561177253723145 0.009473651647567749 -0.027039706707000732 -0.009728550910949707 3.1225022567582528e-17 -0.001719743013381958 -0.0049231052398681641 0.0080427825450897217 -0.00056871771812438965 -0.015591949224472088 -0.054900616407394409 0.0070000290870666504 -0.031852224737815273 -0.0089806616306304932 0.00041225552558898926 -0.031394809484481812 -0.089073479175567738 0.025620217231614065 0.020730976332811079 0.012174546718597412 0.022627651691436768 1.1058862159352145e-16 -0.022549867630004883 -0.00089147686958312988 -0.10652366280555718 0.08430066704750061 0.00047448277473449707 0.0072269439697265625 -0.0039803087711334229 -0.016999304294586182 -0.041409105062484741 -0.0068886280059814453 0.00092062354087835141 -0.10282650589942924 0.019545435905456543 0 0.007562488317489624 0 -0.014859259128570557 -0.0070039629936218262 0.0069591701030731201 1.1796119636642288e-16 0.0054698288440704346 0.01564318169963649 -0.046125279120477793 -0.014671415090560913 0.034708768129348755 0.12544843554496765 0 0.02581020409291623 0.048722684383392334 -0.062972992658615112 -0.04524269700050354 -0.038569360971450715 -0.04406324028968811 0 0.12980031967163086 0.00066688656806945801 0.0028117597103118896 -0.01270410418510437 -0.019328713417053223 -0.011659920215606689 -0.015136241912841797 0.0027802884578704834 0.096458405256271362 0.015610199278178805 -0.071450309175236842 0.023400306701660156 0.011040657758712769 0.11097031831741333 0 0.0053639411926269531 0.080061124189899857 -0.048311501741409302 0 0.023925215005874634 -0.019741865291035665 -0.05778801441192627 0.016073137521743774 -0.019230097532272339 0.033993709367075339 -0.00081476569175720215 -0.011943161487579346 -0.038328409194946289 -0.073999017477035522 -0.015898078680038452 -0.029283910989761353 -0.087198397953718268 -0.10787692666053775 0.0055894255638122559 0.045809239149093628 0.10548761487007141 -0.0044522881507873535 -0.018895186435202972 0.037985622882843018 -0.078055322170257568 -0.069680839776992964 0.014781653881072998 -0.026127129793167114 0.045650392770767212 0.048498809337615967 0.1065731942653656 -0.018642157316207886 0.10061257762103358 -0.047308623790740967 -0.015300184488296509 0.057614368734463045 0.1071833074092865 -0.05077788233757019 0.001422245830424107 -0.032789379358291626 -0.048064470291137695 0.030473470687866211 0 -0.040245026350021362 -0.013709073952507072 0 -0.17752384395513132 -0.019639425036815088 0.0009739995002746582 0.0083839595317840576 -0.033531252171910358 0.18262480837486192 -0.021230103480015156 -0.0026602529733599362 -0.013194166164315102 -0.0026522576808929443 -0.024331324831767028 -0.023437480257987062 -0.026932119235633181 0 -0.02111356698059863 -0.0063805853169313989 -0.002133791430751169 -0.01176467433236009 -0.065588206052780207 0.096751302480697632 -0.0095821279255437174 -0.0050992894486354507 -0.064362376928329468 -0.027776506725248368 0.056901723146438599 -0.020543575286865234 -0.023323699654646295 -0.021888892772937894 -0.017064034938812256 -0.055070486901612155 -0.1263505493737902 0 0 -0.017295026630863009 0 -0.060562779643444843 -0.017700210213661194 -0.011234860023035998 -0.015620761736750484 -0.017340983958930405 -0.022463652468648669 0.0050307805314931909 -0.00051355873400073769 -0.0098518431186676025 -0.0021135823497428641 -0.027090254282796621 -0.016832829226642615 0 -0.030553370714187622 0 0 0 -0.017012748172409525 -0.01325154304504399 -0.096928608258135096 -0.013370539702366218 -0.012924847352745704 -0.10259895723831892 -0.01508773779457032 0.0082016587257385254 0 0 0 -0.016879141330718994 -0.028560918984909339 0 -0.014314402669448171 0.00098809599876403809 -0.013380997349988939 0.021916494545328201 0.017846077680587769 -0.056517183780670194 -0.00027366270819533038 -0.085329562425613403 -0.02533721923828125 -0.099139630794525188 0.022120088338851929 -0.0078476965427398682 -0.0073518455028533936 -0.0073341429233551025 0.0044459402561187744 0.025612235069274902 -0.0023185908794403076 -0.001125633716583252 0.02765125036239624 0.0024290978908538211 -0.0011753067144461237 -0.042969971895217896 0.0063592493534088135 0.037261337041854858 -0.00083166360855102539 -0.022689461708068848 -0.019293487071990967 -0.0097098648548126359 0 0.0019582808017730713 0.026339024305343628 0.0081521272659301758 -0.019392639398574829 0.095517396926879883 0.0052568614482879639 -0.02489161491394043 -0.0020484626293182373 0.013268887996673584 0.0077293042337742857 -0.021466672420501709 -0.027307212352752686 -0.028931021690368652 0.034558385610580444 -0.011904448270797729 -0.031008660793304443 0.017776429653167725 -0.018513590097427368 0.026323825120925903 -0.0012187758967227909 -0.007646024227142334 0.0063730180263519287 -0.014426887035369873 0.0085719823837280273 0.00013843051388411282 -0.060420513153076172 0.052144099598231824 0.018236070871353149 -0.0033480226993560791 -0.015573710203170776 -0.052726060152053819 -0.03261449933052063 -0.064916402101516724 0.018173307180404663 -0.033325910568237305 -0.0025261044502258301 1.3704315460216776e-16 0.015204548835754395 0.011620312929153442 -0.0020035207271575928 -0.016440153121948256 -0.013087928295135498 0.00010141061150042382 0.012369006872177124 0.031389176845550537 -0.050267508054126865 0 -0.016493439674377441 -0.062885195016860962 -0.10984280705451961 -0.01413998007774353 0.026007324457168579 -7.1614980697631836e-05 0.023859500885009766 -0.0027801096439361572 -0.081672370433807373 -0.021493524312973022 -0.024524331092834473 0.020992040634155273 0.019613653421401978 -0.051303237676620483 -0.07613798975944519 0.004578709602355957 -0.0020753145217895508 -0.0093122720718383789 -0.02155950665473938 0.020517289638519287 -0.019288748502731323 -0.0059460103511810303 0.012054115533828735 -0.018318325281143299 0.00019365549087524414 0.052817165851593018 -0.071683734655380249 2.0816681711721685e-17 0.0089625120162963867 -0.023269414901733398 0.023805230855941772 0.0073046386241912842 -0.0030947327613830185 -0.014565467834472656 0.01299324631690979 0 0.0088915228843688965 -0.054755156265171849 -0.014284461736679077 -0.093368870570100085 0.021080553531646729 -0.0071839392185211182 -0.012099981307983398 -0.013962507247924805 -7.1123662515049091e-17 -0.071559995412826538 -0.0057905316352844238 -0.10878017472277851 0.035951614379882812 0.012580454349517822 0.021372288465499878 -0.030713170766830444 -0.034016668796539279 -0.033469229936599731 -0.074472963809967041 0.0080079637978884653 -0.045485973358154297 0.012465566396713257 0 -0.067046910524368286 0.0063321292400360107 -0.00020670890808105469 0.0043837130069732666 0.011036664247512817 1.6479873021779667e-17 0.034846365451812744 -0.0052286088466644287 0.12636414170265198 0.15456220507621765 -0.07896915078163147 0.14798042178153992 0.048996716737747192 -0.07782003317443581 0.035763412714004517 0.00029647350311279297 -0.064118653535842896 -0.026862412691116333 -0.0070680677890777588 -0.067201405763626099 -0.019017487764358521 -0.029231626593509676 -0.035280817360459495 -0.061290889978408813 -0.015440851449966431 0.048066526651382446 -0.096868157386779785 -0.0630645122628571 0.084235846996307373 -0.039354175329208374 0.0683765709400177 0.047404506029254112 0.0038446784019470215 -0.104524165391922 0.042120695114135742 -0.083837896585464478 -0.076979958472101415 -0.0167807936668396 -0.043702843389520851 0.047099590301513672 0.0055548822761612411 -0.043435513973236084 0.018897414207458496 -0.030973970890045166 0.14140570163726807 0.046444058418273926 -0.059771060943603516 -0.091264839282720223 -0.10235781159588925 0.039906620979309082 0.043100595474243164 -0.042006701231002808 -0.1082918643951416 -0.035486149225106872 -0.072141587734222412 -0.038445290387890581 -0.1558272906858339 -0.069844311089619887 0.094619393348693848 -0.056445568799972534 -0.075317680835723877 -0.045934617519378662 0.013445287942886353 0.049921542406082153 0.13493451476097107 -0.031102627515792847 0.0046324431896209717 -0.0052757871763038644 -0.07802763498262813 0.096116513013839722 -0.069931179285049438 -0.12392501022573126 -0.069095313549041748 0.033828645944595337 0.14498793907859794 0.032321155071258545 -0.028107672929763794 -0.0072079896926879883 0.28459650278091431 -0.013704925775527954 0.021760672330856323 -6.9388939039072284e-18 0.051205715394651456 0.040738821029663086 -0.045319676399230957 0.0020216703414916992 -0.010214656591415405 0.014895468950271606 0.013912171125411984 -0.034034980074172182 -0.094953864812850952 0.058666527271270752 -0.042380779981613159 -0.013333350419998252 0.038615245546576221 -0.059422615789721238 0.0040300190448760986 0.010816365480422974 0.030231267213821411 -0.024216234683990479 -0.05476909875869751 0.011888980865478533 -0.14772731065750122 -7.9797279894933126e-17 0.057029843330383301 0.025777995586395264 0.032984375953674316 0.022562652826309204 -0.0014159381389616948 -0.0093391835689544678 0.038697749376296997 0 -0.012963652610778809 -0.024060845375061035 0.0018013715744018555 4.8572257327350599e-17 -0.024610251188278309 -0.0053380429744720459 0.0089084208011627197 0.027643114328384399 1.1449174941446927e-16 0.058271795511245728 0.016636401414871216 -1.1102230246251565e-16 -0.05219721794128418 0.065257519483566284 -0.086143344640731812 0.009077221155166626 0.021530985832214355 0.025274991989135742 0.0044641792774200439 0 -0.054863333702087402 0.022971063852310181 8.066464163292153e-17 -0.018238753080368042 -0.0022582411766052246 0.019978612661361694 -0.05783236026763916 0.010767191648483276 0.038335561752319336 0 -0.15845945477485657 -0.083085447549819946 0.027237027883529663 0 0 0 0 -0.020257920026779175 0 0 0 0 0 0 0 -0.033432215452194214 0 0 0 -0.09334149956703186 0.0034437775611877441 0 0 0 0 0 -0.018487095832824707 0 0.0067646271535743542 0.0044397319945090226 0 0 0.0046808204659881001 0 0 0 0 0 0 0 0 -0.0062290728092193604 -0.025858640670776367 0 0 0.0052072128798900906 0 0 0 0 0 -0.035040110349655151 -0.096892565488815308 0 -0.010013401508331299 0 0 0 0 0 0 0 0 0 -0.00087305903434753418 0 -0.084991782903671265 0.24783557653427124 -0.018264055252075195 0.054435074329376221 -0.00085284881578736248 0.089896559715270996 -0.059488356113433838 -0.011129915714263916 -0.018425434827804565 -0.008754730224609375 -0.0046441555023193359 -0.023088383157967612 -0.030072209138872603 -0.063826292753219604 -0.1056235134601593 0.052480638027191162 0.012855380773544312 -0.053187963624226661 -0.056337833404541016 -0.030664354562759399 -0.058592500945540707 0.042983472347259521 -0.10822657930743468 -0.057726681232452393 0.081950157880783081 -0.058579087257385254 0.063514083623886108 0.021994471549987793 -0.016480519860397565 -0.0019368998963807558 -0.04353479058721358 0.035909771919250488 -0.0027484161929045518 0.023787260055541992 -0.0010219257819518788 -0.013422320390369523 -0.0057141780853271484 0.092167049646377563 0.044220060110092163 -0.016747802495956421 0.088300377130508423 -0.094286352396011353 0.075919747352600098 0.013864219188690186 0.0002333521842956543 0 0.0039174556732177734 -0.049560070037841797 0.0017158986717097507 -0.032869845628738403 -0.11989197134971619 -0.049897760152816772 -0.011835639411890926 -0.039567857980728149 -0.011369896857913946 0.097749710083007812 -0.032777935266494751 8.3266726846886741e-17 0.05263790488243103 0.0081340670585632324 -0.045533180236816406 -0.037286430597305298 -0.019722908735275269 0.14599829912185669 0 0.096572041511535645 -0.028201818466186523 0.037335902452468872 0.0070331990718841553 0.0083200335502624512 0.0097899734973907471 -0.087758123874664307 -0.011056244373321533 0.0083929896354675293 0.020734280347824097 0.03361085057258606 -0.015769511461257935 -0.09194067120552063 0.006736457347869873 -0.027971953153610229 0.0017435252666473389 0.048344224691390991 0.00079366564750671387 -0.013304829597473145 -0.018670052289962769 -0.016972929239273071 -0.017589390277862549 0.0092542469501495361 -0.0041411519050598145 -0.12669342756271362 -0.00023982217347967051 0.050792902708053589 0.07706800103187561 0.035755813121795654 0.051291016385115205 -0.031263460575535418 -0.033222734928131104 0.035056114196777344 0 -0.012088984251022339 -0.020229207344740673 0.039790749549865723 -0.049206286668777466 -0.017794311046600342 0.047235846519470215 -0.022935658693313599 0.011175155639648438 0 0.003880620002746582 0.079238623380661011 -0.076418817043304443 -0.02273288369178772 0.032246232032775879 -0.062187463045120239 0.00066518783569335938 0.02529752254486084 0.018389672040939331 -0.00093868374824523926 0.005046140941121326 -0.095813602209091187 0.021791785955429077 0 0.0067268013954162598 -0.026550918817520301 0.0014489293098449707 0.020580857992172241 -0.014168679714202881 0.072441637516021729 0.048525542020797729 0.071365892887115479 0.13963928818702698 0.069321215152740479 0.062264978885650635 -0.1607556086980465 0.10806682705879211 0.018895804882049561 0.16888546943664551 0.085461080074310303 0.10763417830100949 0.081172704696655273 0.14363747835159302 -0.20449376106262207 0.069053471088409424 0.15773865580558777 0.047382116317749023 -0.14541909098625183 -0.13481676578521729 -0.035256475210189819 0.0088253342315400777 -0.13829219341278076 0.08967474102973938 -0.005118638277053833 0.074365764856338501 0.063392847776412964 0.1546284556388855 0.055243551731109619 0.1228740066289901 0.044682115316390991 0.049532890319824219 -0.013315260410308935 0.18775123357772827 0 0 0.07918354868888855 0.14646439254283905 0.16917514801025391 -0.0046758949756622314 -0.27987590432167053 -0.12285956740379333 0.051419287919998169 0.049050241708755493 0.01332816481590271 0.11145192384719849 0.14639054238796234 0.14255346357822418 0.097933933138847351 0.14672867953777313 -0.052710503339767456 -0.27360096573829651 0.10120417177677155 -0.16096106171607971 -0.0086081903975279844 0.011187225580215454 -0.028850644826889038 0 0.21627366542816162 -0.13204623372575683 0.076107233762741089 0.10436761379241943 0.07029524445533758 -0.14404240250587463 0.014817208051681519 0.0031723380088806152 -0.028229713439941406 0.0057941973209380774 0.020535796880722046 0.04564395546913147 0.02222907543182373 0.040282130241394043 0.028012365102767944 0.028600931167602539 0 0.016085833311080933 0.0058518648147583008 0.059497028589248657 0.028792440891265869 0.050591200590133667 -3.4694469519536142e-18 0.057806700468063354 0 0.043851237152086067 0.015627801418304443 0.04369702935218811 -0.001125335693359375 0.11418512463569641 -0.01607191538215071 -0.0086757838726043701 0.037728935480117798 -0.0062803924083709717 0.007532387971878142 0.00044381618499755859 -0.015695303678512573 -0.00051677227020263672 0.0056487321853637695 -0.019607663154602051 0.012441784143447876 0.012257784605026245 -0.045517891645431519 0.00098101627180675693 0.0055032632933797879 0.061191022396087646 0.0078957080841064453 0.00045470710398959276 0.046761453151702881 0.032296884715215426 -0.075462698936462402 0.10033991932868958 -0.01248970627784729 0.018592715263366699 0.06118735671043396 -0.021764606237411499 -0.012200653553009033 0.053688704967498779 -0.0036486983299255371 -0.092356771230697632 0.014637857675552368 -0.0016436370604353077 0.0070916712284088135 0.0010697027533811594 0.035061031579971313 0.034774124622344971 0.020791947841644287 0.00071215629577636719 0.017911970615386963 -0.021040767431259155 0.033310443162918091 0.010596245527267456 -0.011443197727203369 0.019352227449417114 0.0007794499397277832 -0.0032942891120910645 -0.017748892307281494 -0.018368542194366511 -0.0028634369373321533 0.029980212450027466 0.054001808166503906 0.0097121000289916992 -0.028127011894101654 0.034929335117340088 0.01016002893447876 0.0073004364967346191 0.02032703161239624 0.028009235858917236 -0.027853846549987793 -0.018003255128860474 0.082827597856521606 0.027427395914573643 0.011961489915847778 -0.031890571117401095 -0.0012774467468261719 0.0020699501037597656 0.022985279560089111 -0.02038733592058261 -0.0080236494541168213 -0.010935187339782618 -0.010673403739929241 -0.054279595613479614 -0.0026974081993103027 -0.037579268217086792 0.032145380973815918 0 0.01962009072303772 0.0096693634986877441 -0.04812091588973999 -0.00049978494644165039 -0.00059160590171813965 -0.051855951547622681 0.064079403877258301 -0.015688776969909668 0.074127048254013062 0.020645678043365479 -0.029492765665054321 -0.061455756425857544 -0.025228053331375122 0.00081845420116102938 -0.075589299201965332 0.013304382562637329 -0.020604729652404785 0.015793204307556152 0.0038468837738037014 0.021480023860931396 0.018875956535339355 -0.020056486129760742 0 -0.0054326355457305908 0 0.0070475935935974121 0.069520947888032897 0.034466743469238281 0.044618099927902222 0.0035644769668579102 0.024421334266662598 0.052999397898475215 0.051056832075119019 0 0.016841412155356728 0.03253251314163208 0.019756525754928589 0.0034494261503879697 0.046941220760345459 0 0 0.013453245162963867 0.0010038614273071289 0 0.12782481336343424 0 -0.034468978643417358 0.021081089973449707 -0.015764415264129639 0.0078952426468529655 0 0.0019640028476715088 0.01993444561958313 -0.017555594444274902 -0.014278203248977661 0.055234462022781372 0.0051923990249633789 -0.0062057375907897949 0.00074033063362701282 0 0.033226817846298218 0.0040130913257598877 0 0.018131375312805176 0.0010571479797363281 -0.0044926106929779053 0.051063179969787598 -0.011882811784744263 0.068259537220001221 0.021124362945556641 0 -0.0016022622585296631 0.0079771280288696289 -0.017316520214080811 0 0 0.0080426037311553955 0.009731680154800415 0.0017462113046359843 -0.01226431131362915 0.02698981761932373 -0.0041734278202056885 0 -0.00044471025466918945 0.00014108419418323859 -0.011961936950683594 0.014186471700668335 -0.0035100281238555908 0.011646687984466553 -0.0035905419107505228 -0.001447815553124026 -0.072515577077865601 0.005962371826171875 0.023825705051422119 0.040032863616943359 -0.048635601997375488 0.0191211998462677 -0.023924320936203003 0.010656595230102539 -0.0074201524257659912 -0.018292933702468872 0.021667063236236572 0.017724126577377319 0.040689557790756226 0.017157554626464844 -0.056274265050888062 -0.0406158566474914 0.0093903243541717529 0.014820992946624756 0.012325555086135864 0 -0.0006847679615020752 0 0 -0.0035443603992462158 0.0050257444381713867 0.033639997243881226 -0.0056384503841400146 -0.00044453144073486328 0.0019658803939819336 0.0099028050899505615 -0.023065745830535889 -0.03505977988243103 -0.023801207542419434 -0.0163288414478302 -0.016357193094845835 0.011667430400848389 0.0087060928344726562 -0.033974111080169678 0.0085395276546478271 0 -0.096059471368789673 0 -0.008202284574508667 0.0020980238914489746 0 -0.023220598697662354 -0.0090861618518829346 -0.017849653959274292 -0.025021076202392578 -0.0041119158267974854 -0.0038174461064056694 0 -0.10372254252433777 0.017918050289154053 -0.030886709690093994 -0.019775748252868652 -0.041706924055994042 -0.016583889722824097 -0.13959744572639465 -0.029673993587493896 -0.045772135257720947 -0.0164470374584198 -0.0090155303478240967 -0.0040695071220397949 0.0076426863670349121 -0.0094875097274780273 -0.018213540315628052 -0.0029611587524414062 -0.027186065912246704 0.0027692216909524655 -0.13121330738067633 -0.00060834217712098053 -0.027265369892120361 -0.016806900501251221 -0.0069738328456878662 0.0035204535900150566 -0.018789293832385808 -0.038507670164108276 -0.0087553560733795166 -0.0074970424175262451 -0.046486437320709229 0.018198187380191626 -0.017108023166656453 0 -0.035098940134048462 -0.013427317142486572 0.0013626515865325928 -0.0025287866592407227 0 -0.0091602802276611328 0.0020883097499907102 0 -0.10689380764961243 0.020721137523651123 -0.16060799360275269 0.0045036971569061279 0.005588918924331665 0.0065496861934661865 0.011457860469818115 0.016629695892333984 -0.11875247955322268 0.014495551586151123 0 -0.046708157593930009 1.3877787807814457e-17 -0.018089354038238525 -0.038829535245895316 -0.04878920316696167 0.0079953968524932861 -0.0018892586231231689 0.030996143817901611 0.010326415300369263 0.040379136800765991 0.054763437704976679 0.0074395239353179897 -0.054265648126602173 0.13099801540374756 0.040018826723098755 -0.00067198276519775391 0.076062262058258057 0.00072008371353149414 0.092634916305541992 0.08406946063041687 0.088235378265380859 0.021081358194351196 -0.03331330418586731 -0.043977856636047363 0.055495172739028931 0.026576399803161621 0.020636200904846191 0.041826456785202026 4.1395425796508789e-05 0.097271591424942017 -0.034543722867965698 -0.04962506890296936 -0.022608518600463867 0.0088180303573608398 -0.029550075531005859 -0.031338483095169067 -0.0002683103084564209 0.00052544474601745605 0.052328824996948242 0.10053314676461939 0.10854050517082214 -0.0059864223003387451 0.0099537670612335205 0.069687813520431519 0.035148598252326448 -0.037074029445648193 0.10399818420410156 -0.01006355881690979 -0.034516185522079468 0.066154271364212036 0.072168141603469849 -0.046929538249969482 -0.0029177963733673096 -0.017638278955202365 -0.028559446334838867 0.094941437244415283 0.019756972789764404 -0.012824267148971558 0.052251845598220825 0.040722638368606567 -0.025888949632644653 0.037685394287109375 0.00046634674072273952 -0.052980691194534302 0.046785950660705566 -0.0058110952377319336 0.032280296087265015 0.051568150520324707 -0.071991920471191406 -0.023689001798629761 0.055335313081741333 0.013106614351272583 0.041607856750488281 0.042934805154800415 0.031288415193557739 0.035677403211593628 -0.00055611133575439453 0.0031157433986663818 0.014751523733139038 -0.028538346290588379 0.034548908472061157 -0.0039239339860390405 -0.013716459274291992 0.046922922134399414 -0.0014351606369018555 0.067235308390872411 -0.0044297575950622559 -0.051869809627532959 -0.011624246835708618 -0.0091791450977325439 -0.040581732988357544 0.026480108499526978 -0.0067588984966278076 -0.052933216094970703 0.018348366022109985 0.042128205299377441 0.027537435293197632 -0.022868245840072632 0 0.0054403245449066162 0.046529850433076302 -0.087039023637771606 0.041626632213592529 0.025081157684326172 -0.068803220987319946 0.041768163442611694 -0.048087000846862793 -0.015867412090301514 0.046385496854782104 0.029884368181228638 -0.11000749468803406 0.010453641414642334 0 0.017427831888198853 0.00037854909896850586 0.011454194784164429 0.019248336553573608 0.03238329291343689 0.03195875883102417 0.02474445104598999 -0.0037008225917816162 0.013068526983261108 0.016313999891281128 -0.0030215084552764893 0.047471970319747925 0.016638725996017456 0.010342687368392944 0.0013308227062225342 0.013414442539215088 0.033823728561401367 0.031216800212860107 0.029850393533706665 -0.011414587497711182 0.01815757155418396 -0.047933823784075708 -0.011148780584335327 -0.010239511728286792 0.016239255666732788 -0.037108272314071655 -3.3974647521972656e-06 0.038804233074188232 -0.0060005486011505127 -0.039273727168269414 -0.019795775413513184 0 -0.012673884630203247 -0.036858826875686646 -0.040004879236221313 -0.051578521728515625 -0.0027799308300018311 0.038663238286972046 0.042731434106826782 0.0052462220191955566 -0.056053072214126587 -0.050113677978515625 -0.029815614223480225 -0.06250530481338501 0.078050762414932251 -0.0040444892086662198 0.10004675388336182 0.020287245512008667 0.010237187147140503 -0.058873414993286133 -0.0319061279296875 0.0051402743866238373 -0.076432406902313232 0.028426945209503174 0.037373632192611694 0.00051015615463256836 0.018746324488693757 -0.0179767906665802 -0.025187462568283081 -0.027339309453964233 0 -0.0032377839088439248 -0.0018119215965270996 -0.0091658234596252441 -0.022160232067108154 0.025114595890045166 0.021034716983714116 0.0019749104976654053 -0.00099071860313415527 0.017610732966651759 0.0036552250385284424 -0.020461052656173727 0.010715961456298828 0.029633313417434692 0.011926084756851196 -0.057759724236438881 0.0012080669403076172 -0.0036965789220472856 -0.019072473049163818 0.015909075736999512 0.014619916677474976 -0.0044627118490811191 -0.02844277024269104 -0.030194252729415894 0.0016025304794311523 -0.010875105857849121 -0.017587602138519287 -0.047312378883361816 -0.01541098952293396 -0.037465900182723999 0.0026133656501769412 0.055740505456924438 0.020167529582977278 -0.0013221502304077148 -0.0029600858688354492 0.014861762523651123 0.045850485563278198 -0.053722590208053589 0.040517270565032959 -0.0099741518497467041 -0.0040145516395568848 0.0093304216861724854 -0.00028494000434875488 -0.026586234569549561 -0.0042408406734466553 -0.015921592712402344 -0.13324095995922994 -0.01031908392906189 0 0.042613774538040161 6.9388939039072284e-18 0.0033386349678039551 0.021756291389465332 0.0022851526737213135 0 0.019391834735870361 -0.0076070129871368408 -0.048124551773071289 0.010916054248809814 -0.0031120690014285884 -0.020514518022537231 -0.0027816295623779297 0.00092308547097822184 0.007598876953125 -0.028888553380966207 -0.025044143199920654 0.005207061767578125 -0.018139511346817017 -0.0050424635410308838 -0.066181824540373316 -0.0036086867876401058 -0.049673080444335938 0.0099299848079681396 0.0021065175533294678 -0.010316401720046997 -0.0035166683555581165 -0.031244784593582153 -0.024749904870986938 -0.0471537771922916 0.015182375907897949 -0.0038968026638031006 -0.057811532459957758 -0.022931963205337524 -0.0051073019184725704 0.013745486736297607 0.0016663670539855957 0.0062128007411955521 0 -0.024110645055770874 0.0046357512474060059 -0.067702054977416992 0.069416642189025879 0.0098505914211273193 0.020653098821640015 -0.049210935831069946 0.014348208904266357 -0.039945155382156372 -0.016802459955215454 1.3010426069826053e-16 -0.07898065447807312 0.010645598173141479 0.0063449255541363448 -0.015138566493988037 -8.6736173798840355e-17 -0.034128248691558838 0.010208755731582642 0.024260669946670532 -0.0019026849660558395 -0.003566354513168335 -0.027802884578704796 -1.3877787807814457e-16 3.1225022567582528e-17 -0.010964742237403111 0.064367562532424927 -0.0029218213890316882 0.051954060792922974 0.014985233545303345 4.8572257327350599e-17 -2.0816681711721685e-17 -0.0081328153610229492 -0.0018474972761517126 -0.093327367489489554 -0.0076080079420087071 0.0019170641899108887 0.01469886302947998 0.025721222162246704 0.018341392278671265 -0.0068209507432432275 -1.0408340855860843e-16 -0.033035874366760254 -0.0086295877103630472 0.0030786492273401234 -0.008304856025419206 -0.063519805669784657 0 2.4286128663675299e-17 0.0023686898446752731 0.04384276270866394 0.0028016782467203075 -0.0058705647927766247 -0.037638098001480103 -0.0029247701168060303 -0.0028034232373934636 0.095811367034912109 -1.1449174941446927e-16 0.052475774528742233 -0.020717114210128784 0.00097180813857174198 -0.048891752958297729 -0.012101054191589383 5.8980598183211441e-17 4.5102810375396984e-17 0.070835083723068237 0 -0.036013573408126991 0.0020980113792098869 -0.024775028228759766 0.0090487897396087646 0.022372305393218994 -3.4694469519536142e-18 0.0047867486981973224 0.13956785202026367 0.059887737035751343 -0.057766824960708618 0.12661510705947876 0.050951838493347168 0.14805266261100758 0.093689650297164917 0.15110730701212965 0.075535744428634644 -0.017016112804412842 0.022408336400985718 0.089841663837432861 -0.040210380392092522 0.054144501686096191 0.051648616790771484 -0.0046628415584564209 0.099784724624657026 -0.015424579381942749 -0.018348991870880127 0.0045534074306488037 -0.038536548614501953 -0.0046239495277404785 -0.051062107086181641 0.0044376254081726074 -0.071359634399414062 0.084962760128646939 0.005422988913229938 0.15048453211784363 0.076213270425796509 -0.043653577566146851 0.11185517907142639 0.0077300369739532471 -0.057871609926223755 0.027250081300735474 0.0081458687782287598 0.0079219043254852295 0.11270347237586975 0.093505650758743286 -0.079582482576370239 0.062993645668029785 -0.046740626958379584 -0.018044739961624146 0.14814513921737671 0.064542442560195923 -0.041253805160522461 0.0033852899914486047 0.039375633001327515 0.012278974056243896 0.031358152627944946 0 -0.094255417585372925 -0.048089593648910522 -0.035930863510804267 0.013656914234161377 0.0064903199672698975 -0.016422271728515625 0.011348068714141846 0.0020957887172698975 0.0047373175621032715 -0.025747776031494141 0.046517168689164688 -0.15084913372993469 -2.0816681711721685e-17 0.021960139274597168 0.02912941575050354 0.04049152135848999 -0.02012711763381958 -0.0025513172149658203 0.013521909713745117 0.011275380849838257 0 0.0058659911155700684 0.0029464960098266602 -0.0098164873391552443 -0.0048979969863377102 -0.0058002769947052002 -0.020799458026885986 -0.017214059829711914 -0.0044293105602264404 -0.0036771203920038793 0.011389642953872681 0.00063711404800415039 -0.0045321507112917117 -0.13369747996330261 0.061036244329869878 -0.128082275390625 -0.0056924521923065186 0.020206242799758911 0.030322909355163574 -0.015739560127258301 0 -0.069378376007080078 0.00028091669082641602 0 -0.079377591609954834 0.014353394508361816 -0.036641120910644531 -0.028144598007202148 -0.046684026718139648 -0.0053542256355285645 0.039240866899490356 0.00081941485404968262 -0.00082567334175109863 -0.02307245135307312 0.054773032665252686 0.10340139269828796 -0.0087541043758392334 -0.0020195346081093597 -0.037391397971100464 -0.028023362159729004 0.0035964846611022949 0.032401800155639648 -0.10863858461380005 0 -0.016280127388739851 0.06788402795791626 -0.0088384151458740234 -0.017071683951027424 -0.035817059938370581 -0.0076102080795293296 -0.015383441053335294 -0.083060324192047119 -0.013560891151428223 0.032146543264389038 -0.00017774105072021484 0.089682942363788876 0.068513363599777222 -0.026238441467285156 0.035707265138626099 -0.044835716485977173 -0.03660499782693754 0.0046204626560211182 0.0043156743049621582 -0.018635311385107128 0.023413399215097053 0.019955903291702271 0.051441997289657593 -0.016014145589395019 -0.05650368332862854 -0.0081064936179910899 -0.014870166778564453 0.052550017833709717 0 -0.034427672624588013 -0.024936050176620483 -0.018916815519332886 -0.063758611679077232 -0.0074339210987091064 0 -0.0076503359450970729 -0.021900951862335205 0.044790834188461304 0.00074931979179382324 -0.0049210488796234131 -0.0096352100372314453 0.0044900178909301758 -0.0093360543251037598 -0.048430949449539185 0.047860711812973022 0.027386695146560669 -0.034002006053924561 -0.0069172978401184082 -0.013017475605010986 0.021313071250915527 0.013402104377746582 -0.040344037260823369 0.001866459846496582 0.0020670890808105469 -0.0017593713535948743 -0.02309185266494751 -0.019744545221328735 -0.029224991798400879 0.021147161722183228 0 -0.008678734302520752 -0.012457877397537231 -0.036355644464492798 -0.026220202445983887 0.030063450336456299 -0.028133153915405273 0.088326394557952881 -0.0058853349659908532 0.11948293447494507 -0.024534523487091064 0.0066372156143188477 -0.029311984777450721 -0.023117601871490479 0.0026728234976999255 -0.021418511867523193 -0.029503170386294499 0.02644309401512146 0.016459017992019653 0.052492976188659668 -0.0036292076110839844 -0.01293414831161499 -0.071707159280776978 0.0005633234977722168 -0.025124162435531616 -6.9388939039072284e-18 -0.0087398886680603027 0.0068038702011108398 -0.016504257917404175 -0.011841952800750732 0.0054035782814025879 0.029558837413787842 -0.0931815505027771 0 -0.013816952705383301 0.028322160243988037 0.0025625824928283691 0.019196569919586182 0.0059565603733062744 -0.04226258397102356 -0.010102003812789917 0 0.016850262880325317 -0.0045247972011566509 0.0028092563152313232 3.4694469519536142e-17 0.048664212226867676 -0.01850050687789917 -0.015860706567764282 0.019836008548736572 0 -0.051794350147247314 -0.010585874319076538 -0.025033652782440186 -0.0026601254940032959 -0.00021153688430786133 -0.042064995180346135 -0.033094614744186401 -0.022963374853134155 -0.023362219333648682 -0.024034202098846436 0.004001820798508038 -0.085080206394195557 0.024224191904067993 0 -0.027233898639678955 0 -0.0011046230792999268 0.0130462646484375 0.02077782154083252 0 0.011473376933971236 0.031661242246627808 0.07161771188879916 -0.026649445295333862 -0.045697391033172607 -0.066980600025452169 -0.037571132183074951 0.033368736505508423 0.013021141290664673 -0.060348839421051431 0 -0.0048643269094782223 0 -0.025516301393508911 -0.0050937917214493251 -0.021764212755336465 7.4593109467002705e-17 -0.0071686901875518145 -0.0096439719200134277 -0.022081419342559614 0.041159123182296753 -0.044054388999938965 0.062558948993682861 0.0099971294403076172 -0.031579077243804932 0.040322005748748779 -0.033444623948594356 -0.0052303142296387202 -0.045513421297073364 -0.0064517945002588312 3.1225022567582528e-17 -0.0043316728624094702 -0.053745746612548828 0.014928907155990601 -0.010288023167868209 0.012745857238769531 0.00053937673120453469 -0.0088929533958435059 -0.0016873776912689209 9.0205620750793969e-17 -0.023412019014358521 -0.027089148759841919 -0.055449517403550808 -0.0070512465953859391 0.002233093798401213 0.0008716285228729248 6.591949208711867e-17 -0.0074236392974853516 -0.023350685834884644 -0.043603241443634033 -0.042560577392578125 0.013147473335266113 -0.15742215514183044 8.5001450322863548e-17 -0.012883901596069336 0.0019967257976531982 -0.022844552993774414 0.021850026426945002 -0.0090698003768920898 -0.084788769483566284 0.0049260556697845459 -0.0013351213721762743 -0.050139069557189941 6.6965818405151367e-05 -0.034796655178070207 -0.0018288195133209229 -0.0031624138355255127 -0.0022978484630584717 0.0029341578483581543 0.0091888904571533203 -4.3368086899420177e-18 5.3644180297851562e-05 -0.0073393285274505615 -2.7755575615628914e-17 -0.074263483285903931 0.00068056583404541016 -0.11581331491470338 0.0067801773548126221 0.014425903558731079 -0.024922549724578857 0.011614948511123657 0.0054646248297934973 -0.099293142557144165 0.0099806785583496094 -0.00056727670189159305 -0.048709630966186523 -1.0581813203458523e-16 0.006104886531829834 -0.043716967105865479 -0.029313236474990845 -0.0031109154224395752 -0.011320054531097412 -0.00070327520370483398 9.8879238130678004e-17 0.00077372789382924856 0.0088173151016235352 -0.14869929659468112 -0.0012784425370090929 0.015818953514099121 -0.0023125112056732178 2.4286128663675299e-17 0.0026619136333465576 0.0026564585821184884 0 0.0082006752490998008 9.0205620750793969e-17 0 -0.015314499785921249 -0.016637295484542847 -0.0015194697530676125 -0.0098264515399932861 0.00047528743743892321 0.017680138349533081 0.0051683485507965088 -0.00067343074375854535 -0.040511637926101685 -0.017003238201141357 -0.0016162755138210854 -0.037490397691726685 0 0.00049299001693725586 0.009749293327331543 0.023468098489354348 1.3010426069826053e-16 -0.070652157068252563 0.005618695913797443 -0.024736851453781128 0.015428155660629272 -0.00058471451014812618 -0.082608550786972129 -0.0075279474258422852 0.029982153561516216 -0.029623121023178101 0.032842129468917847 -0.0022359997705319809 0.0027808781155340325 -0.022403955459594727 -0.013102859258651733 0.018065840005874634 -0.054885953664779663 0.016591519117355347 -0.061254322528839111 0.0380592942237854 0.0049213171005249023 0.04213926407327491 0.019763946533203125 0 -0.022427380084991455 -0.0040703140334719581 0 -0.042969077825546265 0.0080405473709106445 -0.026048094034194946 0.0071090161800384521 -0.0014831721782684326 0.03126642107963562 0.0070970356464385986 2.7755575615628914e-17 -0.016103982925415039 0.010244160890579224 -0.069490492343902588 -0.061195671558380127 -0.013659533271597385 -0.081790894112725221 0.0041577816009521484 0.001843571662902832 0 -0.095266520977020264 -0.0036270639388455649 0.010128110647201538 0.011927515268325806 0 -0.075276285409927368 0.002750694751739502 -0.029273629188537598 -0.01723945140838623 0.0093185305595397949 0 -0.005650761598539349 -0.030111908912658691 -0.0010319054126739502 -0.0020156800746917725 0.0024227985914529251 -0.034318864345550537 0.014148563146591187 0.012435793876647949 0.0054729580879211426 0.0024578869342803955 -0.014928191900253296 -0.036131232976913452 0.026166915893554688 -0.023533433675765991 0.026674658060073853 -0.021579891443252563 -0.063793033361434937 0 0.072391390800476074 0.029038667678833008 -0.012758731842041016 -0.002386363615518619 -0.0076674520969390869 -0.0010646815410728535 -0.00010886255856471351 -0.03556707501411438 0.036536246538162231 -0.12006461620330811 0.037034511566162109 -0.0030006766319274902 -0.0029914677143096924 0.084665598553686175 0.038651704788208008 -0.090677797794342041 0.021162807941436768 -0.0029658382186582115 -1.4483928680419922e-05 0 0.0031136870384216309 -0.036599993705749512 0.007935941219329834 0.073682159185409546 0.020890742540359497 -0.041981220245361328 0.063512474298477173 0.0068579614162445068 0.0017139315605163574 -0.0012315809726715088 0.0094805359840393066 -0.0048006231983397894 0.0020440220832824707 -0.019463717937469482 0.009884566068649292 -0.0064542889595031738 0.013526111841201782 0.019897162914276123 -0.042774170637130737 -0.090938061475753784 0.027132249725951633 0.080943077802658081 0.026418149471282959 -0.0045568943023681641 -0.026728570461273193 -0.024948656558990479 0.047493338584899902 -0.081089884042739868 0.11975213885307312 0.011853128671646118 0.066983878612518311 0.038286119699478149 0.0084795355796813965 0.00012320280075073242 0.061258971691131592 0.00879630446434021 -0.10055610537528992 -0.019612669944763184 0.022817909717559814 0.035271942615509033 0.0040997364758604965 -0.015508353710174561 -0.012487471103668213 -0.031014561653137207 0 0.0050849318504333496 0.09604954719543457 0.0062337219715118408 -0.055841624736785889 0 0.002039162345469029 0.0039829602104048652 0.041004985570907593 0 0.037937074899673462 0 0 0.03563225269317627 0.030538558959960938 0.068551540374755859 -0.029039740562438965 -0.0040457619249868512 -0.029314041137695312 0.029258698225021362 0.0070158541202545166 -0.024490714073181152 0 0.020439684391021729 0.053725068332428551 0 0.050263524055480957 -0.04077225923538208 0.0021517671037491063 0 -0.065087467432022095 0.0048268410130422792 -0.0066059231758117676 -0.033682197332382202 0 0.0024154186248779297 0.00068977475166320801 0.018669068813323975 -0.019020527601242065 0.027200013399124146 -0.0047652929451654233 0 0.039007276296615601 -0.025409907102584839 0.052673041820526123 -0.0072330236434936523 0.12227216362953186 -0.09745180606842041 -0.051586657762527445 -0.030613303184509277 -0.048284200206411873 -0.022688239812850952 -0.11083030700683594 -0.055938810110092163 0.035111010074615479 0.020063906908035278 0.15530043840408325 0.15242153406143188 -0.079832285642623901 0.06338578462600708 0.03123137354850769 0.018559277057647629 -0.026614576578140259 0.083852291107177734 -0.04615473747253418 -0.035808384418487549 0.071679353713989258 0.12965002655982971 -0.030382812023162828 0.058513820171356201 -0.030940960620311882 -0.067412316799163818 0.10457584261894226 0.019697517156600952 -0.080623984336853027 -0.025054514408111572 0.024822592735290527 -0.041770488023757935 0.024226516485214233 0.099578589200973511 -0.083824099618959716 -0.080166220664978 0 -0.005807760061552268 0.0019356744859918718 0.031596779823303223 -0.0031890052854183903 -0.031014835628539749 0.0023892081647452351 -0.0036683684342213125 -0.043487370014190674 0.02846100926399231 -0.0033407807350158691 0.060312241315841675 0 0 -0.017006099224090576 0.027669578790664673 -0.0020968616008758545 0 0.0030033588409423828 0.044120049893289437 1.5612511283791264e-17 0.052167839722813296 -0.023872643709182739 0 -0.0053620177170044933 -0.0080617368221282959 1.9081958235744878e-17 0.075539678335189819 0 1.0408340855860843e-17 0.0031808316707611084 0.043529748916625977 -0.0047617256641387939 0 -0.038969099521636963 0 4.8572257327350599e-17 0.024562239646911621 0.061410784721374512 0.0094363689422607422 0.02014276385307312 0.013911634683609009 -0.0081727802753448486 0.030217945575714111 0.045589417219161987 -0.049236774444580078 0.015860795974731445 -0.032370954751968384 0.079993756338191835 -0.013210683833581753 0.0052049160003662109 0.042312562465667725 0.013819366693496704 -0.028503388166427612 0.030055403709411621 -0.055183321237564087 0.057027071714401245 0.031692534685134888 -0.00054314732551574707 -0.013681590557098389 -0.047254264354705811 0.0041154026985168457 -0.067765474319458008 0.072661818486468494 -0.021810829639434814 0.006018519401550293 -0.0021544941741822943 0.016536355018615723 0.054680466651916504 0.0012996196746826172 0.017879068851470947 -0.0080107748508453369 6.9388939039072284e-18 0.044183939695358276 -0.016081273555755615 0.0063242912292480469 0 -0.051217406988144032 -0.0079701840877532959 -0.0075816718805731976 0.021893084049224854 0.0095450878143310547 0.010714888572692871 0 0 -3.4694469519536142e-17 -0.035711556673049927 0.017511069774627686 0 -0.070067703723907471 0.023176699876785278 0 0.081557303667068481 -0.020343624944091754 0.034490704536437988 -0.061249136924743652 -0.018866032361984253 -0.053588926792144775 -0.016782492399215698 5.2041704279304213e-18 -0.043315768241882324 0.00055673718452453613 0.0063717910017551341 0.025816172361373901 0 -0.020045667886734009 0.041978895664215088 0.020185232162475586 -1.214306433183765e-17 -0.0014770899449135192 0.015476971864700317 -0.00070185674126168013 -0.032637834548950195 0.0065256357192993164 -0.0086502134799957275 -0.0064453482627868652 -0.0034510195255279541 -0.029351168492769798 -0.05058172345161438 0.0060707236687158467 -9.3675067702747583e-17 0.012124836444854736 0.00033008205414072808 0 -0.0042929649353027344 -0.0080891847610473633 -0.061050117015838623 0.061359107494354248 0.0041713714599609375 0.025922298431396484 -0.033067166805267334 -0.04897114634513855 -0.022671639919281006 -0.0076492130756377705 0.005384981632232666 -0.072557657957077026 0.018431425094604492 0 0.026285472695646454 -7.4593109467002705e-17 -0.027554601430892944 0.00050970911979675293 0.0055599510669708252 0 0.022163540124893188 0.0033132765117480194 -0.0069801502384378876 -0.041093766689300537 -0.0052107727017855236 -0.0059587787646900106 -0.033445120004495017 -0.02669227123260498 -0.006230729067971846 -0.01699259877204895 0 -0.018036156892776489 -0.022160095129531425 -0.0019649950528244065 -0.08444550633430481 -0.030143380165100098 -0.017837107181549072 -0.015936166048049927 -0.00557066338373875 0.025495537225564642 -0.051306456327438354 0.0055932998657226562 -0.072455121514488643 -0.0504131019115448 0.001202389401623601 -0.089339554309844901 -0.015850245952606201 0.00018162786003439655 -0.080989658832550049 0 -0.012115716934204102 0.0096009671688079834 0.0089895129203796387 0 -0.00091433505554602606 0 0.0048451423645019531 0 0 0.015612155199050903 0.0098852813243865967 0.0015350282192230225 -0.017403334379196167 -0.0099156588435277832 -0.0063178539276123047 -0.020791232585906982 -0.040157675743103027 -0.016707122325897217 0 -0.055157393217086792 0.028855293989181616 0.016535967588424627 0.037920713424682617 -0.029495000839233398 0.0091030597686767578 0 -0.037485837936401367 0.005746846264174427 -0.025983095169067383 -0.018877387046814138 0 0.0092684626579284668 0.0061060488224029541 0.0085033178329467773 -0.035094469785690308 -0.0049559175968170166 -0.00045499443789969547 0 0.022934854030609131 -0.028138518333435059 -0.0050616860389709473 0.026111483573913574 0.024476230144500732 0 0.0029865318313972524 0 0.058302909135818481 0.052616569587878144 0 0.073659449815750122 0.020867228507995605 0 0.056524336338043213 0.0083015263080596924 -0.0005995631217956543 0.027786701917648315 -0.037325352430343628 0.0080395638942718506 0.00074775004767878121 0.017416834831237793 0 0 -0.0047361358461640718 0.040048320986974521 0 0.030268996953964233 0.050408593439798491 0.054018795490264893 0 -0.0060700178146362305 -0.01342320442199707 -0.0041199624538421631 -0.030467212200164795 -0.026263922452926636 -0.072312444448471069 0.0085574271939318266 0.014566719532012939 -0.0071506798267364502 0.030198276042938232 -0.039650484040505335 -0.017888456583023071 0.034541130065917969 -0.083301633596420288 0.10011881589889526 0.022912412881851196 0.042136788368225098 -0.017331808805465698 -0.03776058554649353 -0.032460898160934448 -0.039235085248947144 0.029219985008239746 -0.10059481859207153 -0.0018598485210619339 -0.0015773177146911621 0.015854895114898682 0.0029918166013234507 -0.012158006429672241 0.027668774127960205 -0.034661561250686646 -0.00093102252651690049 0.0067399442195892334 0.027762830257415771 0.024050546573447379 0 -0.032831400632858276 0.0050025521529542304 0.0013043324701406157 0 0 0.0092870254658182667 0.033367220159982162 0 -0.0057111978530883789 0.0615587489302361 0.0069260895252227783 0.096069931983947754 0 0 0.043380171060562134 0.0080239847501595279 -0.0055759549140930176 0 0.00099057307558211849 -0.0029937326908111572 -0.0079444944858551025 0.0022654086351394653 -0.019694924354553223 0.036885589361190796 -0.01158633828163147 0 0.0080588757991790771 0.025718718767166138 -1.7347234759768071e-17 -0.0028624807009370442 0.0038850790015027259 0 0.035691350698471069 0.02242439985275263 -0.0023403921515092073 0.058416648958346848 -0.031288683414459229 -0.0040237263691403338 0.057516217231750488 0.01734083890914917 -0.033689618110656738 -0.0012121796607971191 -0.0078256130218505859 0.0069935917854309082 0.0076049746611079414 -0.0042107999324798584 0 0 0 0.0071704703485433322 -6.2450045135165055e-17 -0.0089871883392333984 0.0045976679096305087 0.046572268009185791 0 -0.021170049905776978 0.014960378408432007 -0.025467932224273682 0.037532597780227661 0.004312366247177124 -0.020281702280044556 0.0083592832088470459 0.057878851890563965 -0.0053498446941375732 0.031608313322067261 -0.028207182884216309 0.11737859382868079 0.031093865633010864 0.082278013229370117 -0.027420222759246826 -0.025530214397586206 -0.019577264785766602 0.011575520038604736 0.0026924481049144721 -0.015571743249893188 0.011414766311645508 0.0070324838161468506 0.087974756956100464 0.029279917865558992 0.026150554418563843 -0.036839872598648071 -0.015952438116073608 0 -0.0087142288684844971 -0.036227256059646606 -0.036707907915115356 0.0040741438632272507 0.024264067411422729 -0.023187696933746338 -0.1022517092936029 -0.056243419647216797 0.022850722074508667 -0.044884800910949707 0.086770445108413696 -0.00048977136611938477 0.11375239491462708 0.029320567846298218 -0.04083859920501709 -0.023192346096038818 -0.032376140356063843 0.0074854888139818301 -0.057477682828903198 -0.005858302116394043 0.016035318374633789 -0.02078971266746521 -0.0066152192861922794 0.026317119598388672 0.046720683574676514 -0.028912067413330078 0 -0.0067011415958404541 0.039276659488677979 0 0 0.0026085376739501953 0.04683995246887207 0.019828319549560547 0.065451771020889282 0.0069103538990020752 0.065934509038925171 0.043112576007843018 0.06138727068901062 0.069633185863494873 0 0.046957790851593018 0.049769192934036255 0.005544386687177506 0.0034112334251403809 0 -0.048785805702209473 -0.0029506087303161621 -0.026646643877029419 0.057064622640609741 0.075931012630462646 -0.016528934240341187 0.0006060718551926062 -0.010410457849502563 0.066473436196384447 -0.0046998560428619385 0.014837265014648438 -0.10461464524269104 -0.024680882692337036 -0.0059469938278198242 -0.053919821977615356 0.011795997619628906 -0.00026121261180491861 0.0061108960685946154 -0.018592983484268188 0.071351869800641496 -0.002482990023658422 -0.069505870342254639 0.0028792949369362622 0.026213318109512329 -0.028154969215393066 0 -0.046244680881500244 0.069939494132995605 -0.0068315863609313965 -0.03249281644821167 -0.00072249770164489746 0 -0.0047842015718656062 -0.011002153158187866 -0.020210266113281309 0 0.032714574418713067 -0.003964337180712223 0 -0.049614399671554565 -1.3877787807814457e-17 -0.028822273015975938 -0.032829612493515015 -0.030868649482727051 -0.0048991604300522504 0.025646030902862549 -0.0014875835592633401 -0.069239705801010132 0.0088415443897247314 0 -0.0047918301452117909 -0.025133728981018066 -0.045641863967951821 -0.0044923126697540283 -0.063324719667434692 0.018370002508163452 -0.0034965171212543483 0.015560567378997803 3.0357660829594124e-18 -0.013799965381622314 0.0078811347484588623 -2.5315579931802596e-06 -0.092422664165496826 -0.00083050131797790527 -0.10220620036125183 -0.0018390119075775146 0.034568756818771362 -0.018506616353988647 -0.00026267766952514648 0.0023445578801021315 -0.09853971004486084 0.0021039247512817383 0 -0.076301664113998413 -1.3877787807814457e-17 -0.0017211735248565674 -0.020747065544128418 -0.034793436527252197 0.01121056079864502 0.0004444420337677002 -0.021735012531280518 -0.011755138635635376 -0.0029920041561126709 -0.060792624950408936 0.014209359884262085 -0.0077287852764129639 -0.02852708101272583 -0.021653026342391968 -0.029888033866882324 -0.044578284025192261 -0.044889897108078003 0 -0.02756577730178833 0.0029179751873016357 0 -0.020288676023483276 0.0053543150424957275 -0.014513880014419556 -0.046359599356779663 -0.01207888126373291 0 -0.021974265575408967 -1.1102230246251565e-16 0 -0.004940718412399292 0.073994159698486328 -0.0038992913845254384 0.034221410751342773 0 -2.7755575615628914e-17 0 0 -0.0049989388412829587 0.097158886362759794 0 -0.047005891799926688 0.029186367988586426 0.00077363848686218262 0.035144507884979248 0 0 0.00047431886196142026 -0.0067736350393008673 0.063739299774169922 -0.056958496570587158 -0.0051743388175964355 0.0028102397918701172 -0.083226978778839111 0.040785938501358032 -0.00707244873046875 -0.015008032321929932 -0.0054168105125427246 0.01497378945350647 -0.071376979351043701 0.04048803448677063 0 0.019038945436477661 -0.015962004661560003 -0.0046921670436859131 0.042559415102005005 0.0090130269527435303 -0.011212634380141737 -0.0088602602481842041 -0.080267876386642456 0.073788464069366455 0.0095271170139312744 0.099995076656341553 -0.042811810970306396 0 -0.033444374799728394 -0.014443695545196533 0 -0.089287787675857544 0.019491881132125854 0.0041700430095530823 0.011441320180892944 0.0024085813588614609 -0.052797138690948486 -0.0069415569305419922 -0.015855520963668823 0 0.01657480001449585 0.028161942958831787 0.06465563178062439 0.015687346458435059 0.12953424453735352 0 0.035730242729187012 0.081195473670959473 0.0028458357278278537 0.043612092733383179 0 -0.038551479578018188 -0.0036835670471191406 0 0.079718649387359619 0.089302629232406616 0.0048923492431640625 0.00050440430641174316 -0.0065360963344573975 -0.051011592149734497 0.054609417915344238 0.012346029281616211 0.098841547966003418 -0.14478018879890442 -0.015939563512802124 -0.031861628878370928 -0.11115306615829468 0.064435958862304688 0.1686999499797821 -0.037436038255691528 0 -0.049552291631698608 -0.05580979585647583 -0.00041976571083068848 0 -0.049297302961349487 -0.036421626806259155 -0.013358801603317261 -0.093118965625762939 -0.017616569995880127 -0.0018310546875 0.013428479433059692 -0.12079083919525146 0.001545067606869006 -0.0015306770801544189 0.007052047023086809 -0.00042884828321557991 -0.0012496411800384521 0.016232013702392578 0.0015015006065368652 -0.000126259659394272 0.0031685829162597656 0.049783676862716675 0.1115536093711853 -0.10403010249137878 0.018727540969848633 0.031011253595352173 -0.098511099815368652 0.05722952040371164 0.13266420364379883 -0.079232275485992432 0.001617651388076416 -0.0033765435218811035 -0.078549385070800781 -0.011739224195480347 0 -0.0723457932472229 0.0075719654560089111 0.0076502859592437744 0.00571480393409729 0.0035712380874358524 -0.069729030132293701 0.0037905871868133545 -0.0020529547110131577 -0.064698368310928345 0.061391115188598633 -0.018112421035766602 0.00011542439460754395 0.0062594711780548096 0.013707429170608521 0.022451135736184218 0.049517512321472168 0.02771410346031189 0.052746176719665527 -0.10353291034698486 -0.0044133961200714111 0 -0.0011810660362243652 -0.035744921671641332 -0.013337910175323486 -0.012785017490386963 -0.036071330308914185 0.078751176595687866 0.058510422706604004 0.027071630584418804 -0.013578146696090698 0 0 0 0.070714261121582522 0.0018924989816848994 -0.010732322931289673 0.064150840044021606 0.025398820638656616 -0.0034675239007968305 0.032590270042419434 -0.0034502260820240996 0.042316585779190063 0.058229684829711914 0 0.036997675895690918 0.0678597092628479 0.025585860013961792 -0.059682101011276245 0.048166841268539429 0.05889737606048584 0.0024261760153992122 -0.0026320022519757632 -0.0060038479030800626 -7.9797279894933126e-17 -0.0033408119000616333 0 -0.019419632692987458 0.0066512083364409294 0.011078116422375691 -0.0017601524933856742 -0.036063820123672485 0.028556495904922485 0 -0.0092701613903045654 -0.0063793659210205078 0.089246928691864014 0.06755518913269043 0.11563146114349365 0 0 6.9388939039072284e-18 -0.089540719985961914 0.0084593296051025391 0.010416895151138306 -0.020702831044300419 0.0056424736976623535 1.1102230246251565e-16 0.0024924515813354786 -0.040713250637054443 1.7347234759768071e-17 3.4694469519536142e-18 0.0021559083255752154 -1.0408340855860843e-17 -0.00081175571298292459 1.0755285551056204e-16 0.053334465922098735 -0.0051129162311553955 -0.0021406710147857666 -0.04175269603729248 2.0816681711721685e-17 -0.015403479337692261 -0.052602231502532959 -0.003005571842419617 0.021346965766273592 0 -0.0024259271872885979 0.014932751655578613 -0.00087565183639526367 0.0066717863082885742 0.03205910325050354 -0.020503073930740356 0 -0.0056295096874237061 0.050593435764312744 0.037889063358306885 -0.00046567906191759126
label 1 2 3 6 7 8 9 10 11 12 13 14 15 16 17 18 19 20 37 38 39 40 41 42 43 44 45 46 47 48 49 50 51 52 53 54 55 56 58 59 60 61 62 63 64 65 66 70 71 72 73 74 75 76 77 78 79 80 81 82 83 84 85 87 88 89 90 91 92 93 94 95 96 97 98 99 100
probA -2.1071877309626275 1.252782719726548 -0.51830427802581569 -2.199167115101675 -1.948681577984134 -2.134608019200928 0.60762455257205217 -2.3820608700826695 -2.3439153983009495 -1.9482305309331547 -2.1607278607238629 0.67167843572915342 -2.2983079481992825 -3.1956756730620772 -4.4452260504409269 -2.0420566230679755 -2.6037525631065379 -1.2432061071450839 -2.7260894150074728 -2.7215885369192989 -3.986308377199502 0.29862058352882331 -0.89211121261591519 -2.6563506308483733 -2.3832968621356754 -2.8698568625148666 -2.3029352995106924 -2.1420750973831582 1.4302498283806846 -1.9673625879908363 0.14533997139371349 -3.0237259466620214 -3.4639767542904112 -2.4260185580939524 -5.6929339105685992 -1.9626889749384453 -2.2056640798041749 -1.9520691930509784 -1.1117739070224997 1.2779441817373551 -1.0129281267022583 -2.0183990622113925 -1.9641101760355444 -2.2872065873006924 -0.91223446581598577 -1.982610477920473 -2.7645935477623444 -2.0141758735560016 -3.2386280774480287 -2.0138603514462998 -2.1549137298533196 -2.0196017621890872 0.68467656439798696 -2.4445767237978107 -1.9466158648222975 1.8324069162985719 -0.66286378670404555 -2.0661579634681897 -1.396286175837006 -2.8869501644898903 -3.5324618204182539 0.46348950152646662 -5.3111265248635071 -3.4351648220972395 -2.0854363408968468 -1.9529159475561124 -2.5199753726767775 -1.5544326590943298 -1.9595985561538942 -2.209059752505794 -1.9572661211802325 -0.53332237205084887 -0.19215227898143156 -0.71133733890349049 -1.9582945914156566 -2.407514052346162 -2.0696087867586836 -2.63775824872919 -3.4370444717732789 -1.9634616415557968 -2.1414017535621919 -2.0330533940311581 -2.459389243445393 -1.9903661225290934 -1.9473247845618282 -1.9741196847189357 -2.1382445045220559 -2.1040607246897696 -0.27540192909438804 -2.4376282390475636 -2.84001918562047 -2.0700141190685195 -2.0334206386001887 -1.6220887588059207 -2.8490384682893906 -2.0205406146132878 -2.9287914117043181 -2.094371285291952 -1.9458882862032707 -2.3323192398495181 -2.0008637224708519 -2.0000025161399 -3.4131581673117783 -2.0237074223151312 -1.9583072318044634 -2.0502676476124049 -1.9718403529458248 -1.9563997257765373 -2.2475230979730649 -2.9737254164822433 -2.0297779078247409 -2.3395043508328928 -2.4750066216740199 -2.8146816250458007 -2.0148202639193897 -2.3076398665679223 -1.9835953812591096 -2.0064874267456898 -2.2979696900076405 -3.6279107534966819 -2.4732172354629913 -2.6055248900599506 -2.9469816195909697 -2.3041749490275558 -2.450266012628072 -1.9938352461586473 -1.9459004471657531 -1.9975348213611726 -2.6960195796493251 -2.2758513335436992 -2.1576695671383437 -2.0694239469905007 -3.1839621052627303 -2.1813510253683392 -3.2989773918341956 -0.97464513925877549 -2.0041375321447972 -1.9917226978620712 -2.2944904949872629 -1.9634110029383958 -2.283802792789106 -1.9843617645151932 -1.9483468534754762 -3.2801588761363445 -3.1724999836817154 -1.9532004600592283 -2.8908743476003229 -2.078749679445421 -2.4314563034913426 -1.9459019419964159 -1.2762133313248565 -0.2711077331684178 -2.6658828243121575 -1.9875952779051385 -2.3199515758584379 0.90904001730612705 -2.3591301643582332 -2.7243183704138838 -1.9507373214363803 -2.0892136274134292 -0.24755664993617979 -2.3423888150144343 -2.0780190452773009 -2.8717263411783263 -2.0045815323466143 -3.6514410591848478 -3.2802587615271537 -2.9195893841668465 -2.7961106026427691 0.15373519949951098 -3.1869004816492215 -1.3147566742601093 -3.1208511684636799 -2.5411237475397961 -1.3904252668412049 -2.2570017696525886 -2.0175395734962573 0.080816051469891487 -2.0043458321903711 0.17439636861828259 -0.71337477944134386 -2.6759178361571965 -2.1193652778893384 -3.7637666320839984 -2.215436927938307 -2.3365095951032466 -1.9688895058512546 -2.0303936065442763 -1.0218761273657393 -4.0522003739292831 0.91274966145478853 -1.9688911660154897 -2.069817557005202 -2.1528130044258744 -1.9701702750921755 -2.0196783908300171 -1.9955807893458979 -0.60943266006813657 -2.0390854355510637 -2.5711848952696892 -2.2466957835205075 0.44130911394432298 -2.908043303952363 -1.9699496177055529 -0.49938500611913833 -1.5472656396743711 -2.0932540744735944 -0.90968447040700073 -1.9828151663043221 -3.2512862812316716 0.40270254181239962 -3.8148694550473441 -2.5259837076174261 -2.6140123706777727 -1.9552968964193151 -2.4952765053559109 -0.43824404050623034 -1.9586243004942181 -3.127099289167738 -1.9575967321395 -1.3161453136017378 -1.7468469194218319 0.89332084673640044 -2.0088104823596922 -1.9532581846897379 -0.26333690434745399 -1.9706217918618105 -5.5892752402844446 -2.4669608427902587 -2.8742832995114131 -2.4818240179313964 -1.9577052991353223 -2.2582268532815624 -1.4844412451641531 -2.4703130691352588 -1.7623222760618598 -3.7634042887210302 -3.2146189700247745 -2.311012148655549 -3.1397806264716639 -0.70160458646823853 -1.0852310538908787 -0.52312559736550102 0.41039576817372908 0.22510496345070974 -2.2631996683532396 -1.2527840373155634 -2.8908169045785108 -2.0045580370658374 -3.4572137453216052 0.34796789691665903 -1.9592420525645404 -2.649329333416373 -2.2871207036583736 -2.4086178183617113 -3.8142354962044922 1.5953586158116484 -2.0276020343976526 -2.9174788874519755 -1.9681102713330401 0.63664339459375019 2.0701013471898619 -0.75474428500696378 -2.4777920112428085 -2.0026344740919986 -3.9142294142939034 0.54677799421840145 -2.0609657170953235 -2.8191889702773216 -22.546823135743246 -2.9337542664392706 -2.09224283679842 -1.9797793859964758 -1.964628500875327 -2.979717214389626 -2.7755363215398172 -1.9637562338871892 -0.4725801379333337 1.1681704501516905 -2.1219380076592285 -0.73051915252302935 -2.6557414265270656 1.2638001090017743 -0.42820773846093119 -2.4908814136720836 -2.7363006463257 -2.2892936409599129 -1.9779015008521661 -2.5279333016387575 -2.3411748858484764 -1.9655784778874992 -2.093615591349272 -1.9560511754202068 0.40150861393511389 1.5330061771308294 -0.77900558530830288 -1.9578573650381423 -3.6946810785678186 -1.9212216126890316 -2.6179179017433163 -2.2101791116710361 -2.2473632176658094 -2.2041125774761983 -1.8629000015587147 -1.9776127888104844 -3.0091584805749236 -2.4040643769170034 -2.8503838464559208 -3.3240325518417664 0.62499066220908417 -2.0090073994116873 -2.2376047415150753 -3.1107703559536288 -3.7340012768977959 -4.2599550685511227 -3.2095087183053814 -0.57682140792248016 -2.8454243316413224 -1.676649175138913 -2.2346726135643875 -2.0095306583586834 -2.2830103805766542 -3.0906535195844684 -1.9724138417288 -2.6076971344209467 -2.0208684698260666 -2.0385253226588747 -2.3210328773851621 -0.68662508137659317 -1.97419069758202 -2.2038633023255096 -1.9494675414912106 -5.2534986968943356 -2.9638496712352405 -0.15885785860635154 -2.3928636905891509 -2.0428575166639105 -0.93824550197419554 -0.50310778758223096 -2.7758871780635754 -1.193659927997506 -3.1406022237463418 -2.0819693221037592 -2.1166424275694804 -1.9886574620060085 -1.9680489640489252 -2.1991805853510091 -2.1520073525006573 -1.9898727937844325 -3.101616790793932 -1.9907433325012132 -2.1315809772801959 -2.7615596046454902 -3.5611810667267938 -0.15607292574297729 -2.9930527719889906 -2.2340387053281465 1.2841871193440484 -2.1343602368439121 -2.2673770641848034 -1.9954489167506302 -2.0669561655214119 -2.1273742218742822 -2.7375841446203126 -1.9153476890457015 -3.3515923898230389 -0.42549247099757609 -3.4288826818892857 -1.9707918465484591 -1.8650870781018378 -1.9529250700147378 -1.9885560436955829 -2.1304994970515851 -1.9538368172298024 -1.9969477846117982 -2.4515652671745922 -1.9853975100426109 -2.1413981047605892 -1.9269934907025372 -1.9581016030116243 -1.9272382884777473 -2.473997210474375 -1.9513808235503125 -1.9656105579575112 -2.0072545998633053 -1.9865316972990494 -1.9638774414899736 -1.9472557308416734 -1.9703195408801937 -1.9358013161798502 -1.9885070632965087 -2.503918542138071 -2.0400496310409189 -1.9521692452101131 -1.7944640412567383 -1.9536828278574461 -2.0589064231329264 -2.1112922806579975 -1.9528157587036707 -1.9647630890545109 -3.5642740100842185 -2.0828630154298433 -2.2261440407078146 -1.9982064797817993 -1.9329639572327793 -1.9448294107776187 -2.0010582142026743 -2.0254181586594315 -1.9287704048347638 -1.9479370131883227 -1.9395781069538423 -1.932004603106364 -1.9871064689618754 -2.0075060624506529 -1.964357708327175 -2.6832939860764999 -1.9888200632448487 -1.9550727494740998 -2.0010356068806074 -2.0301912234327979 -1.9926828421286709 -1.9666036300142242 -1.9904444823237879 -1.9713896242321824 -1.9460926649183594 -2.0016129412036405 -2.0226437490608578 -1.9739791858125872 -1.9349164194453017 -2.0707018326553519 -1.9458853933747127 -3.0506756861842659 -2.0096361652313766 -1.9209886941332099 -2.0092963710859326 2.2231350371230851 -1.9545963782524252 -1.9381300444135177 -1.9456046117447587 -1.958719595885116 -1.9430820746689648 -4.552784219184435 -2.3824555083341852 -2.0223862261323271 -1.9403778469926141 -2.2076919710490497 -3.4561428593065129 -2.2884399171639949 1.0075728299319322 -3.1092262334049718 -2.1485010519045975 -0.1909770254812759 -2.068140363331322 0.81151730696160107 -0.84400542652775667 -2.3833080073854052 -0.87027467874418118 -2.0665658998715024 -1.9698674041722806 -3.5603679775221 -2.5317041151951245 -2.2486365834651343 -2.0806987908702514 -1.9843918567724708 -2.00761954286433 -1.966392814635576 -1.9626605629893998 -3.3987209642737439 -3.0608895925928858 -3.6213283584091127 -2.3269089223913384 -3.1547950788077777 -2.7538435743236014 -0.11087029764300203 -1.9714250360507386 -2.1503512484116616 -1.9482329500848188 -2.3706781622866124 -2.0517518372391064 -2.7389982838054134 -1.9908595203878718 -2.0209580361838881 -2.7917865817338465 -3.0751939310183469 -2.7124250938308916 -2.0580602607901022 -1.950140195305633 -1.9597266081594324 1.0897036096673758 -1.9886275573122167 -2.657804547560958 -1.9552006791478815 -2.2697066004870634 -2.1247986048948908 -3.247436619155621 -0.051192577331019382 -2.8171181450163227 -2.0528555205014021 -2.0503408682892359 -2.0359997950690834 -2.0137998019856491 -2.9619781805194441 -2.0053766507747146 -1.9688241547559628 -3.1084300527723321 -1.9791907240946356 -0.16708871355556718 -2.0117142252865219 -2.800217749926198 -1.9448108653003431 -2.9432214210278782 -2.1332444635931473 -2.028761965291793 -1.9549272701656786 -2.1886469110167095 -1.9139972099295581 -2.3585025818895797 -2.0672952211660465 -1.7038274158048452 -2.1017064304317379 -2.5494685286248711 -2.258526585068465 -2.7696571202197027 -3.1301018450987228 0.59450288077884716 -3.2552903301436333 -2.520246659909855 -2.4942175855420152 -2.9861966525793742 -2.6798997179636013 -2.8676918097508852 -2.414990819688144 0.55783942172739953 -2.0251900981977733 -3.7604581570468931 -0.37894515338729462 0.79546131417096555 -2.1777572392010049 -2.555515387615936 -2.8417973484504953 -2.6963675719183291 -1.9861799027203075 0.41301635195381725 -3.0555350504206347 -2.819604039177845 0.84296311928483159 -1.9929600749723759 -2.0802043409051385 -2.3827177952186203 -1.9814614792671432 -2.0204286543078078 -2.3443604745253088 0.78131898483687923 -2.0631740727985965 -3.2483446489099763 -1.9837773549416953 -0.32998618655031076 -3.0808179865725061 -1.9713527842723788 -3.1077554716062701 -2.8296086698828242 -2.3755432022975325 2.4649078544472731 -2.293179663816773 -3.2842840247638723 0.09178468992186771 -2.0262725232160124 -2.3205367650366813 -2.1673191603200119 -1.9611066553410856 12.195144247896952 0.65522401572725819 -1.9603953367862694 -2.6798965473597471 -1.9687552590372372 1.0302461813689245 -0.54576737042455459 0.037257836603675695 -1.9569802017349245 -2.0228094795694731 0.27647182061139364 -2.2775825360992989 -2.7776924539393648 -1.9497167935195461 0.068953213124550536 -3.0571044728519414 -2.0637562225584007 -2.1624318761919556 -2.5813686367394126 -2.7083082927324651 0.69480544557417645 -0.085097856297568442 -3.3210421633700702 -2.5822230751562416 -1.9968525032078073 -1.9572000291680134 -2.6873733265798365 -2.7931373669119761 -2.2387908408098443 -3.8520669763617366 -2.0834369812976727 -2.6740621705447785 -0.43260926390057886 -2.1095985480472201 -2.3707477503587548 -0.36605044649669716 -0.99503884868022141 -2.7372532351023593 -3.0268876096768715 -2.2639619718219359 -2.8620714875962228 -1.957004287257877 -2.135670395180397 -2.0438974074903431 -2.7373015924075523 -2.3568313167040889 -3.8968387729668801 -2.1667960417657022 -2.3389813292826749 0.81966072368672427 -2.0629155728118169 -2.1029777355649752 -2.2521408417313928 -1.5594897629643016 -2.8819028351184715 -2.8365370250985844 -1.9880305785496923 0.52595729729717322 -1.9493994585806262 -2.102714669290028 -2.1016373538688375 -2.6217508956009667 -2.7052999107517723 -0.95439981115181005 -1.1544899275460274 -2.0830611589134378 -1.04343902321792 -2.185106944046721 -2.6985653300849997 -2.3710313546101647 -1.9525590804645123 -2.348638419611377 -2.2419034022575226 0.036663937197511452 -2.0944447696654125 -1.5235230972289546 -2.2688997832112343 -2.2106774427218374 -2.9487805278298045 -3.1583262259514622 0.010979652244152514 -0.25547748351224886 -2.1116295612356093 -2.0383791446455248 -1.9868933609301087 -2.0230102486376049 -0.022159954130746284 -2.2961567194032062 -2.8159675932819419 -2.3076845587133108 -2.2450761878945342 -2.0347773753974252 -2.0582525453681733 -2.2056742209660869 -0.5094917507669513 -2.1169203750350518 -2.2065194862388315 -2.6607729967124123 -2.0571632768647747 0.054738302925828451 -2.2629207569607792 -2.1491568048268537 -4.5587758155057667 -2.6128403641363844 -1.9913983769008723 -2.663054006560662 -1.9914165359810663 -2.1406045716327111 -2.1028604594641127 -2.2730262665262244 -2.0185395172936165 -1.9898986920184158 -2.099365820754898 -2.1223406481969249 -1.9859021970580255 -2.0737293701306565 -2.7137925224959103 -2.178843932538653 -1.9466470487531586 -2.061222973482582 0.76933131174506886 -1.6297633704382006 -2.0791560877217341 -1.9445564554451749 -3.6335897260718286 -1.9954621467176041 -2.0196877099897357 -2.2057880795677689 -2.1489142059907658 -2.5381904736199377 2.0914442037782575 0.11380605390092231 -2.1782123854892816 0.75049886645071429 -1.9778724473066687 -2.2659544096585664 -2.052084666980305 -1.9456058378885248 -2.0242846177112375 -1.997847952231683 -5.26595150726809 -2.347673677430862 -2.2025799371588155 0.15446876979057714 -1.9909661939390384 -2.3067919473577683 -2.1539833677477835 -0.94934671370481694 -1.942187261100192 -1.9368759723561757 -1.9180954955023011 -1.9602744275109643 -1.980583080735411 -1.9615955689053441 -1.9955033729546778 -1.9481811295024181 -1.9614950924326509 -1.9421408036962797 -1.9275160971505956 -1.9598107854915519 -2.3187605702184393 -1.9646766739256525 -1.9593914173266558 -1.9541366930658446 -2.1458571675480949 -2.0656302951262115 -1.9577072590898557 -1.9709826176451783 -1.9468580521935952 -1.9654521131623108 -1.9613994571031335 -1.9742624702831755 -1.9101196171073604 -1.9482370171403787 -1.9437150903517817 -1.9444400499457548 -1.9545114122912284 -1.9566119208484716 -1.9158091107122603 -1.9373083005083835 -1.9404299715347877 -1.9181121622270376 -1.9466644133237441 -1.9315940352959404 -1.9084123140081901 -1.9808317549240992 0.37632574743008451 -2.0089241092111592 -1.9559655738456729 -1.946154894690258 -1.9564772523734844 -1.9380455980173457 -1.8880319772358025 -1.9657728336936797 -1.9435802801027706 -1.959677046536449 -2.0374430497750589 -2.7569442817315375 -1.9462883349903226 -2.7639571182359033 -1.9482673999302473 -1.9698413800235053 -1.9520768732914318 -1.942123394371895 -1.9006214095869347 -1.9609665437456745 -1.9631954334757116 -1.907962742794544 -1.9528058902989625 -0.2736094802319568 -1.9480260243693082 -3.2427246111760653 1.932681708299234 -2.0872039766718116 -2.2036407482557596 -1.9745102785147244 -1.7293984818145254 -2.342314566568664 -2.5284358451016007 -2.8046468386202146 -2.1231949891760316 -2.5275865233754229 -1.981214204999874 -1.9526798048347498 -2.1957443532491916 -1.9780622130713164 -2.5830862713564984 -2.4962768452436421 -2.0445792992906124 -0.23620273150829668 -2.6898117978882503 -2.3458670091439822 -0.56438247351990556 -2.1329881751714663 -2.198662007839427 -1.2552668696715279 -3.6127095771898752 -2.3066214169374493 -2.6697420786557364 -1.9937333629774232 -1.9827236179033614 -2.001067268175416 -2.8090314443244244 -1.975321491851151 -2.1149283362284708 -1.9445134783061686 -1.9693225864786781 -2.7536509032278862 -2.1882041392788434 -2.1400233205352852 -2.1521507394578436 -3.1130386209785703 -2.6681920324293005 -2.9162231899164075 -2.1679120519599548 -2.7014133137097693 -2.001297932094154 -2.1776655952873862 -2.1665600607034339 -1.9906339837361431 -2.1794139093343494 -5.7617577081049616 -2.5476561038279382 -1.9900154733326205 -2.062649524332413 -1.9366535771632574 -2.5568529727778868 -2.3560644059075755 -1.9041868915758806 -2.381401001074289 -1.4379451639768011 -2.5818971378062412 -2.0198548470851172 -2.8285453416711106 -2.5543928811463048 -1.9660401254239954 -2.4905760281967337 -3.7530842746318336 -3.2078791596244836 -2.0806638019857173 -3.7455945025388275 0.63027686164584973 -1.6178578051365406 0.79784482509901777 -3.8357134051214934 -1.5473254413603221 -3.6892195633439528 -2.1182790220467576 -2.5276908419899042 0.87228765762746718 -2.7075565576189486 -2.7199988162825077 1.3132614380417729 -2.0413652020748199 -0.52607783827550803 -3.0827797095501075 -0.85174738584976806 -2.0623007384247054 -2.479087525560657 -2.2886308412189731 -3.1728454869559233 -1.989854119187265 0.27115362682582028 -3.3093540391236806 -3.7424037979070577 -3.509742656258763 -2.5902797357739002 -2.3381080830751566 -0.32649695260796707 -1.9944855912528099 -2.1965627260953009 -2.8760711590476178 -2.8800963770774115 -2.0887317611950396 -2.386631195217797 -1.4416324921334462 2.3020072322939162 -2.7064936311144936 -1.986285075061279 -0.04491217352526973 -2.5707495756204364 -2.1477193173541664 -3.2836713900734384 -3.1498092734515493 -2.8269807199892085 0.49013890305019819 0.53964112532194164 -2.275961138211291 -2.8954714693938679 -1.9879751612533703 -2.7316254511941547 -1.9076875611272957 -1.8943272979007248 -2.2966898046247568 -2.0077809371894739 -0.64699758495746718 -2.6299961595864931 0.88473247677498601 -2.0877690264327669 -2.0482840685941852 -2.3995060422713461 -2.3441794617140665 -2.1136248756505327 -2.4868725961365858 -2.464067820914273 -2.6826782058569258 -2.5494036961836626 -2.6734115997473857 -2.4401429763769631 -2.2128234215356457 -2.2184107091529 -2.50584719762209 -2.407528045182084 -2.6240075684783295 -1.1440796462827019 -2.6228210672131942 -2.0038896499251067 -2.6415660333733566 -2.3130866534309868 -2.2724375740887401 -2.9622928832404085 -2.6091397500373907 -2.3761566042242133 -1.447457079858316 -2.6756330983953553 -2.3777954851967933 -2.1443057564138566 -2.2267018869003681 -2.2263763266756778 -1.2886532758394058 -2.064407929321606 -2.1133161799579434 -2.0237924859649059 -2.0662146930265544 -2.9260801214728787 -2.4371558014405541 -2.4702035638920834 -2.5589228851312433 1.1085142724835111 -2.9146426561464689 -2.5231796111630338 -2.2479940388321595 -2.536563957050928 -2.3307385385534891 -2.4531889242698561 -2.4001765527269798 -2.2473244575576894 -2.465845895678981 -2.8853871947496095 -2.6592056333387277 -2.2141662702722198 1.3866613095720906 -1.9995363586832859 -2.8502214701353377 -2.2165438492512899 -2.1371329166872495 -2.4145205783383679 -2.8063367889666879 -2.610588932733017 -2.4456950113467468 -3.0513095770885772 -3.411671501357433 -2.0994133768970293 -1.4593740133917763 -0.41761952778896133 -2.0398213435519366 -3.6624468861725803 -1.0441200825294288 2.8529722640303481 -3.1932341036262488 1.1866858732605146 -2.2453343782948547 -1.9926337667225695 -0.90687175561764499 -2.124296190540091 -2.075337076937068 -1.578275860945624 -2.1961298800763474 -1.9879521539850404 -2.0383508155446823 -1.9478561570179276 -2.1482429653187962 -2.0139844701574177 1.2657890433456527 -2.0080389760952482 -3.231072995610742 -2.0853361009706735 0.97730219301721877 -2.0123620224335159 -0.06557841442535603 -1.96101885189531 -2.272632521237095 -2.0641775340844641 0.61341861609501613 -2.5128868451048048 -2.5951714378594408 0.77599628771121842 -2.2698083550177888 -2.4549186006057719 -1.9697234509602175 -1.9467927136040903 -2.3603149706799091 -3.781233961198522 -1.9568135172845411 -2.7000034612304455 -1.9975247480275307 -2.2073581616725058 -3.1797085174951003 -0.36829726811680241 -0.064659233137321082 -3.382665661975353 -2.2135048675930431 -3.0445126240629254 -2.0645359334420874 -5.5410480370941411 -2.1551753846329169 -1.9648311703839698 -1.97902702593699 -2.9943362006608405 -1.9747692137260611 0.3114872306450821 -3.1151106091012131 0.68022772302432555 -1.9420344757446963 0.6625582038165877 -2.3577183668239923 -2.8335394853972211 -2.0211738771919578 -1.6504303625093677 -3.3100420121293164 -0.45510414039509228 -0.091183181761442425 -2.4878512853203332 -1.9861760727896476 0.53251797960291281 -2.1526418176471052 -3.2148597239578169 -4.2583013722297052 -2.41954637190732 -2.0968189820774663 -1.9960079553044865 -2.0066183183043158 -2.8583283932600532 -2.0032069291514234 -2.7651421457284617 -2.0523065092045742 -2.3658045728629715 -2.2152324358707545 -0.46755759653432 -2.0298450263893737 -3.023232181962054 -2.5320291394049579 -2.1892653101571127 -2.510862868037544 0.49518712700863288 -2.1160342327104695 -1.977071216740137 -2.7439443440232951 -1.4863525683599783 -3.5596464074974854 -2.312408971327335 -1.9806870427860976 -2.1237995337140179 -2.1809449738823892 -2.0538569943104625 -1.6738168352289233 -2.9741625695233398 -3.6053077420754773 0.61451047899186695 -3.907254798417044 -1.65171607687014 -3.8285002337383314 -2.1318981974173239 -2.1693632594140606 -2.0983222068403693 -1.9518730824150963 -2.6942606445613437 -2.2791276603995345 -2.04695073386402 1.1823308884162784 -1.9805072338562009 -0.40173287677558017 -2.5899519048244457 0.32187537759675361 -1.9192349637732511 -2.4047258811712116 -1.9897975017706948 -2.0238066965116515 -2.0973915208316436 -2.7891843256235136 -2.3008589009676141 -3.2604299719359595 -3.5460768820318833 -2.0098143785655478 -1.4029977792261579 -1.9969054840817484 -1.9587135369039756 -2.0842007944882841 -2.016299796690197 -1.9445461011407716 -2.0085721045191183 -1.9931917935874059 -1.9580430119434533 -2.1221350821055776 -3.3745561573718743 -1.9634733223314562 -2.0637669271914487 -1.9655337079438269 -3.4634393651262143 -1.9946477703424621 -0.75896258616432599 -1.9754367161241129 -1.9559749744610679 -2.2916962632223208 -0.99482665030866146 -0.59485293374534576 -2.0891140234430017 -2.0822048341308568 -2.0645381871321908 -2.1173695235115035 -1.9652810650226793 -1.973874340231772 -1.9966301322970557 -1.9719207049829417 -1.9631798138768495 -2.0620694468875818 -2.420934532422311 -2.0988807366066031 -3.9681264305055808 -1.9546914452784656 0.21804350908625958 -2.2790449277774774 -1.9862018829673771 -0.15633136098826261 -1.9750062381942175 -2.6918019749356938 -2.0032734459943735 -1.9684078792363982 -2.07196525606102 -2.36969117544038 -1.9177737872331206 -3.1471044336024132 -3.0722475412653605 -2.5614198754591904 -1.9359047738913266 1.6811341469083227 -2.1816684669138708 -1.5304860632814103 -2.6117196567147549 -2.7938560413666349 -2.4401548287944941 -1.9696912787303555 -1.973229534667917 -2.5663787330233214 -3.5100803463971788 2.565805301949954 -1.5734214018010975 -2.495281981087063 -2.906697862276308 -1.9838373460185159 -5.0963100211954968 1.4810214902362 -2.0087876973348355 -2.7785577692210821 -0.10524263479462505 -1.3833995350577075 -2.7650527226059709 -2.1031656902765765 -1.9913223133176996 -1.9696007844786296 -2.0524685746931226 -4.2833838362022698 -1.9672940192609778 -4.550934186671503 -1.9550802271157888 -1.9690638247347023 -2.9073319603373027 -0.59750506925666058 -2.6477764375013346 0.94899816932418257 -1.9951776905950294 -3.3461142802550907 0.8168033972809009 -2.1322806118252591 -1.9965959106529858 -1.9962838830461582 -2.2140062486893868 -2.5107651350252902 -2.0860390869845968 -2.227963917153855 0.26028382613810375 -2.3654720666375351 -1.9651195168945674 -2.8445466568869673 -1.9481916506462684 0.87631449021429941 -0.57425034134393349 -1.987743404339942 -2.7166858522070965 -2.770793102408263 -1.4485617951721836 -2.0656330271038943 -2.7683099739955179 -1.9474758487876183 -1.9829922849332668 -2.5389622653225152 -0.25771179356518986 -2.0134408658658867 -3.5246745592735147 -2.7716492556450065 -2.0232174206252944 -2.2323444244170219 -0.046559033270881026 -2.0183032626693165 -1.9854801614500468 -3.8415157889029774 -1.9788078525422859 0.5184010639329153 -2.103180950710176 -2.655701032867936 -0.32335552704034554 -3.5642841787080086 -1.9731513403960279 -2.2105075982866156 -1.9514096935650731 -3.7671160580392762 -2.4786781765677963 -2.7659106872398986 -1.9518678640819125 -2.0460817910005793 -2.5348095197761662 -3.2062202890698472 -1.9994911686872225 -2.2934692175957934 -2.0135412008396547 -2.0584754598559964 -1.9883995758103736 -1.993534807715585 -0.8743187689730535 -1.171165848542411 -2.537000628968626 -1.9517183245898753 1.1971406574037486 -1.9484647902136552 -1.9423591011205719 -2.2362682891390535 -3.008489635688318 -2.3046371979050453 -2.1953664558973696 0.4695251724888207 -2.5031720082244844 -2.4262167583830019 -2.2490200906710389 -2.2800707379068004 -2.2772662343851278 -1.9358231818884351 -2.0088492363791235 -1.9624868923363226 -1.5608029663705756 -2.3147076498100074 -1.1163347930610581 -2.3157869804796469 -2.0247961402313277 -0.16249242940912731 -2.814315222684483 -0.7909663782470181 -2.5045046080535251 -2.0212657873585185 -0.46591381117754604 -3.1710261491968574 -3.7388402819521289 -0.25079588438634515 -2.3639339483091666 -2.4232292811665692 -3.2884986898449631 -2.1407753259415769 -3.5760928296245642 -2.4907621859593538 2.5413313360764702 -3.2205097339183628 1.3823078006814442 -2.7657963259087213 0.84290728595141673 -2.3978710854682572 -3.1566632594168706 -2.1048170207274475 -4.1275174824330563 -2.1117648477129163 0.60585911655515468 -2.0958763247753631 -2.0526747201012645 0.034637988384152454 -3.5412924361632858 -1.6751598812927493 -2.8480483366697835 -2.2907434705739371 -2.3532320591705251 -0.56507682658292802 -2.0899105043148793 -0.056453106259166282 -2.0368895954420085 -3.1896957838596256 -3.1226333620449358 -2.8179459137613048 -0.9542309791297594 -1.4918276443267797 -2.2562656407392621 -2.0591957341172158 -3.25245292941583 -2.1390529614425811 -2.588239477986352 -2.1621484197763361 -2.0415077611792345 -0.31255188724059613 -2.036538992717781 0.76327937875338414 -2.8155116878860684 0.29571217488037682 -2.0026649559305474 -2.8093162265310059 -5.2947146013330837 0.48849012237630712 -2.9576901948239667 -2.0763933478853764 -0.28592605563350654 -2.820944215083625 -2.1384400464114059 -2.8247899101192346 -3.0165053471912335 -2.0335475492705379 -2.3000472381584327 -2.1920477964093807 -3.9446387837495167 1.0712424858839722 0.67423988663409073 -2.0738458860478231 -1.0080257440793043 -1.9713752553398183 1.0279334190986016 -2.217136409620545 -1.8075254947736874 -2.1371847335126417 -2.5214665915019063 -3.2023238933349414 0.6446688261273702 -2.5412707370375767 -3.5243092737638122 -1.6175826445077925 -3.0579785142968685 -2.203582922248053 -2.2960005732377442 -3.0480010486544957 -3.1039773346365753 0.60828964943287478 -1.9788524623711075 1.4309064951189367 -2.2193874714328339 -2.5215827820527945 -4.5599950969234744 2.0820622718354076 -0.49493684544729044 -1.1203708660133378 -3.0362121275239855 -2.714766487238502 -2.9722307962392756 -2.6463849018833292 -2.3183917331764832 -2.2451837392342395 -1.9631419229500917 -3.2078657125527203 -1.9726857908596709 1.5586390561045258 -3.8042638510586224 1.3672536094577692 -1.9913086425327311 -2.641024578898084 -2.1104825499841486 -2.4793404454980141 -3.8464683439320209 -0.92398713960268619 -2.3013657321411145 -2.7411492971700335 -1.404486383864483 -3.3813686954754854 -2.2428826823288719 -2.7657705526196943 -3.8073710169073349 -2.9219264423721811 -2.0113718394574578 -0.2939376243167896 -2.6065323691363664 -0.24593540243854634 -2.0127004173328933 -0.69942060658891003 -3.0416442105553583 -2.449331389739505 -0.66383519747456277 -2.2982463927010865 -2.0128890852404435 1.4382216753178911 -1.9738216237305077 -1.9630477672781772 -2.8530067865327129 -0.65814489329775749 -4.3783927178566859 -1.8105048365900958 -2.0056188257630736 -3.1707628169292779 -2.7549609717140053 -2.1959756716572105 -3.9240703987804011 -1.4386504895852694 -3.9836250939276892 0.40312209053502807 -2.0693028325340252 -2.3567572620922634 2.2167922071288508 -2.0566755109674935 -2.7249411412403082 -3.1843318145318533 -1.9590801307608263 -3.5337149823598861 -2.6025536255026203 -2.1852413039754781 0.65942268406549931 -1.9666720058780178 -1.1595023003807856 0.71225182137938892 -1.0358302958470509 -1.9592031308350679 -1.9969593338075602 -3.2559082509103083 -2.0218471308319135 1.4325400156830692 -3.1654532572858733 -2.5003480212701557 -1.9151074438881568 -3.2057851851441446 -1.990742586273633 -2.6193896354038881 -1.9965460426768822 -3.7322241241568523 -0.741020267917192 0.038398106793234729 -2.0153898095819831 -2.9354860119422903 -2.0937652981106685 0.41624884112566729 -2.7756615476879447 -0.6518719119169788 -2.0626662270742169 -2.2358047113270523 -3.4507577816603767 0.70614823820538697 -3.1641053163595898 -3.8515881937614487 -3.1916936348657896 -3.8185209686869026 -2.5027059560974343 -2.0025455724631742 -2.0445862778030448 -4.3954921386676791 -1.1107793629096712 -2.0128458387180901 1.5083914945183441 -2.8128642511725293 -2.4791316836439039 -1.4074430468132406 1.496098140717838 1.3421607773097413 -2.0046593069186862 -3.3593311525261349 -2.8891899398440763 -2.1924660806657195 -2.2344562972731747 -2.2050399137469556 -2.4276107131260765 -1.9779522448190592 -1.0957910905293926 -1.9646626931810462 0.7599284167461593 -2.6598091572856872 2.3638823739997346 -1.9613987768279733 -0.34075800906850495 -1.5313330428100227 -3.1080891259899044 -2.0884718630710681 -1.9953171274815515 -2.0080977227040453 0.74623959002940021 -1.9565286603057785 -2.2894276529457471 -2.0091015674382242 -2.0404435989108656 -1.9989946351152315 -2.9700670772356781 -1.9581251834678626 -2.1436360922076756 -1.942046744253588 -1.8723869156165045 0.88874177270962573 0.082930837346418818 -2.8662620898272544 -1.9606803636328207 -2.5194139529047752 -2.0793932383675351 -1.9950101373135192 -2.9522827921806218 -1.9881819984439995 -2.1949426024967771 -2.0367097795737785 -1.9587763039620147 -1.9841873268923667 -3.288305565867605 -1.9663001494232701 -1.9462347575349142 -3.707821964728474 0.65609769433566267 -2.0577424874932615 0.63702848074663243 -2.3423700683871256 -1.36629442852484 -2.894580572221336 -2.2496577375430826 -2.0924240876677178 -1.980028436929222 -1.9805759430870697 -2.0944971011575038 -2.5969429042457035 -1.9493457141281074 -2.4981589758384852 -1.9493618881687287 -3.3593537195096501 -0.40111365962094336 -3.2802325790374609 -1.9528275834727118 -2.7015136558281347 -2.1266471329009353 -2.0315298371503814 -2.0255483046579918 -1.9598513734669216 -3.0820538450346353 -1.9573491514676065 -3.5083869192426866 -2.0513300641787575 -2.0123628222862919 -1.9778861782774786 -2.4240401156293152 -1.9664929500819379 -2.1098042805444681 -1.9324462773647018 -2.2477960998465107 -0.43952001263545815 -2.3184260157184022 -1.6949450294114163 -1.9614744135027362 -1.9758365686475594 -2.8530215586503282 -1.9485476257294698 -1.9598076645551463 -1.9556784631803572 -2.0888356707960276 -1.9477840724122928 -1.9767638433700312 -1.9768042325535879 -2.385861367381112 -1.9563318499150293 -1.9386749885152599 -2.1238416511613587 -0.29762391751987466 -1.9758234732461655 -3.3524781988232619 -1.9615078059490085 -2.0037053236627624 -2.2912692987339844 -1.9859453715901538 -2.0614278539243491 -2.2399863113372982 -1.9415469496121018 -2.0287470914150831 -2.0641479883350553 -1.9907906553298231 -2.0239435777907695 -1.9529779590199923 -2.0715140715144869 -0.023617827151484711 -2.0663725666340027 -1.9516030744401447 -1.9583440914325025 -2.5481593771221345 -2.4941678659208391 -0.64947728227580648 -2.3957055459358672 -2.1022731236115124 -2.1827634990165348 -2.1800622460855146 -2.2011426096202142 -2.3838939319423869 2.0421942124526389 -2.1634790670792521 -3.1001334257175865 -2.027954647264218 -1.8555689170638987 -2.6010680441897271 0.8514414043284757 -2.1289271678906014 -2.0737949466790218 -2.9073295165713064 0.044959889684633825 -3.4933445083845123 -3.4678550196970965 -3.0357966209897529 -2.8167153340298046 -2.5699070932085171 -2.1358607419153137 -1.9998025683108431 -2.2315629248135571 -2.7324624900797372 -2.0607517468846104 -3.9246921622871458 -3.2260909056899316 -2.8209942854081684 -1.3170923677385351 -1.4989411964203625 1.6865383584085503 -3.1144737197325068 -2.2899458005531041 -2.7019391923154323 -2.4115036281964519 -2.1233242962340864 -2.3151238818899698 -2.1557337176112994 -2.7943017811054442 -1.9996452510854366 -2.0030878290402154 -1.0581739403189012 -0.84685976070414704 0.49618530055544779 -1.9868674004758262 1.9028568618236967 -3.0092920887667369 -1.9962071529669279 -2.6671449249265566 -2.6572312654654389 -1.4924742920615919 -2.3956915856239807 -3.0157544591839249 -3.9082245977963113 -3.1582435240176925 -2.0192136713023543 -2.5291436051999794 -1.9671302183077179 -3.7896314164140255 -2.1892694921834157 -2.0839330977121775 -2.4621297445219761 -2.6957025218348303 -2.1180265663658298 -2.8322661124848838 -1.9502086143368054 -2.1011813916032249 -1.9733339615947378 -2.1361802465537485 -1.9706631981686349 -2.3720572514234326 -2.3883785427113731 0.10594808289081613 -4.1239790067560174 -1.9292900517779539 0.17763907662032194 -2.0036158791424437 -1.971433843968504 -2.3080686173286971 -2.2313239861958714 -2.5168867761279983 -0.10059119325752924 1.1633909583737236 -2.0786904907602324 -3.1890189909445006 -2.0112788534490114 -2.9979171781797431 -4.1288114649001493 -1.9316973089468121 -2.2438831120421527 -2.0652018848107576 -2.7581562113989477 -2.5079438305411412 -0.87338738244285352 -2.0322036471325533 -2.0019966788443844 0.44788991099191611 -2.0982145700366917 -3.1920228828555217 -2.0663586049147109 -1.8984702418252406 2.2287993010711622 -1.9918356112257691 -2.5739972689330846 -0.48711812014420391 1.7380744145384128 -3.3505287106549844 -3.1167706362491674 -1.984121516338317 -1.9635207796332781 -2.6988357130626879 -1.7016028314781988 -1.967076029667068 -2.5248780461415241 -1.945707101406462 -1.9957074335634246 -2.4173926536303698 -1.4461462395048292 -2.7876749066171871 0.76898259266858138 -2.0558062370079226 -2.3320444698719256 -1.9348717722652971 -2.7077930840458335 -2.5877405026618128 -2.0362523089783062 -3.0342225312318734 -2.8051886493602196 -1.9465881341478002 -2.2898071726275324 -2.9416811501261098 -2.0569749195602696 -1.9876015782986698 -2.4702264430936438 -1.9483097655456816 -0.1711797492694892 -2.9887209408814095 -1.9913599057923634 -2.2424821340182479 -2.4955330157931979 -3.6552425969781059 -2.0701813243661267 -2.9340086646896344 -1.9643629203549904 -1.9661778233160367 -2.0055866819446488 -3.0005931750411321 -1.9717429470365129 -2.0697907385199334 -2.778202029144123 -2.2010938893895187 -0.9591466422338093 -2.9946588715446079 0.91015252404938363 -1.8184189985610038 -2.8030099878790953 -1.9923732440812958 -2.2848008528895458 -1.9793482912839793 -1.445554531717564 -1.998732660514678 -1.0890248048505862 -2.0528007668306474 -1.9718649702866113 0.84761034324120599 -2.8865516221272811 1.1576536670701725 -4.2062931665861241 -2.0099593146408399 -1.9784692931126913 0.051295491339122881 -2.6417419509636528 -3.2619048649805324 -2.0176438568385078 2.3980304081210027 -3.3845391811626504 -2.0882210333061764 -1.867326420488334 -3.1292445454930897 -2.0400900752358315 -2.1204790531157389 -2.93941330868113 -1.9522938008376847 -3.2244697970992813 -2.2335397073941148 -2.1320325976437267 -0.20864834622591508 -2.0435740158030442 -0.84396145884935059 -2.8055362118797684 -2.9944165767943769 -1.9614741326655936 -2.0570915545328718 -1.9852592250376606 -1.3486363627162425 -3.3268370871353494 -3.2030194580788138 -2.0802853168896638 -3.1497832002799826 -2.0075622543081737 -2.2642462054922046 -1.9621776824519614 -0.93238471230857123 0.58509844870039307 -2.3379018445045165 -0.98622644526188041 -1.9777199713401028 -2.3379640318786756 -1.2076696754923661 -1.964617073126125 -2.4280462164315453 -2.0251514038088012 -3.0478023114986654 -1.9871944054179693 -2.4243213501601604 -2.2171934670171214 -0.82099960639635006 -2.1120432038184238 -1.9509459441220991 -2.5786376829426407 -0.60594310818049224 -2.0362995573851763 -1.5380399333751866 -2.2945409836785426 -3.3140831288990222 0.01988208060419204 -2.3701428532838205 -3.3320327228892657 -2.1297183859572222 -1.9615568084103172 -2.1805879559834485 -2.0221381025754002 -1.9561477005990038 -2.8348949636218155 -1.9686746547705674 -2.4628786381148533 0.53195285943504556 -2.1175178736741285 -1.9595161717508218 -1.9701689598746155 -2.0058316688129803 -2.0386425329829128 -2.3298003824902547 -1.9861597372199811 -2.327162858346135 -1.3736211215559675 -1.9858406461104052 -3.2473821396140456 -2.0377997652225366 -1.9673688879906599 -1.9458629789495037 -1.9698137939137987 -1.5027048677410657 -1.9643712800138138 -2.0610547838860729 -1.9520212916382402 -1.9462577180582257 -2.734819549901097 -1.9906726391530933 -2.4169077840063893 -3.2701718615675981 -2.2682242790465161 -2.1439207803856859 -2.8412382585838469 -2.1167530680118558 -2.0779138153379981 -1.9552601990172152 -2.1593926101519125 -2.0464100674687664 -1.9692105887249232 -2.0083659956376718 -2.3983126517946518 -2.0394222304472591 -1.9511752018268542 -2.6898503102956419 -1.9503477364634612 -2.8325704212069915 -2.0105739400596572 -1.9065634973043055 -2.0414143065212005 -0.64017177365691136 -2.0565921463747321 -1.9663519212034448 -1.9877043625504596 -1.9497451508956507 -1.943825455113362 -2.8179531641733879 -2.2715317198156204 -3.1006811959186478 -3.3964387259266671 -2.0254464816100195 -2.2697308407773797 -1.9543795990858222 -4.4510510677022648 -2.7130603718679791 -2.9719590410866554 -2.4512977376374718 -1.9755554427454165 -2.0539294260654586 -3.0093936459857553 -1.9560612219747218 -2.0145904929406284 -2.8245822405950709 -2.0402599724503094 -1.942374254450997 -2.1418233956767949 -2.089708357632639 1.698892866044321 -2.3012225253745804 -1.9157509798157679 -1.2292109112141334 -2.6460914125649193 -1.9742870195345441 -2.3739781502493655 -1.9731959449873435 -2.2022408017997308 0.31033488984154661 -2.6769324744135639 -2.0048262059678232 -2.5996217775181947 -1.9573246868211218 -2.1310345397912545 -3.5431613592807421 -1.9442850651968364 -2.1232238303056805 -1.9602306373378082 -1.4402053069197696 -2.2824653097759415 -1.8063915017953951 -3.1127279353229578 -1.9642058014912616 -3.5637479500145597 -1.9716910553965856 -2.0046846067377153 -2.2407016448735413 -2.2307775192779435 -1.9594014262876189 -2.1451824242445219 -2.0644372090947338 -1.9674982895152577 -0.74685804125567723 -1.9619529517318182 -1.9454644833133805 -2.2410999809279328 -1.9363919720731788 -1.9647849779108228 -1.9754459590626048 -2.3803772194070163 -1.9737832680197436 -2.1550375693481096 -2.195148208380663 -2.6438767308838869 -1.9856717344487105 -1.9340069784255691 -2.4909826830126254 -2.0596679604570389 -1.9400633221589998 -2.8009925987726194 -1.9537613476788267 -2.050618756936974 -1.8093122885807569 -2.1672400782036303 -1.9879568271870365 -3.4405321737593129 -1.9387902521701432 -4.5273796478376909 0.62996666396216938 -1.9421266766056582 -2.1175962467001188 -1.9644046561659771 -2.4806671845650379 -2.3488301875941278 -3.247018456467563 -1.9540009901409527 -1.9552491517050554 -2.0091014649643819 -2.3360600127043374 -0.14920235708742449 -2.6670867277718693 -2.2637764653552388 -2.8060923502785653 -2.2120046136414295 -2.0548351973342656 -2.2542900105243544 -2.3348477882904115 -1.9723152227082335 -3.6074113690983429 -1.945345283196549 -1.968871992503644 -2.0518650933782085 -1.3664281053663092 -2.0506857970694039 -1.0574249980196702 -2.2951534032624545 -2.8295257020617424 0.32855402820706769 -2.0321487908946358 -2.8930455112939262 -2.1042789257587482 -2.1776702440949043 -2.2011635261084193 -1.9658257335196394 -2.1416794858403474 -2.0051563834485062 -2.7172167603661066 -1.9946267377026292 -2.3015574793125042 -1.9481285850416226 0.56186421778382367 -0.26727795803308918 -1.9466178558670599 -2.6584882036242443 -2.9613869001604098 -3.7724953795688347 -2.0701219405405453 -1.4739808565480559 -1.9527677323966335 -1.9575639729534089 -2.8170104723122846 -1.9874518046787397 -2.4763013228912452 -1.9849769885169619 -2.8658827855586453 -1.9778146452048229 -3.1665437083972963 -1.9819623879500241 -2.197701262439367 -3.5894007168713817 -2.8747300848328243 -2.5069068414141276 -4.6832166502237156 -3.7210526096038703 -2.0719070551322365 -2.0327173033721961 -1.981037923653195 -2.9708988329823769 -2.7156249353609159 -4.2317133591991745 -1.9495445021736655 -2.3219217964610763 -1.9648423570356388 -1.977308906030399 -2.0926179060756778 -0.56048564567738657 -2.8237476227820002 -2.3346088250235431 -0.54025746753713877 -2.441399614240261 -2.536650680994109 -2.7817108602315903 -2.1827294244856446 -2.0087999629976871 -1.9289066484048811 -1.9808600962009482 -1.9622583307264192 0.42063782591752891 -2.0538599434735638 -2.8983826904486598 -2.3512741340367458 -2.6331177500658969 -2.1084800693214225 -0.57690655466540408 -2.0033635731332393 