svm_type c_svc
kernel_type rbf
gamma 0.016949152542372881
nr_class 77
total_sv 77
rho 0 0 0 0 0 0 0 0 0 0 0 0 0 0 0 0 0 0 0 0 0 0 0 0 0 0 0 0 0 0 0 0 0 0 0 0 0 0 0 0 0 0 0 0 0 0 0 0 0 0 0 0 0 0 0 0 0 0 0 0 0 0 0 0 0 0 0 0 0 0 0 0 0 0 0 0 0 0 0 0 0 0 0 0 0 0 0 0 0 0 0 0 0 0 0 0 0 0 0 0 0 0 0 0 0 0 0 0 0 0 0 0 0 0 0 0 0 0 0 0 0 0 0 0 0 0 0 0 0 0 0 0 0 0 0 0 0 0 0 0 0 0 0 0 0 0 0 0 0 0 0 0 0 0 0 0 0 0 0 0 0 0 0 0 0 0 0 0 0 0 0 0 0 0 0 0 0 0 0 0 0 0 0 0 0 0 0 0 0 0 0 0 0 0 0 0 0 0 0 0 0 0 0 0 0 0 0 0 0 0 0 0 0 0 0 0 0 0 0 0 0 0 0 0 0 0 0 0 0 0 0 0 0 0 0 0 0 0 0 0 0 0 0 0 0 0 0 0 0 0 0 0 0 0 0 0 0 0 0 0 0 0 0 0 0 0 0 0 0 0 0 0 0 0 0 0 0 0 0 0 0 0 0 0 0 0 0 0 0 0 0 0 0 0 0 0 0 0 0 0 0 0 0 0 0 0 0 0 0 0 0 0 0 0 0 0 0 0 0 0 0 0 0 0 0 0 0 0 0 0 0 0 0 0 0 0 0 0 0 0 0 0 0 0 0 0 0 0 0 0 0 0 0 0 0 0 0 0 0 0 0 0 0 0 0 0 0 0 0 0 0 0 0 0 0 0 0 0 0 0 0 0 0 0 0 0 0 0 0 0 0 0 0 0 0 0 0 0 0 0 0 0 0 0 0 0 0 0 0 0 0 0 0 0 0 0 0 0 0 0 0 0 0 0 0 0 0 0 0 0 0 0 0 0 0 0 0 0 0 0 0 0 0 0 0 0 0 0 0 0 0 0 0 0 0 0 0 0 0 0 0 0 0 0 0 0 0 0 0 0 0 0 0 0 0 0 0 0 0 0 0 0 0 0 0 0 0 0 0 0 0 0 0 0 0 0 0 0 0 0 0 0 0 0 0 0 0 0 0 0 0 0 0 0 0 0 0 0 0 0 0 0 0 0 0 0 0 0 0 0 0 0 0 0 0 0 0 0 0 0 0 0 0 0 0 0 0 0 0 0 0 0 0 0 0 0 0 0 0 0 0 0 0 0 0 0 0 0 0 0 0 0 0 0 0 0 0 0 0 0 0 0 0 0 0 0 0 0 0 0 0 0 0 0 0 0 0 0 0 0 0 0 0 0 0 0 0 0 0 0 0 0 0 0 0 0 0 0 0 0 0 0 0 0 0 0 0 0 0 0 0 0 0 0 0 0 0 0 0 0 0 0 0 0 0 0 0 0 0 0 0 0 0 0 0 0 0 0 0 0 0 0 0 0 0 0 0 0 0 0 0 0 0 0 0 0 0 0 0 0 0 0 0 0 0 0 0 0 0 0 0 0 0 0 0 0 0 0 0 0 0 0 0 0 0 0 0 0 0 0 0 0 0 0 0 0 0 0 0 0 0 0 0 0 0 0 0 0 0 0 0 0 0 0 0 0 0 0 0 0 0 0 0 0 0 0 0 0 0 0 0 0 0 0 0 0 0 0 0 0 0 0 0 0 0 0 0 0 0 0 0 0 0 0 0 0 0 0 0 0 0 0 0 0 0 0 0 0 0 0 0 0 0 0 0 0 0 0 0 0 0 0 0 0 0 0 0 0 0 0 0 0 0 0 0 0 0 0 0 0 0 0 0 0 0 0 0 0 0 0 0 0 0 0 0 0 0 0 0 0 0 0 0 0 0 0 0 0 0 0 0 0 0 0 0 0 0 0 0 0 0 0 0 0 0 0 0 0 0 0 0 0 0 0 0 0 0 0 0 0 0 0 0 0 0 0 0 0 0 0 0 0 0 0 0 0 0 0 0 0 0 0 0 0 0 0 0 0 0 0 0 0 0 0 0 0 0 0 0 0 0 0 0 0 0 0 0 0 0 0 0 0 0 0 0 0 0 0 0 0 0 0 0 0 0 0 0 0 0 0 0 0 0 0 0 0 0 0 0 0 0 0 0 0 0 0 0 0 0 0 0 0 0 0 0 0 0 0 0 0 0 0 0 0 0 0 0 0 0 0 0 0 0 0 0 0 0 0 0 0 0 0 0 0 0 0 0 0 0 0 0 0 0 0 0 0 0 0 0 0 0 0 0 0 0 0 0 0 0 0 0 0 0 0 0 0 0 0 0 0 0 0 0 0 0 0 0 0 0 0 0 0 0 0 0 0 0 0 0 0 0 0 0 0 0 0 0 0 0 0 0 0 0 0 0 0 0 0 0 0 0 0 0 0 0 0 0 0 0 0 0 0 0 0 0 0 0 0 0 0 0 0 0 0 0 0 0 0 0 0 0 0 0 0 0 0 0 0 0 0 0 0 0 0 0 0 0 0 0 0 0 0 0 0 0 0 0 0 0 0 0 0 0 0 0 0 0 0 0 0 0 0 0 0 0 0 0 0 0 0 0 0 0 0 0 0 0 0 0 0 0 0 0 0 0 0 0 0 0 0 0 0 0 0 0 0 0 0 0 0 0 0 0 0 0 0 0 0 0 0 0 0 0 0 0 0 0 0 0 0 0 0 0 0 0 0 0 0 0 0 0 0 0 0 0 0 0 0 0 0 0 0 0 0 0 0 0 0 0 0 0 0 0 0 0 0 0 0 0 0 0 0 0 0 0 0 0 0 0 0 0 0 0 0 0 0 0 0 0 0 0 0 0 0 0 0 0 0 0 0 0 0 0 0 0 0 0 0 0 0 0 0 0 0 0 0 0 0 0 0 0 0 0 0 0 0 0 0 0 0 0 0 0 0 0 0 0 0 0 0 0 0 0 0 0 0 0 0 0 0 0 0 0 0 0 0 0 0 0 0 0 0 0 0 0 0 0 0 0 0 0 0 0 0 0 0 0 0 0 0 0 0 0 0 0 0 0 0 0 0 0 0 0 0 0 0 0 0 0 0 0 0 0 0 0 0 0 0 0 0 0 0 0 0 0 0 0 0 0 0 0 0 0 0 0 0 0 0 0 0 0 0 0 0 0 0 0 0 0 0 0 0 0 0 0 0 0 0 0 0 0 0 0 0 0 0 0 0 0 0 0 0 0 0 0 0 0 0 0 0 0 0 0 0 0 0 0 0 0 0 0 0 0 0 0 0 0 0 0 0 0 0 0 0 0 0 0 0 0 0 0 0 0 0 0 0 0 0 0 0 0 0 0 0 0 0 0 0 0 0 0 0 0 0 0 0 0 0 0 0 0 0 0 0 0 0 0 0 0 0 0 0 0 0 0 0 0 0 0 0 0 0 0 0 0 0 0 0 0 0 0 0 0 0 0 0 0 0 0 0 0 0 0 0 0 0 0 0 0 0 0 0 0 0 0 0 0 0 0 0 0 0 0 0 0 0 0 0 0 0 0 0 0 0 0 0 0 0 0 0 0 0 0 0 0 0 0 0 0 0 0 0 0 0 0 0 0 0 0 0 0 0 0 0 0 0 0 0 0 0 0 0 0 0 0 0 0 0 0 0 0 0 0 0 0 0 0 0 0 0 0 0 0 0 0 0 0 0 0 0 0 0 0 0 0 0 0 0 0 0 0 0 0 0 0 0 0 0 0 0 0 0 0 0 0 0 0 0 0 0 0 0 0 0 0 0 0 0 0 0 0 0 0 0 0 0 0 0 0 0 0 0 0 0 0 0 0 0 0 0 0 0 0 0 0 0 0 0 0 0 0 0 0 0 0 0 0 0 0 0 0 0 0 0 0 0 0 0 0 0 0 0 0 0 0 0 0 0 0 0 0 0 0 0 0 0 0 0 0 0 0 0 0 0 0 0 0 0 0 0 0 0 0 0 0 0 0 0 0 0 0 0 0 0 0 0 0 0 0 0 0 0 0 0 0 0 0 0 0 0 0 0 0 0 0 0 0 0 0 0 0 0 0 0 0 0 0 0 0 0 0 0 0 0 0 0 0 0 0 0 0 0 0 0 0 0 0 0 0 0 0 0 0 0 0 0 0 0 0 0 0 0 0 0 0 0 0 0 0 0 0 0 0 0 0 0 0 0 0 0 0 0 0 0 0 0 0 0 0 0 0 0 0 0 0 0 0 0 0 0 0 0 0 0 0 0 0 0 0 0 0 0 0 0 0 0 0 0 0 0 0 0 0 0 0 0 0 0 0 0 0 0 0 0 0 0 0 0 0 0 0 0 0 0 0 0 0 0 0 0 0 0 0 0 0 0 0 0 0 0 0 0 0 0 0 0 0 0 0 0 0 0 0 0 0 0 0 0 0 0 0 0 0 0 0 0 0 0 0 0 0 0 0 0 0 0 0 0 0 0 0 0 0 0 0 0 0 0 0 0 0 0 0 0 0 0 0 0 0 0 0 0 0 0 0 0 0 0 0 0 0 0 0 0 0 0 0 0 0 0 0 0 0 0 0 0 0 0 0 0 0 0 0 0 0 0 0 0 0 0 0 0 0 0 0 0 0 0 0 0 0 0 0 0 0 0 0 0 0 0 0 0 0 0 0 0 0 0 0 0 0 0 0 0 0 0 0 0 0 0 0 0 0 0 0 0 0 0 0 0 0 0 0 0 0 0 0 0 0 0 0 0 0 0 0 0 0 0 0 0 0 0 0 0 0 0 0 0 0 0 0 0 0 0 0 0 0 0 0 0 0 0 0 0 0 0 0 0 0 0 0 0 0 0 0 0 0 0 0 0 0 0 0 0 0 0 0 0 0 0 0 0 0 0 0 0 0 0 0 0 0 0 0 0 0 0 0 0 0 0 0 0 0 0 0 0 0 0 0 0 0 0 0 0 0 0 0 0 0 0 0 0 0 0 0 0 0 0 0 0 0 0 0 0 0 0 0 0 0 0 0 0 0 0 0 0 0 0 0 0 0 0 0 0 0 0 0 0 0 0 0 0 0 0 0 0 0 0 0 0 0 0 0 0 0 0 0 0 0 0 0 0 0 0 0 0 0 0 0 0 0 0 0 0 0 0 0 0 0 0 0 0 0 0 0 0 0 0 0 0 0 0 0 0 0 0 0 0 0 0 0 0 0 0 0 0 0 0 0 0 0 0 0 0 0 0 0 0 0 0 0 0 0 0 0 0 0 0 0 0 0 0 0 0 0 0 0 0 0 0 0 0 0 0 0 0 0 0 0 0 0 0 0 0 0 0 0 0 0 0 0 0 0 0 0 0 0 0 0 0 0 0 0 0 0 0 0 0 0 0 0 0 0 0 0 0 0 0 0 0 0 0 0 0 0 0 0 0 0 0 0 0 0 0 0 0 0 0 0 0 0 0 0 0 0 0 0 0 0 0 0 0 0 0 0 0 0 0 0 0 0 0 0 0 0 0 0 0 0 0 0 0 0 0 0 0 0 0 0 0 0 0 0 0 0 0 0 0 0 0 0 0 0 0 0 0 0 0 0 0 0 0 0 0 0 0 0 0 0 0 0 0 0 0 0 0 0 0 0 0 0 0 0 0 0 0 0 0 0 0 0 0 0 0 0 0 0 0 0 0 0 0 0 0 0 0 0 0 0 0 0 0 0 0 0 0 0 0 0 0 0 0 0 0 0 0 0 0 0 0 0 0 0 0 0 0 0 0 0 0 0 0 0 0 0 0 0 0 0 0 0 0 0 0 0 0 0 0 0 0 0 0 0 0 0 0 0 0 0 0 0 0 0 0 0 0 0 0 0 0 0 0 0 0 0 0 0 0 0 0 0 0 0 0 0 0 0 0 0 0 0 0 0 0 0 0 0 0 0 0 0 0 0 0 0 0 0 0 0 0 0 0 0 0 0 0 0 0 0 0 0 0 0 0 0 0 0 0 0 0 0 0 0 0 0 0 0 0 0 0 0 0 0 0 0 0 0 0 0 0 0 0 0 0 0 0 0 0 0 0 0 0 0 0 0 0 0 0 0 0 0 0 0 0 0 0 0 0 0 0 0 0 0 0 0 0 0 0 0 0 0 0 0 0 0 0 0 0 0 0 0 0 0 0 0 0 0 0 0 0 0 0 0 0 0 0 0 0 0 0 0 0 0 0 0 0 0 0 0 0 0 0 0 0 0 0 0 0 0 0 0 0 0 0 0 0 0 0 0 0 0 0 0 0 0 0 0 0 0 0 0 0 0 0 0 0 0 0 0 0 0 0 0 0 0 0 0 0 0 0 0 0 0 0 0 0 0 0 0 0 0 0 0 0 0 0 0 0 0 0 0 0 0 0 0 0 0 0 0 0 0 0 0 0 0 0 0 0 0 0 0 0 0 0 0 0 0 0 0 0 0 0 0 0 0 0 0 0 0 0 0 0 0 0 0 0 0 0 0 0 0 0 0 0 0 0 0 0 0 0 0 0 0 0 0 0 0 0 0 0 0 0 0 0 0 0 0 0 0 0 0 0 0 0 0 0 0 0 0 0 0 0 0 0 0 0
label 1 2 3 6 7 8 9 10 11 12 13 14 15 16 17 18 19 20 37 38 39 40 41 42 43 44 45 46 47 48 49 50 51 52 53 54 55 56 58 59 60 61 62 63 64 65 66 70 71 72 73 74 75 76 77 78 79 80 81 82 83 84 85 87 88 89 90 91 92 93 94 95 96 97 98 99 100
probA 0.69314717840248341 0.69314717840248341 0.69314717840248341 0.69314717840248341 0.69314717840248341 0.69314717840248341 0.69314717840248341 0.69314717840248341 0.69314717840248341 0.69314717840248341 0.69314717840248341 0.69314717840248341 0.69314717840248341 0.69314717840248341 0.69314717840248341 0.69314717840248341 0.69314717840248341 0.69314717840248341 0.69314717840248341 0.69314717840248341 0.69314717840248341 0.69314717840248341 0.69314717840248341 0.69314717840248341 0.69314717840248341 0.69314717840248341 0.69314717840248341 0.69314717840248341 0.69314717840248341 0.69314717840248341 0.69314717840248341 0.69314717840248341 0.69314717840248341 0.69314717840248341 0.69314717840248341 0.69314717840248341 0.69314717840248341 0.69314717840248341 0.69314717840248341 0.69314717840248341 0.69314717840248341 0.69314717840248341 0.69314717840248341 0.69314717840248341 0.69314717840248341 0.69314717840248341 0.69314717840248341 0.69314717840248341 0.69314717840248341 0.69314717840248341 0.69314717840248341 0.69314717840248341 0.69314717840248341 0.69314717840248341 0.69314717840248341 0.69314717840248341 0.69314717840248341 0.69314717840248341 0.69314717840248341 0.69314717840248341 0.69314717840248341 0.69314717840248341 0.69314717840248341 0.69314717840248341 0.69314717840248341 0.69314717840248341 0.69314717840248341 0.69314717840248341 0.69314717840248341 0.69314717840248341 0.69314717840248341 0.69314717840248341 0.69314717840248341 0.69314717840248341 0.69314717840248341 0.69314717840248341 0.69314717840248341 0.69314717840248341 0.69314717840248341 0.69314717840248341 0.69314717840248341 0.69314717840248341 0.69314717840248341 0.69314717840248341 0.69314717840248341 0.69314717840248341 0.69314717840248341 0.69314717840248341 0.69314717840248341 0.69314717840248341 0.69314717840248341 0.69314717840248341 0.69314717840248341 0.69314717840248341 0.69314717840248341 0.69314717840248341 0.69314717840248341 0.69314717840248341 0.69314717840248341 0.69314717840248341 0.69314717840248341 0.69314717840248341 0.69314717840248341 0.69314717840248341 0.69314717840248341 0.69314717840248341 0.69314717840248341 0.69314717840248341 0.69314717840248341 0.69314717840248341 0.69314717840248341 0.69314717840248341 0.69314717840248341 0.69314717840248341 0.69314717840248341 0.69314717840248341 0.69314717840248341 0.69314717840248341 0.69314717840248341 0.69314717840248341 0.69314717840248341 0.69314717840248341 0.69314717840248341 0.69314717840248341 0.69314717840248341 0.69314717840248341 0.69314717840248341 0.69314717840248341 0.69314717840248341 0.69314717840248341 0.69314717840248341 0.69314717840248341 0.69314717840248341 0.69314717840248341 0.69314717840248341 0.69314717840248341 0.69314717840248341 0.69314717840248341 0.69314717840248341 0.69314717840248341 0.69314717840248341 0.69314717840248341 0.69314717840248341 0.69314717840248341 0.69314717840248341 0.69314717840248341 0.69314717840248341 0.69314717840248341 0.69314717840248341 0.69314717840248341 0.69314717840248341 0.69314717840248341 0.69314717840248341 0.69314717840248341 0.69314717840248341 0.69314717840248341 0.69314717840248341 0.69314717840248341 0.69314717840248341 0.69314717840248341 0.69314717840248341 0.69314717840248341 0.69314717840248341 0.69314717840248341 0.69314717840248341 0.69314717840248341 0.69314717840248341 0.69314717840248341 0.69314717840248341 0.69314717840248341 0.69314717840248341 0.69314717840248341 0.69314717840248341 0.69314717840248341 0.69314717840248341 0.69314717840248341 0.69314717840248341 0.69314717840248341 0.69314717840248341 0.69314717840248341 0.69314717840248341 0.69314717840248341 0.69314717840248341 0.69314717840248341 0.69314717840248341 0.69314717840248341 0.69314717840248341 0.69314717840248341 0.69314717840248341 0.69314717840248341 0.69314717840248341 0.69314717840248341 0.69314717840248341 0.69314717840248341 0.69314717840248341 0.69314717840248341 0.69314717840248341 0.69314717840248341 0.69314717840248341 0.69314717840248341 0.69314717840248341 0.69314717840248341 0.69314717840248341 0.69314717840248341 0.69314717840248341 0.69314717840248341 0.69314717840248341 0.69314717840248341 0.69314717840248341 0.69314717840248341 0.69314717840248341 0.69314717840248341 0.69314717840248341 0.69314717840248341 0.69314717840248341 0.69314717840248341 0.69314717840248341 0.69314717840248341 0.69314717840248341 0.69314717840248341 0.69314717840248341 0.69314717840248341 0.69314717840248341 0.69314717840248341 0.69314717840248341 0.69314717840248341 0.69314717840248341 0.69314717840248341 0.69314717840248341 0.69314717840248341 0.69314717840248341 0.69314717840248341 0.69314717840248341 0.69314717840248341 0.69314717840248341 0.69314717840248341 0.69314717840248341 0.69314717840248341 0.69314717840248341 0.69314717840248341 0.69314717840248341 0.69314717840248341 0.69314717840248341 0.69314717840248341 0.69314717840248341 0.69314717840248341 0.69314717840248341 0.69314717840248341 0.69314717840248341 0.69314717840248341 0.69314717840248341 0.69314717840248341 0.69314717840248341 0.69314717840248341 0.69314717840248341 0.69314717840248341 0.69314717840248341 0.69314717840248341 0.69314717840248341 0.69314717840248341 0.69314717840248341 0.69314717840248341 0.69314717840248341 0.69314717840248341 0.69314717840248341 0.69314717840248341 0.69314717840248341 0.69314717840248341 0.69314717840248341 0.69314717840248341 0.69314717840248341 0.69314717840248341 0.69314717840248341 0.69314717840248341 0.69314717840248341 0.69314717840248341 0.69314717840248341 0.69314717840248341 0.69314717840248341 0.69314717840248341 0.69314717840248341 0.69314717840248341 0.69314717840248341 0.69314717840248341 0.69314717840248341 0.69314717840248341 0.69314717840248341 0.69314717840248341 0.69314717840248341 0.69314717840248341 0.69314717840248341 0.69314717840248341 0.69314717840248341 0.69314717840248341 0.69314717840248341 0.69314717840248341 0.69314717840248341 0.69314717840248341 0.69314717840248341 0.69314717840248341 0.69314717840248341 0.69314717840248341 0.69314717840248341 0.69314717840248341 0.69314717840248341 0.69314717840248341 0.69314717840248341 0.69314717840248341 0.69314717840248341 0.69314717840248341 0.69314717840248341 0.69314717840248341 0.69314717840248341 0.69314717840248341 0.69314717840248341 0.69314717840248341 0.69314717840248341 0.69314717840248341 0.69314717840248341 0.69314717840248341 0.69314717840248341 0.69314717840248341 0.69314717840248341 0.69314717840248341 0.69314717840248341 0.69314717840248341 0.69314717840248341 0.69314717840248341 0.69314717840248341 0.69314717840248341 0.69314717840248341 0.69314717840248341 0.69314717840248341 0.69314717840248341 0.69314717840248341 0.69314717840248341 0.69314717840248341 0.69314717840248341 0.69314717840248341 0.69314717840248341 0.69314717840248341 0.69314717840248341 0.69314717840248341 0.69314717840248341 0.69314717840248341 0.69314717840248341 0.69314717840248341 0.69314717840248341 0.69314717840248341 0.69314717840248341 0.69314717840248341 0.69314717840248341 0.69314717840248341 0.69314717840248341 0.69314717840248341 0.69314717840248341 0.69314717840248341 0.69314717840248341 0.69314717840248341 0.69314717840248341 0.69314717840248341 0.69314717840248341 0.69314717840248341 0.69314717840248341 0.69314717840248341 0.69314717840248341 0.69314717840248341 0.69314717840248341 0.69314717840248341 0.69314717840248341 0.69314717840248341 0.69314717840248341 0.69314717840248341 0.69314717840248341 0.69314717840248341 0.69314717840248341 0.69314717840248341 0.69314717840248341 0.69314717840248341 0.69314717840248341 0.69314717840248341 0.69314717840248341 0.69314717840248341 0.69314717840248341 0.69314717840248341 0.69314717840248341 0.69314717840248341 0.69314717840248341 0.69314717840248341 0.69314717840248341 0.69314717840248341 0.69314717840248341 0.69314717840248341 0.69314717840248341 0.69314717840248341 0.69314717840248341 0.69314717840248341 0.69314717840248341 0.69314717840248341 0.69314717840248341 0.69314717840248341 0.69314717840248341 0.69314717840248341 0.69314717840248341 0.69314717840248341 0.69314717840248341 0.69314717840248341 0.69314717840248341 0.69314717840248341 0.69314717840248341 0.69314717840248341 0.69314717840248341 0.69314717840248341 0.69314717840248341 0.69314717840248341 0.69314717840248341 0.69314717840248341 0.69314717840248341 0.69314717840248341 0.69314717840248341 0.69314717840248341 0.69314717840248341 0.69314717840248341 0.69314717840248341 0.69314717840248341 0.69314717840248341 0.69314717840248341 0.69314717840248341 0.69314717840248341 0.69314717840248341 0.69314717840248341 0.69314717840248341 0.69314717840248341 0.69314717840248341 0.69314717840248341 0.69314717840248341 0.69314717840248341 0.69314717840248341 0.69314717840248341 0.69314717840248341 0.69314717840248341 0.69314717840248341 0.69314717840248341 0.69314717840248341 0.69314717840248341 0.69314717840248341 0.69314717840248341 0.69314717840248341 0.69314717840248341 0.69314717840248341 0.69314717840248341 0.69314717840248341 0.69314717840248341 0.69314717840248341 0.69314717840248341 0.69314717840248341 0.69314717840248341 0.69314717840248341 0.69314717840248341 0.69314717840248341 0.69314717840248341 0.69314717840248341 0.69314717840248341 0.69314717840248341 0.69314717840248341 0.69314717840248341 0.69314717840248341 0.69314717840248341 0.69314717840248341 0.69314717840248341 0.69314717840248341 0.69314717840248341 0.69314717840248341 0.69314717840248341 0.69314717840248341 0.69314717840248341 0.69314717840248341 0.69314717840248341 0.69314717840248341 0.69314717840248341 0.69314717840248341 0.69314717840248341 0.69314717840248341 0.69314717840248341 0.69314717840248341 0.69314717840248341 0.69314717840248341 0.69314717840248341 0.69314717840248341 0.69314717840248341 0.69314717840248341 0.69314717840248341 0.69314717840248341 0.69314717840248341 0.69314717840248341 0.69314717840248341 0.69314717840248341 0.69314717840248341 0.69314717840248341 0.69314717840248341 0.69314717840248341 0.69314717840248341 0.69314717840248341 0.69314717840248341 0.69314717840248341 0.69314717840248341 0.69314717840248341 0.69314717840248341 0.69314717840248341 0.69314717840248341 0.69314717840248341 0.69314717840248341 0.69314717840248341 0.69314717840248341 0.69314717840248341 0.69314717840248341 0.69314717840248341 0.69314717840248341 0.69314717840248341 0.69314717840248341 0.69314717840248341 0.69314717840248341 0.69314717840248341 0.69314717840248341 0.69314717840248341 0.69314717840248341 0.69314717840248341 0.69314717840248341 0.69314717840248341 0.69314717840248341 0.69314717840248341 0.69314717840248341 0.69314717840248341 0.69314717840248341 0.69314717840248341 0.69314717840248341 0.69314717840248341 0.69314717840248341 0.69314717840248341 0.69314717840248341 0.69314717840248341 0.69314717840248341 0.69314717840248341 0.69314717840248341 0.69314717840248341 0.69314717840248341 0.69314717840248341 0.69314717840248341 0.69314717840248341 0.69314717840248341 0.69314717840248341 0.69314717840248341 0.69314717840248341 0.69314717840248341 0.69314717840248341 0.69314717840248341 0.69314717840248341 0.69314717840248341 0.69314717840248341 0.69314717840248341 0.69314717840248341 0.69314717840248341 0.69314717840248341 0.69314717840248341 0.69314717840248341 0.69314717840248341 0.69314717840248341 0.69314717840248341 0.69314717840248341 0.69314717840248341 0.69314717840248341 0.69314717840248341 0.69314717840248341 0.69314717840248341 0.69314717840248341 0.69314717840248341 0.69314717840248341 0.69314717840248341 0.69314717840248341 0.69314717840248341 0.69314717840248341 0.69314717840248341 0.69314717840248341 0.69314717840248341 0.69314717840248341 0.69314717840248341 0.69314717840248341 0.69314717840248341 0.69314717840248341 0.69314717840248341 0.69314717840248341 0.69314717840248341 0.69314717840248341 0.69314717840248341 0.69314717840248341 0.69314717840248341 0.69314717840248341 0.69314717840248341 0.69314717840248341 0.69314717840248341 0.69314717840248341 0.69314717840248341 0.69314717840248341 0.69314717840248341 0.69314717840248341 0.69314717840248341 0.69314717840248341 0.69314717840248341 0.69314717840248341 0.69314717840248341 0.69314717840248341 0.69314717840248341 0.69314717840248341 0.69314717840248341 0.69314717840248341 0.69314717840248341 0.69314717840248341 0.69314717840248341 0.69314717840248341 0.69314717840248341 0.69314717840248341 0.69314717840248341 0.69314717840248341 0.69314717840248341 0.69314717840248341 0.69314717840248341 0.69314717840248341 0.69314717840248341 0.69314717840248341 0.69314717840248341 0.69314717840248341 0.69314717840248341 0.69314717840248341 0.69314717840248341 0.69314717840248341 0.69314717840248341 0.69314717840248341 0.69314717840248341 0.69314717840248341 0.69314717840248341 0.69314717840248341 0.69314717840248341 0.69314717840248341 0.69314717840248341 0.69314717840248341 0.69314717840248341 0.69314717840248341 0.69314717840248341 0.69314717840248341 0.69314717840248341 0.69314717840248341 0.69314717840248341 0.69314717840248341 0.69314717840248341 0.69314717840248341 0.69314717840248341 0.69314717840248341 0.69314717840248341 0.69314717840248341 0.69314717840248341 0.69314717840248341 0.69314717840248341 0.69314717840248341 0.69314717840248341 0.69314717840248341 0.69314717840248341 0.69314717840248341 0.69314717840248341 0.69314717840248341 0.69314717840248341 0.69314717840248341 0.69314717840248341 0.69314717840248341 0.69314717840248341 0.69314717840248341 0.69314717840248341 0.69314717840248341 0.69314717840248341 0.69314717840248341 0.69314717840248341 0.69314717840248341 0.69314717840248341 0.69314717840248341 0.69314717840248341 0.69314717840248341 0.69314717840248341 0.69314717840248341 0.69314717840248341 0.69314717840248341 0.69314717840248341 0.69314717840248341 0.69314717840248341 0.69314717840248341 0.69314717840248341 0.69314717840248341 0.69314717840248341 0.69314717840248341 0.69314717840248341 0.69314717840248341 0.69314717840248341 0.69314717840248341 0.69314717840248341 0.69314717840248341 0.69314717840248341 0.69314717840248341 0.69314717840248341 0.69314717840248341 0.69314717840248341 0.69314717840248341 0.69314717840248341 0.69314717840248341 0.69314717840248341 0.69314717840248341 0.69314717840248341 0.69314717840248341 0.69314717840248341 0.69314717840248341 0.69314717840248341 0.69314717840248341 0.69314717840248341 0.69314717840248341 0.69314717840248341 0.69314717840248341 0.69314717840248341 0.69314717840248341 0.69314717840248341 0.69314717840248341 0.69314717840248341 0.69314717840248341 0.69314717840248341 0.69314717840248341 0.69314717840248341 0.69314717840248341 0.69314717840248341 0.69314717840248341 0.69314717840248341 0.69314717840248341 0.69314717840248341 0.69314717840248341 0.69314717840248341 0.69314717840248341 0.69314717840248341 0.69314717840248341 0.69314717840248341 0.69314717840248341 0.69314717840248341 0.69314717840248341 0.69314717840248341 0.69314717840248341 0.69314717840248341 0.69314717840248341 0.69314717840248341 0.69314717840248341 0.69314717840248341 0.69314717840248341 0.69314717840248341 0.69314717840248341 0.69314717840248341 0.69314717840248341 0.69314717840248341 0.69314717840248341 0.69314717840248341 0.69314717840248341 0.69314717840248341 0.69314717840248341 0.69314717840248341 0.69314717840248341 0.69314717840248341 0.69314717840248341 0.69314717840248341 0.69314717840248341 0.69314717840248341 0.69314717840248341 0.69314717840248341 0.69314717840248341 0.69314717840248341 0.69314717840248341 0.69314717840248341 0.69314717840248341 0.69314717840248341 0.69314717840248341 0.69314717840248341 0.69314717840248341 0.69314717840248341 0.69314717840248341 0.69314717840248341 0.69314717840248341 0.69314717840248341 0.69314717840248341 0.69314717840248341 0.69314717840248341 0.69314717840248341 0.69314717840248341 0.69314717840248341 0.69314717840248341 0.69314717840248341 0.69314717840248341 0.69314717840248341 0.69314717840248341 0.69314717840248341 0.69314717840248341 0.69314717840248341 0.69314717840248341 0.69314717840248341 0.69314717840248341 0.69314717840248341 0.69314717840248341 0.69314717840248341 0.69314717840248341 0.69314717840248341 0.69314717840248341 0.69314717840248341 0.69314717840248341 0.69314717840248341 0.69314717840248341 0.69314717840248341 0.69314717840248341 0.69314717840248341 0.69314717840248341 0.69314717840248341 0.69314717840248341 0.69314717840248341 0.69314717840248341 0.69314717840248341 0.69314717840248341 0.69314717840248341 0.69314717840248341 0.69314717840248341 0.69314717840248341 0.69314717840248341 0.69314717840248341 0.69314717840248341 0.69314717840248341 0.69314717840248341 0.69314717840248341 0.69314717840248341 0.69314717840248341 0.69314717840248341 0.69314717840248341 0.69314717840248341 0.69314717840248341 0.69314717840248341 0.69314717840248341 0.69314717840248341 0.69314717840248341 0.69314717840248341 0.69314717840248341 0.69314717840248341 0.69314717840248341 0.69314717840248341 0.69314717840248341 0.69314717840248341 0.69314717840248341 0.69314717840248341 0.69314717840248341 0.69314717840248341 0.69314717840248341 0.69314717840248341 0.69314717840248341 0.69314717840248341 0.69314717840248341 0.69314717840248341 0.69314717840248341 0.69314717840248341 0.69314717840248341 0.69314717840248341 0.69314717840248341 0.69314717840248341 0.69314717840248341 0.69314717840248341 0.69314717840248341 0.69314717840248341 0.69314717840248341 0.69314717840248341 0.69314717840248341 0.69314717840248341 0.69314717840248341 0.69314717840248341 0.69314717840248341 0.69314717840248341 0.69314717840248341 0.69314717840248341 0.69314717840248341 0.69314717840248341 0.69314717840248341 0.69314717840248341 0.69314717840248341 0.69314717840248341 0.69314717840248341 0.69314717840248341 0.69314717840248341 0.69314717840248341 0.69314717840248341 0.69314717840248341 0.69314717840248341 0.69314717840248341 0.69314717840248341 0.69314717840248341 0.69314717840248341 0.69314717840248341 0.69314717840248341 0.69314717840248341 0.69314717840248341 0.69314717840248341 0.69314717840248341 0.69314717840248341 0.69314717840248341 0.69314717840248341 0.69314717840248341 0.69314717840248341 0.69314717840248341 0.69314717840248341 0.69314717840248341 0.69314717840248341 0.69314717840248341 0.69314717840248341 0.69314717840248341 0.69314717840248341 0.69314717840248341 0.69314717840248341 0.69314717840248341 0.69314717840248341 0.69314717840248341 0.69314717840248341 0.69314717840248341 0.69314717840248341 0.69314717840248341 0.69314717840248341 0.69314717840248341 0.69314717840248341 0.69314717840248341 0.69314717840248341 0.69314717840248341 0.69314717840248341 0.69314717840248341 0.69314717840248341 0.69314717840248341 0.69314717840248341 0.69314717840248341 0.69314717840248341 0.69314717840248341 0.69314717840248341 0.69314717840248341 0.69314717840248341 0.69314717840248341 0.69314717840248341 0.69314717840248341 0.69314717840248341 0.69314717840248341 0.69314717840248341 0.69314717840248341 0.69314717840248341 0.69314717840248341 0.69314717840248341 0.69314717840248341 0.69314717840248341 0.69314717840248341 0.69314717840248341 0.69314717840248341 0.69314717840248341 0.69314717840248341 0.69314717840248341 0.69314717840248341 0.69314717840248341 0.69314717840248341 0.69314717840248341 0.69314717840248341 0.69314717840248341 0.69314717840248341 0.69314717840248341 0.69314717840248341 0.69314717840248341 0.69314717840248341 0.69314717840248341 0.69314717840248341 0.69314717840248341 0.69314717840248341 0.69314717840248341 0.69314717840248341 0.69314717840248341 0.69314717840248341 0.69314717840248341 0.69314717840248341 0.69314717840248341 0.69314717840248341 0.69314717840248341 0.69314717840248341 0.69314717840248341 0.69314717840248341 0.69314717840248341 0.69314717840248341 0.69314717840248341 0.69314717840248341 0.69314717840248341 0.69314717840248341 0.69314717840248341 0.69314717840248341 0.69314717840248341 0.69314717840248341 0.69314717840248341 0.69314717840248341 0.69314717840248341 0.69314717840248341 0.69314717840248341 0.69314717840248341 0.69314717840248341 0.69314717840248341 0.69314717840248341 0.69314717840248341 0.69314717840248341 0.69314717840248341 0.69314717840248341 0.69314717840248341 0.69314717840248341 0.69314717840248341 0.69314717840248341 0.69314717840248341 0.69314717840248341 0.69314717840248341 0.69314717840248341 0.69314717840248341 0.69314717840248341 0.69314717840248341 0.69314717840248341 0.69314717840248341 0.69314717840248341 0.69314717840248341 0.69314717840248341 0.69314717840248341 0.69314717840248341 0.69314717840248341 0.69314717840248341 0.69314717840248341 0.69314717840248341 0.69314717840248341 0.69314717840248341 0.69314717840248341 0.69314717840248341 0.69314717840248341 0.69314717840248341 0.69314717840248341 0.69314717840248341 0.69314717840248341 0.69314717840248341 0.69314717840248341 0.69314717840248341 0.69314717840248341 0.69314717840248341 0.69314717840248341 0.69314717840248341 0.69314717840248341 0.69314717840248341 0.69314717840248341 0.69314717840248341 0.69314717840248341 0.69314717840248341 0.69314717840248341 0.69314717840248341 0.69314717840248341 0.69314717840248341 0.69314717840248341 0.69314717840248341 0.69314717840248341 0.69314717840248341 0.69314717840248341 0.69314717840248341 0.69314717840248341 0.69314717840248341 0.69314717840248341 0.69314717840248341 0.69314717840248341 0.69314717840248341 0.69314717840248341 0.69314717840248341 0.69314717840248341 0.69314717840248341 0.69314717840248341 0.69314717840248341 0.69314717840248341 0.69314717840248341 0.69314717840248341 0.69314717840248341 0.69314717840248341 0.69314717840248341 0.69314717840248341 0.69314717840248341 0.69314717840248341 0.69314717840248341 0.69314717840248341 0.69314717840248341 0.69314717840248341 0.69314717840248341 0.69314717840248341 0.69314717840248341 0.69314717840248341 0.69314717840248341 0.69314717840248341 0.69314717840248341 0.69314717840248341 0.69314717840248341 0.69314717840248341 0.69314717840248341 0.69314717840248341 0.69314717840248341 0.69314717840248341 0.69314717840248341 0.69314717840248341 0.69314717840248341 0.69314717840248341 0.69314717840248341 0.69314717840248341 0.69314717840248341 0.69314717840248341 0.69314717840248341 0.69314717840248341 0.69314717840248341 0.69314717840248341 0.69314717840248341 0.69314717840248341 0.69314717840248341 0.69314717840248341 0.69314717840248341 0.69314717840248341 0.69314717840248341 0.69314717840248341 0.69314717840248341 0.69314717840248341 0.69314717840248341 0.69314717840248341 0.69314717840248341 0.69314717840248341 0.69314717840248341 0.69314717840248341 0.69314717840248341 0.69314717840248341 0.69314717840248341 0.69314717840248341 0.69314717840248341 0.69314717840248341 0.69314717840248341 0.69314717840248341 0.69314717840248341 0.69314717840248341 0.69314717840248341 0.69314717840248341 0.69314717840248341 0.69314717840248341 0.69314717840248341 0.69314717840248341 0.69314717840248341 0.69314717840248341 0.69314717840248341 0.69314717840248341 0.69314717840248341 0.69314717840248341 0.69314717840248341 0.69314717840248341 0.69314717840248341 0.69314717840248341 0.69314717840248341 0.69314717840248341 0.69314717840248341 0.69314717840248341 0.69314717840248341 0.69314717840248341 0.69314717840248341 0.69314717840248341 0.69314717840248341 0.69314717840248341 0.69314717840248341 0.69314717840248341 0.69314717840248341 0.69314717840248341 0.69314717840248341 0.69314717840248341 0.69314717840248341 0.69314717840248341 0.69314717840248341 0.69314717840248341 0.69314717840248341 0.69314717840248341 0.69314717840248341 0.69314717840248341 0.69314717840248341 0.69314717840248341 0.69314717840248341 0.69314717840248341 0.69314717840248341 0.69314717840248341 0.69314717840248341 0.69314717840248341 0.69314717840248341 0.69314717840248341 0.69314717840248341 0.69314717840248341 0.69314717840248341 0.69314717840248341 0.69314717840248341 0.69314717840248341 0.69314717840248341 0.69314717840248341 0.69314717840248341 0.69314717840248341 0.69314717840248341 0.69314717840248341 0.69314717840248341 0.69314717840248341 0.69314717840248341 0.69314717840248341 0.69314717840248341 0.69314717840248341 0.69314717840248341 0.69314717840248341 0.69314717840248341 0.69314717840248341 0.69314717840248341 0.69314717840248341 0.69314717840248341 0.69314717840248341 0.69314717840248341 0.69314717840248341 0.69314717840248341 0.69314717840248341 0.69314717840248341 0.69314717840248341 0.69314717840248341 0.69314717840248341 0.69314717840248341 0.69314717840248341 0.69314717840248341 0.69314717840248341 0.69314717840248341 0.69314717840248341 0.69314717840248341 0.69314717840248341 0.69314717840248341 0.69314717840248341 0.69314717840248341 0.69314717840248341 0.69314717840248341 0.69314717840248341 0.69314717840248341 0.69314717840248341 0.69314717840248341 0.69314717840248341 0.69314717840248341 0.69314717840248341 0.69314717840248341 0.69314717840248341 0.69314717840248341 0.69314717840248341 0.69314717840248341 0.69314717840248341 0.69314717840248341 0.69314717840248341 0.69314717840248341 0.69314717840248341 0.69314717840248341 0.69314717840248341 0.69314717840248341 0.69314717840248341 0.69314717840248341 0.69314717840248341 0.69314717840248341 0.69314717840248341 0.69314717840248341 0.69314717840248341 0.69314717840248341 0.69314717840248341 0.69314717840248341 0.69314717840248341 0.69314717840248341 0.69314717840248341 0.69314717840248341 0.69314717840248341 0.69314717840248341 0.69314717840248341 0.69314717840248341 0.69314717840248341 0.69314717840248341 0.69314717840248341 0.69314717840248341 0.69314717840248341 0.69314717840248341 0.69314717840248341 0.69314717840248341 0.69314717840248341 0.69314717840248341 0.69314717840248341 0.69314717840248341 0.69314717840248341 0.69314717840248341 0.69314717840248341 0.69314717840248341 0.69314717840248341 0.69314717840248341 0.69314717840248341 0.69314717840248341 0.69314717840248341 0.69314717840248341 0.69314717840248341 0.69314717840248341 0.69314717840248341 0.69314717840248341 0.69314717840248341 0.69314717840248341 0.69314717840248341 0.69314717840248341 0.69314717840248341 0.69314717840248341 0.69314717840248341 0.69314717840248341 0.69314717840248341 0.69314717840248341 0.69314717840248341 0.69314717840248341 0.69314717840248341 0.69314717840248341 0.69314717840248341 0.69314717840248341 0.69314717840248341 0.69314717840248341 0.69314717840248341 0.69314717840248341 0.69314717840248341 0.69314717840248341 0.69314717840248341 0.69314717840248341 0.69314717840248341 0.69314717840248341 0.69314717840248341 0.69314717840248341 0.69314717840248341 0.69314717840248341 0.69314717840248341 0.69314717840248341 0.69314717840248341 0.69314717840248341 0.69314717840248341 0.69314717840248341 0.69314717840248341 0.69314717840248341 0.69314717840248341 0.69314717840248341 0.69314717840248341 0.69314717840248341 0.69314717840248341 0.69314717840248341 0.69314717840248341 0.69314717840248341 0.69314717840248341 0.69314717840248341 0.69314717840248341 0.69314717840248341 0.69314717840248341 0.69314717840248341 0.69314717840248341 0.69314717840248341 0.69314717840248341 0.69314717840248341 0.69314717840248341 0.69314717840248341 0.69314717840248341 0.69314717840248341 0.69314717840248341 0.69314717840248341 0.69314717840248341 0.69314717840248341 0.69314717840248341 0.69314717840248341 0.69314717840248341 0.69314717840248341 0.69314717840248341 0.69314717840248341 0.69314717840248341 0.69314717840248341 0.69314717840248341 0.69314717840248341 0.69314717840248341 0.69314717840248341 0.69314717840248341 0.69314717840248341 0.69314717840248341 0.69314717840248341 0.69314717840248341 0.69314717840248341 0.69314717840248341 0.69314717840248341 0.69314717840248341 0.69314717840248341 0.69314717840248341 0.69314717840248341 0.69314717840248341 0.69314717840248341 0.69314717840248341 0.69314717840248341 0.69314717840248341 0.69314717840248341 0.69314717840248341 0.69314717840248341 0.69314717840248341 0.69314717840248341 0.69314717840248341 0.69314717840248341 0.69314717840248341 0.69314717840248341 0.69314717840248341 0.69314717840248341 0.69314717840248341 0.69314717840248341 0.69314717840248341 0.69314717840248341 0.69314717840248341 0.69314717840248341 0.69314717840248341 0.69314717840248341 0.69314717840248341 0.69314717840248341 0.69314717840248341 0.69314717840248341 0.69314717840248341 0.69314717840248341 0.69314717840248341 0.69314717840248341 0.69314717840248341 0.69314717840248341 0.69314717840248341 0.69314717840248341 0.69314717840248341 0.69314717840248341 0.69314717840248341 0.69314717840248341 0.69314717840248341 0.69314717840248341 0.69314717840248341 0.69314717840248341 0.69314717840248341 0.69314717840248341 0.69314717840248341 0.69314717840248341 0.69314717840248341 0.69314717840248341 0.69314717840248341 0.69314717840248341 0.69314717840248341 0.69314717840248341 0.69314717840248341 0.69314717840248341 0.69314717840248341 0.69314717840248341 0.69314717840248341 0.69314717840248341 0.69314717840248341 0.69314717840248341 0.69314717840248341 0.69314717840248341 0.69314717840248341 0.69314717840248341 0.69314717840248341 0.69314717840248341 0.69314717840248341 0.69314717840248341 0.69314717840248341 0.69314717840248341 0.69314717840248341 0.69314717840248341 0.69314717840248341 0.69314717840248341 0.69314717840248341 0.69314717840248341 0.69314717840248341 0.69314717840248341 0.69314717840248341 0.69314717840248341 0.69314717840248341 0.69314717840248341 0.69314717840248341 0.69314717840248341 0.69314717840248341 0.69314717840248341 0.69314717840248341 0.69314717840248341 0.69314717840248341 0.69314717840248341 0.69314717840248341 0.69314717840248341 0.69314717840248341 0.69314717840248341 0.69314717840248341 0.69314717840248341 0.69314717840248341 0.69314717840248341 0.69314717840248341 0.69314717840248341 0.69314717840248341 0.69314717840248341 0.69314717840248341 0.69314717840248341 0.69314717840248341 0.69314717840248341 0.69314717840248341 0.69314717840248341 0.69314717840248341 0.69314717840248341 0.69314717840248341 0.69314717840248341 0.69314717840248341 0.69314717840248341 0.69314717840248341 0.69314717840248341 0.69314717840248341 0.69314717840248341 0.69314717840248341 0.69314717840248341 0.69314717840248341 0.69314717840248341 0.69314717840248341 0.69314717840248341 0.69314717840248341 0.69314717840248341 0.69314717840248341 0.69314717840248341 0.69314717840248341 0.69314717840248341 0.69314717840248341 0.69314717840248341 0.69314717840248341 0.69314717840248341 0.69314717840248341 0.69314717840248341 0.69314717840248341 0.69314717840248341 0.69314717840248341 0.69314717840248341 0.69314717840248341 0.69314717840248341 0.69314717840248341 0.69314717840248341 0.69314717840248341 0.69314717840248341 0.69314717840248341 0.69314717840248341 0.69314717840248341 0.69314717840248341 0.69314717840248341 0.69314717840248341 0.69314717840248341 0.69314717840248341 0.69314717840248341 0.69314717840248341 0.69314717840248341 0.69314717840248341 0.69314717840248341 0.69314717840248341 0.69314717840248341 0.69314717840248341 0.69314717840248341 0.69314717840248341 0.69314717840248341 0.69314717840248341 0.69314717840248341 0.69314717840248341 0.69314717840248341 0.69314717840248341 0.69314717840248341 0.69314717840248341 0.69314717840248341 0.69314717840248341 0.69314717840248341 0.69314717840248341 0.69314717840248341 0.69314717840248341 0.69314717840248341 0.69314717840248341 0.69314717840248341 0.69314717840248341 0.69314717840248341 0.69314717840248341 0.69314717840248341 0.69314717840248341 0.69314717840248341 0.69314717840248341 0.69314717840248341 0.69314717840248341 0.69314717840248341 0.69314717840248341 0.69314717840248341 0.69314717840248341 0.69314717840248341 0.69314717840248341 0.69314717840248341 0.69314717840248341 0.69314717840248341 0.69314717840248341 0.69314717840248341 0.69314717840248341 0.69314717840248341 0.69314717840248341 0.69314717840248341 0.69314717840248341 0.69314717840248341 0.69314717840248341 0.69314717840248341 0.69314717840248341 0.69314717840248341 0.69314717840248341 0.69314717840248341 0.69314717840248341 0.69314717840248341 0.69314717840248341 0.69314717840248341 0.69314717840248341 0.69314717840248341 0.69314717840248341 0.69314717840248341 0.69314717840248341 0.69314717840248341 0.69314717840248341 0.69314717840248341 0.69314717840248341 0.69314717840248341 0.69314717840248341 0.69314717840248341 0.69314717840248341 0.69314717840248341 0.69314717840248341 0.69314717840248341 0.69314717840248341 0.69314717840248341 0.69314717840248341 0.69314717840248341 0.69314717840248341 0.69314717840248341 0.69314717840248341 0.69314717840248341 0.69314717840248341 0.69314717840248341 0.69314717840248341 0.69314717840248341 0.69314717840248341 0.69314717840248341 0.69314717840248341 0.69314717840248341 0.69314717840248341 0.69314717840248341 0.69314717840248341 0.69314717840248341 0.69314717840248341 0.69314717840248341 0.69314717840248341 0.69314717840248341 0.69314717840248341 0.69314717840248341 0.69314717840248341 0.69314717840248341 0.69314717840248341 0.69314717840248341 0.69314717840248341 0.69314717840248341 0.69314717840248341 0.69314717840248341 0.69314717840248341 0.69314717840248341 0.69314717840248341 0.69314717840248341 0.69314717840248341 0.69314717840248341 0.69314717840248341 0.69314717840248341 0.69314717840248341 0.69314717840248341 0.69314717840248341 0.69314717840248341 0.69314717840248341 0.69314717840248341 0.69314717840248341 0.69314717840248341 0.69314717840248341 0.69314717840248341 0.69314717840248341 0.69314717840248341 0.69314717840248341 0.69314717840248341 0.69314717840248341 0.69314717840248341 0.69314717840248341 0.69314717840248341 0.69314717840248341 0.69314717840248341 0.69314717840248341 0.69314717840248341 0.69314717840248341 0.69314717840248341 0.69314717840248341 0.69314717840248341 0.69314717840248341 0.69314717840248341 0.69314717840248341 0.69314717840248341 0.69314717840248341 0.69314717840248341 0.69314717840248341 0.69314717840248341 0.69314717840248341 0.69314717840248341 0.69314717840248341 0.69314717840248341 0.69314717840248341 0.69314717840248341 0.69314717840248341 0.69314717840248341 0.69314717840248341 0.69314717840248341 0.69314717840248341 0.69314717840248341 0.69314717840248341 0.69314717840248341 0.69314717840248341 0.69314717840248341 0.69314717840248341 0.69314717840248341 0.69314717840248341 0.69314717840248341 0.69314717840248341 0.69314717840248341 0.69314717840248341 0.69314717840248341 0.69314717840248341 0.69314717840248341 0.69314717840248341 0.69314717840248341 0.69314717840248341 0.69314717840248341 0.69314717840248341 0.69314717840248341 0.69314717840248341 0.69314717840248341 0.69314717840248341 0.69314717840248341 0.69314717840248341 0.69314717840248341 0.69314717840248341 0.69314717840248341 0.69314717840248341 0.69314717840248341 0.69314717840248341 0.69314717840248341 0.69314717840248341 0.69314717840248341 0.69314717840248341 0.69314717840248341 0.69314717840248341 0.69314717840248341 0.69314717840248341 0.69314717840248341 0.69314717840248341 0.69314717840248341 0.69314717840248341 0.69314717840248341 0.69314717840248341 0.69314717840248341 0.69314717840248341 0.69314717840248341 0.69314717840248341 0.69314717840248341 0.69314717840248341 0.69314717840248341 0.69314717840248341 0.69314717840248341 0.69314717840248341 0.69314717840248341 0.69314717840248341 0.69314717840248341 0.69314717840248341 0.69314717840248341 0.69314717840248341 0.69314717840248341 0.69314717840248341 0.69314717840248341 0.69314717840248341 0.69314717840248341 0.69314717840248341 0.69314717840248341 0.69314717840248341 0.69314717840248341 0.69314717840248341 0.69314717840248341 0.69314717840248341 0.69314717840248341 0.69314717840248341 0.69314717840248341 0.69314717840248341 0.69314717840248341 0.69314717840248341 0.69314717840248341 0.69314717840248341 0.69314717840248341 0.69314717840248341 0.69314717840248341 0.69314717840248341 0.69314717840248341 0.69314717840248341 0.69314717840248341 0.69314717840248341 0.69314717840248341 0.69314717840248341 0.69314717840248341 0.69314717840248341 0.69314717840248341 0.69314717840248341 0.69314717840248341 0.69314717840248341 0.69314717840248341 0.69314717840248341 0.69314717840248341 0.69314717840248341 0.69314717840248341 0.69314717840248341 0.69314717840248341 0.69314717840248341 0.69314717840248341 0.69314717840248341 0.69314717840248341 0.69314717840248341 0.69314717840248341 0.69314717840248341 0.69314717840248341 0.69314717840248341 0.69314717840248341 0.69314717840248341 0.69314717840248341 0.69314717840248341 0.69314717840248341 0.69314717840248341 0.69314717840248341 0.69314717840248341 0.69314717840248341 0.69314717840248341 0.69314717840248341 0.69314717840248341 0.69314717840248341 0.69314717840248341 0.69314717840248341 0.69314717840248341 0.69314717840248341 0.69314717840248341 0.69314717840248341 0.69314717840248341 0.69314717840248341 0.69314717840248341 0.69314717840248341 0.69314717840248341 0.69314717840248341 0.69314717840248341 0.69314717840248341 0.69314717840248341 0.69314717840248341 0.69314717840248341 0.69314717840248341 0.69314717840248341 0.69314717840248341 0.69314717840248341 0.69314717840248341 0.69314717840248341 0.69314717840248341 0.69314717840248341 0.69314717840248341 0.69314717840248341 0.69314717840248341 0.69314717840248341 0.69314717840248341 0.69314717840248341 0.69314717840248341 0.69314717840248341 0.69314717840248341 0.69314717840248341 0.69314717840248341 0.69314717840248341 0.69314717840248341 0.69314717840248341 0.69314717840248341 0.69314717840248341 0.69314717840248341 0.69314717840248341 0.69314717840248341 0.69314717840248341 0.69314717840248341 0.69314717840248341 0.69314717840248341 0.69314717840248341 0.69314717840248341 0.69314717840248341 0.69314717840248341 0.69314717840248341 0.69314717840248341 0.69314717840248341 0.69314717840248341 0.69314717840248341 0.69314717840248341 0.69314717840248341 0.69314717840248341 0.69314717840248341 0.69314717840248341 0.69314717840248341 0.69314717840248341 0.69314717840248341 0.69314717840248341 0.69314717840248341 0.69314717840248341 0.69314717840248341 0.69314717840248341 0.69314717840248341 0.69314717840248341 0.69314717840248341 0.69314717840248341 0.69314717840248341 0.69314717840248341 0.69314717840248341 0.69314717840248341 0.69314717840248341 0.69314717840248341 0.69314717840248341 0.69314717840248341 0.69314717840248341 0.69314717840248341 0.69314717840248341 0.69314717840248341 0.69314717840248341 0.69314717840248341 0.69314717840248341 0.69314717840248341 0.69314717840248341 0.69314717840248341 0.69314717840248341 0.69314717840248341 0.69314717840248341 0.69314717840248341 0.69314717840248341 0.69314717840248341 0.69314717840248341 0.69314717840248341 0.69314717840248341 0.69314717840248341 0.69314717840248341 0.69314717840248341 0.69314717840248341 0.69314717840248341 0.69314717840248341 0.69314717840248341 0.69314717840248341 0.69314717840248341 0.69314717840248341 0.69314717840248341 0.69314717840248341 0.69314717840248341 0.69314717840248341 0.69314717840248341 0.69314717840248341 0.69314717840248341 0.69314717840248341 0.69314717840248341 0.69314717840248341 0.69314717840248341 0.69314717840248341 0.69314717840248341 0.69314717840248341 0.69314717840248341 0.69314717840248341 0.69314717840248341 0.69314717840248341 0.69314717840248341 0.69314717840248341 0.69314717840248341 0.69314717840248341 0.69314717840248341 0.69314717840248341 0.69314717840248341 0.69314717840248341 0.69314717840248341 0.69314717840248341 0.69314717840248341 0.69314717840248341 0.69314717840248341 0.69314717840248341 0.69314717840248341 0.69314717840248341 0.69314717840248341 0.69314717840248341 0.69314717840248341 0.69314717840248341 0.69314717840248341 0.69314717840248341 0.69314717840248341 0.69314717840248341 0.69314717840248341 0.69314717840248341 0.69314717840248341 0.69314717840248341 0.69314717840248341 0.69314717840248341 0.69314717840248341 0.69314717840248341 0.69314717840248341 0.69314717840248341 0.69314717840248341 0.69314717840248341 0.69314717840248341 0.69314717840248341 0.69314717840248341 0.69314717840248341 0.69314717840248341 0.69314717840248341 0.69314717840248341 0.69314717840248341 0.69314717840248341 0.69314717840248341 0.69314717840248341 0.69314717840248341 0.69314717840248341 0.69314717840248341 0.69314717840248341 0.69314717840248341 0.69314717840248341 0.69314717840248341 0.69314717840248341 0.69314717840248341 0.69314717840248341 0.69314717840248341 0.69314717840248341 0.69314717840248341 0.69314717840248341 0.69314717840248341 0.69314717840248341 0.69314717840248341 0.69314717840248341 0.69314717840248341 0.69314717840248341 0.69314717840248341 0.69314717840248341 0.69314717840248341 0.69314717840248341 0.69314717840248341 0.69314717840248341 0.69314717840248341 0.69314717840248341 0.69314717840248341 0.69314717840248341 0.69314717840248341 0.69314717840248341 0.69314717840248341 0.69314717840248341 0.69314717840248341 0.69314717840248341 0.69314717840248341 0.69314717840248341 0.69314717840248341 0.69314717840248341 0.69314717840248341 0.69314717840248341 0.69314717840248341 0.69314717840248341 0.69314717840248341 0.69314717840248341 0.69314717840248341 0.69314717840248341 0.69314717840248341 0.69314717840248341 0.69314717840248341 0.69314717840248341 0.69314717840248341 0.69314717840248341 0.69314717840248341 0.69314717840248341 0.69314717840248341 0.69314717840248341 0.69314717840248341 0.69314717840248341 0.69314717840248341 0.69314717840248341 0.69314717840248341 0.69314717840248341 0.69314717840248341 0.69314717840248341 0.69314717840248341 0.69314717840248341 0.69314717840248341 0.69314717840248341 0.69314717840248341 0.69314717840248341 0.69314717840248341 0.69314717840248341 0.69314717840248341 0.69314717840248341 0.69314717840248341 0.69314717840248341 0.69314717840248341 0.69314717840248341 0.69314717840248341 0.69314717840248341 0.69314717840248341 0.69314717840248341 0.69314717840248341 0.69314717840248341 0.69314717840248341 0.69314717840248341 0.69314717840248341 0.69314717840248341 0.69314717840248341 0.69314717840248341 0.69314717840248341 0.69314717840248341 0.69314717840248341 0.69314717840248341 0.69314717840248341 0.69314717840248341 0.69314717840248341 0.69314717840248341 0.69314717840248341 0.69314717840248341 0.69314717840248341 0.69314717840248341 0.69314717840248341 0.69314717840248341 0.69314717840248341 0.69314717840248341 0.69314717840248341 0.69314717840248341 0.69314717840248341 0.69314717840248341 0.69314717840248341 0.69314717840248341 0.69314717840248341 0.69314717840248341 0.69314717840248341 0.69314717840248341 0.69314717840248341 0.69314717840248341 0.69314717840248341 0.69314717840248341 0.69314717840248341 0.69314717840248341 0.69314717840248341 0.69314717840248341 0.69314717840248341 0.69314717840248341 0.69314717840248341 0.69314717840248341 0.69314717840248341 0.69314717840248341 0.69314717840248341 0.69314717840248341 0.69314717840248341 0.69314717840248341 0.69314717840248341 0.69314717840248341 0.69314717840248341 0.69314717840248341 0.69314717840248341 0.69314717840248341 0.69314717840248341 0.69314717840248341 0.69314717840248341 0.69314717840248341 0.69314717840248341 0.69314717840248341 0.69314717840248341 0.69314717840248341 0.69314717840248341 0.69314717840248341 0.69314717840248341 0.69314717840248341 0.69314717840248341 0.69314717840248341 0.69314717840248341 0.69314717840248341 0.69314717840248341 0.69314717840248341 0.69314717840248341 0.69314717840248341 0.69314717840248341 0.69314717840248341 0.69314717840248341 0.69314717840248341 0.69314717840248341 0.69314717840248341 0.69314717840248341 0.69314717840248341 0.69314717840248341 0.69314717840248341 0.69314717840248341 0.69314717840248341 0.69314717840248341 0.69314717840248341 0.69314717840248341 0.69314717840248341 0.69314717840248341 0.69314717840248341 0.69314717840248341 0.69314717840248341 0.69314717840248341 0.69314717840248341 0.69314717840248341 0.69314717840248341 0.69314717840248341 0.69314717840248341 0.69314717840248341 0.69314717840248341 0.69314717840248341 0.69314717840248341 0.69314717840248341 0.69314717840248341 0.69314717840248341 0.69314717840248341 0.69314717840248341 0.69314717840248341 0.69314717840248341 0.69314717840248341 0.69314717840248341 0.69314717840248341 0.69314717840248341 0.69314717840248341 0.69314717840248341 0.69314717840248341 0.69314717840248341 0.69314717840248341 0.69314717840248341 0.69314717840248341 0.69314717840248341 0.69314717840248341 0.69314717840248341 0.69314717840248341 0.69314717840248341 0.69314717840248341 0.69314717840248341 0.69314717840248341 0.69314717840248341 0.69314717840248341 0.69314717840248341 0.69314717840248341 0.69314717840248341 0.69314717840248341 0.69314717840248341 0.69314717840248341 0.69314717840248341 0.69314717840248341 0.69314717840248341 0.69314717840248341 0.69314717840248341 0.69314717840248341 0.69314717840248341 0.69314717840248341 0.69314717840248341 0.69314717840248341 0.69314717840248341 0.69314717840248341 0.69314717840248341 0.69314717840248341 0.69314717840248341 0.69314717840248341 0.69314717840248341 0.69314717840248341 0.69314717840248341 0.69314717840248341 0.69314717840248341 0.69314717840248341 0.69314717840248341 0.69314717840248341 0.69314717840248341 0.69314717840248341 0.69314717840248341 0.69314717840248341 0.69314717840248341 0.69314717840248341 0.69314717840248341 0.69314717840248341 0.69314717840248341 0.69314717840248341 0.69314717840248341 0.69314717840248341 0.69314717840248341 0.69314717840248341 0.69314717840248341 0.69314717840248341 0.69314717840248341 0.69314717840248341 0.69314717840248341 0.69314717840248341 0.69314717840248341 0.69314717840248341 0.69314717840248341 0.69314717840248341 0.69314717840248341 0.69314717840248341 0.69314717840248341 0.69314717840248341 0.69314717840248341 0.69314717840248341 0.69314717840248341 0.69314717840248341 0.69314717840248341 0.69314717840248341 0.69314717840248341 0.69314717840248341 0.69314717840248341 0.69314717840248341 0.69314717840248341 0.69314717840248341 0.69314717840248341 0.69314717840248341 0.69314717840248341 0.69314717840248341 0.69314717840248341 0.69314717840248341 0.69314717840248341 0.69314717840248341 0.69314717840248341 0.69314717840248341 0.69314717840248341 0.69314717840248341 0.69314717840248341 0.69314717840248341 0.69314717840248341 0.69314717840248341 0.69314717840248341 0.69314717840248341 0.69314717840248341 0.69314717840248341 0.69314717840248341 0.69314717840248341 0.69314717840248341 0.69314717840248341 0.69314717840248341 0.69314717840248341 0.69314717840248341 0.69314717840248341 0.69314717840248341 0.69314717840248341 0.69314717840248341 0.69314717840248341 0.69314717840248341 0.69314717840248341 0.69314717840248341 0.69314717840248341 0.69314717840248341 0.69314717840248341 0.69314717840248341 0.69314717840248341 0.69314717840248341 0.69314717840248341 0.69314717840248341 0.69314717840248341 0.69314717840248341 0.69314717840248341 0.69314717840248341 0.69314717840248341 0.69314717840248341 0.69314717840248341 0.69314717840248341 0.69314717840248341 0.69314717840248341 0.69314717840248341 0.69314717840248341 0.69314717840248341 0.69314717840248341 0.69314717840248341 0.69314717840248341 0.69314717840248341 0.69314717840248341 0.69314717840248341 0.69314717840248341 0.69314717840248341 0.69314717840248341 0.69314717840248341 0.69314717840248341 0.69314717840248341 0.69314717840248341 0.69314717840248341 0.69314717840248341 0.69314717840248341 0.69314717840248341 0.69314717840248341 0.69314717840248341 0.69314717840248341 0.69314717840248341 0.69314717840248341 0.69314717840248341 0.69314717840248341 0.69314717840248341 0.69314717840248341 0.69314717840248341 0.69314717840248341 0.69314717840248341 0.69314717840248341 0.69314717840248341 0.69314717840248341 0.69314717840248341 0.69314717840248341 0.69314717840248341 0.69314717840248341 0.69314717840248341 0.69314717840248341 0.69314717840248341 0.69314717840248341 0.69314717840248341 0.69314717840248341 0.69314717840248341 0.69314717840248341 0.69314717840248341 0.69314717840248341 0.69314717840248341 0.69314717840248341 0.69314717840248341 0.69314717840248341 0.69314717840248341 0.69314717840248341 0.69314717840248341 0.69314717840248341 0.69314717840248341 0.69314717840248341 0.69314717840248341 0.69314717840248341 0.69314717840248341 0.69314717840248341 0.69314717840248341 0.69314717840248341 0.69314717840248341 0.69314717840248341 0.69314717840248341 0.69314717840248341 0.69314717840248341 0.69314717840248341 0.69314717840248341 0.69314717840248341 0.69314717840248341 0.69314717840248341 0.69314717840248341 0.69314717840248341 0.69314717840248341 0.69314717840248341 0.69314717840248341 0.69314717840248341 0.69314717840248341 0.69314717840248341 0.69314717840248341 0.69314717840248341 0.69314717840248341 0.69314717840248341 0.69314717840248341 0.69314717840248341 0.69314717840248341 0.69314717840248341 0.69314717840248341 0.69314717840248341 0.69314717840248341 0.69314717840248341 0.69314717840248341 0.69314717840248341 0.69314717840248341 0.69314717840248341 0.69314717840248341 0.69314717840248341 0.69314717840248341 0.69314717840248341 0.69314717840248341 0.69314717840248341 0.69314717840248341 0.69314717840248341 0.69314717840248341 0.69314717840248341 0.69314717840248341 0.69314717840248341 0.69314717840248341 0.69314717840248341 0.69314717840248341 0.69314717840248341 0.69314717840248341 0.69314717840248341 0.69314717840248341 0.69314717840248341 0.69314717840248341 0.69314717840248341 0.69314717840248341 0.69314717840248341 0.69314717840248341 0.69314717840248341 0.69314717840248341 0.69314717840248341 0.69314717840248341 0.69314717840248341 0.69314717840248341 0.69314717840248341 0.69314717840248341 0.69314717840248341 0.69314717840248341 0.69314717840248341 0.69314717840248341 0.69314717840248341 0.69314717840248341 0.69314717840248341 0.69314717840248341 0.69314717840248341 0.69314717840248341 0.69314717840248341 0.69314717840248341 0.69314717840248341 0.69314717840248341 0.69314717840248341 0.69314717840248341 0.69314717840248341 0.69314717840248341 0.69314717840248341 0.69314717840248341 0.69314717840248341 0.69314717840248341 0.69314717840248341 0.69314717840248341 0.69314717840248341 0.69314717840248341 0.69314717840248341 0.69314717840248341 0.69314717840248341 0.69314717840248341 0.69314717840248341 0.69314717840248341 0.69314717840248341 0.69314717840248341 0.69314717840248341 0.69314717840248341 0.69314717840248341 0.69314717840248341 0.69314717840248341 0.69314717840248341 0.69314717840248341 0.69314717840248341 0.69314717840248341 0.69314717840248341 0.69314717840248341 0.69314717840248341 0.69314717840248341 0.69314717840248341 0.69314717840248341 0.69314717840248341 0.69314717840248341 0.69314717840248341 0.69314717840248341 0.69314717840248341 0.69314717840248341 0.69314717840248341 0.69314717840248341 0.69314717840248341 0.69314717840248341 0.69314717840248341 0.69314717840248341 0.69314717840248341 0.69314717840248341 0.69314717840248341 0.69314717840248341 0.69314717840248341 0.69314717840248341 0.69314717840248341 0.69314717840248341 0.69314717840248341 0.69314717840248341 0.69314717840248341 0.69314717840248341 0.69314717840248341 0.69314717840248341 0.69314717840248341 0.69314717840248341 0.69314717840248341 0.69314717840248341 0.69314717840248341 0.69314717840248341 0.69314717840248341 0.69314717840248341 0.69314717840248341 0.69314717840248341 0.69314717840248341 0.69314717840248341 0.69314717840248341 0.69314717840248341 0.69314717840248341 0.69314717840248341 0.69314717840248341 0.69314717840248341 0.69314717840248341 0.69314717840248341 0.69314717840248341 0.69314717840248341 0.69314717840248341 0.69314717840248341 0.69314717840248341 0.69314717840248341 0.69314717840248341 0.69314717840248341 0.69314717840248341 0.69314717840248341 0.69314717840248341 0.69314717840248341 0.69314717840248341 0.69314717840248341 0.69314717840248341 0.69314717840248341 0.69314717840248341 0.69314717840248341 0.69314717840248341 0.69314717840248341 0.69314717840248341 0.69314717840248341 0.69314717840248341 0.69314717840248341 0.69314717840248341 0.69314717840248341 0.69314717840248341 0.69314717840248341 0.69314717840248341 0.69314717840248341 0.69314717840248341 0.69314717840248341 0.69314717840248341 0.69314717840248341 0.69314717840248341 0.69314717840248341 0.69314717840248341 0.69314717840248341 0.69314717840248341 0.69314717840248341 0.69314717840248341 0.69314717840248341 0.69314717840248341 0.69314717840248341 0.69314717840248341 0.69314717840248341 0.69314717840248341 0.69314717840248341 0.69314717840248341 0.69314717840248341 0.69314717840248341 0.69314717840248341 0.69314717840248341 0.69314717840248341 0.69314717840248341 0.69314717840248341 0.69314717840248341 0.69314717840248341 0.69314717840248341 0.69314717840248341 0.69314717840248341 0.69314717840248341 0.69314717840248341 0.69314717840248341 0.69314717840248341 0.69314717840248341 0.69314717840248341 0.69314717840248341 0.69314717840248341 0.69314717840248341 0.69314717840248341 0.69314717840248341 0.69314717840248341 0.69314717840248341 0.69314717840248341 0.69314717840248341 0.69314717840248341 0.69314717840248341 0.69314717840248341 0.69314717840248341 0.69314717840248341 0.69314717840248341 0.69314717840248341 0.69314717840248341 0.69314717840248341 0.69314717840248341 0.69314717840248341 0.69314717840248341 0.69314717840248341 0.69314717840248341 0.69314717840248341 0.69314717840248341 0.69314717840248341 0.69314717840248341 0.69314717840248341 0.69314717840248341 0.69314717840248341 0.69314717840248341 0.69314717840248341 0.69314717840248341 0.69314717840248341 0.69314717840248341 0.69314717840248341 0.69314717840248341 0.69314717840248341 0.69314717840248341 0.69314717840248341 0.69314717840248341 0.69314717840248341 0.69314717840248341 0.69314717840248341 0.69314717840248341 0.69314717840248341 0.69314717840248341 0.69314717840248341 0.69314717840248341 0.69314717840248341 0.69314717840248341 0.69314717840248341 0.69314717840248341 0.69314717840248341 0.69314717840248341 0.69314717840248341 0.69314717840248341 0.69314717840248341 0.69314717840248341 0.69314717840248341 0.69314717840248341 0.69314717840248341 0.69314717840248341 0.69314717840248341 0.69314717840248341 0.69314717840248341 0.69314717840248341 0.69314717840248341 0.69314717840248341 0.69314717840248341 0.69314717840248341 0.69314717840248341 0.69314717840248341 0.69314717840248341 0.69314717840248341 0.69314717840248341 0.69314717840248341 0.69314717840248341 0.69314717840248341 0.69314717840248341 0.69314717840248341 0.69314717840248341 0.69314717840248341 0.69314717840248341 0.69314717840248341 0.69314717840248341 0.69314717840248341 0.69314717840248341 0.69314717840248341 0.69314717840248341 0.69314717840248341 0.69314717840248341 0.69314717840248341 0.69314717840248341 0.69314717840248341 0.69314717840248341 0.69314717840248341 0.69314717840248341 0.69314717840248341 0.69314717840248341 0.69314717840248341 0.69314717840248341 0.69314717840248341 0.69314717840248341 0.69314717840248341 0.69314717840248341 0.69314717840248341 0.69314717840248341 0.69314717840248341 0.69314717840248341 0.69314717840248341 0.69314717840248341 0.69314717840248341 0.69314717840248341 0.69314717840248341 0.69314717840248341 0.69314717840248341 0.69314717840248341 0.69314717840248341 0.69314717840248341 0.69314717840248341 0.69314717840248341 0.69314717840248341 0.69314717840248341 0.69314717840248341 0.69314717840248341 0.69314717840248341 0.69314717840248341 0.69314717840248341 0.69314717840248341 0.69314717840248341 0.69314717840248341 0.69314717840248341 0.69314717840248341 0.69314717840248341 0.69314717840248341 0.69314717840248341 0.69314717840248341 0.69314717840248341 0.69314717840248341 0.69314717840248341 0.69314717840248341 0.69314717840248341 0.69314717840248341 0.69314717840248341 0.69314717840248341 0.69314717840248341 0.69314717840248341 0.69314717840248341 0.69314717840248341 0.69314717840248341 0.69314717840248341 0.69314717840248341 0.69314717840248341 0.69314717840248341 0.69314717840248341 0.69314717840248341 0.69314717840248341 0.69314717840248341 0.69314717840248341 0.69314717840248341 0.69314717840248341 0.69314717840248341 0.69314717840248341 0.69314717840248341 0.69314717840248341 0.69314717840248341 0.69314717840248341 0.69314717840248341 0.69314717840248341 0.69314717840248341 0.69314717840248341 0.69314717840248341 0.69314717840248341 0.69314717840248341 0.69314717840248341 0.69314717840248341 0.69314717840248341 0.69314717840248341 0.69314717840248341 0.69314717840248341 0.69314717840248341 0.69314717840248341 0.69314717840248341 0.69314717840248341 0.69314717840248341 0.69314717840248341 0.69314717840248341 0.69314717840248341 0.69314717840248341 0.69314717840248341 0.69314717840248341 0.69314717840248341 0.69314717840248341 0.69314717840248341 0.69314717840248341 0.69314717840248341 0.69314717840248341 0.69314717840248341 0.69314717840248341 0.69314717840248341 0.69314717840248341 0.69314717840248341 0.69314717840248341 0.69314717840248341 0.69314717840248341 0.69314717840248341 0.69314717840248341 0.69314717840248341 0.69314717840248341 0.69314717840248341 0.69314717840248341 0.69314717840248341 0.69314717840248341 0.69314717840248341 0.69314717840248341 0.69314717840248341 0.69314717840248341 0.69314717840248341 0.69314717840248341 0.69314717840248341 0.69314717840248341 0.69314717840248341 0.69314717840248341 0.69314717840248341 0.69314717840248341 0.69314717840248341 0.69314717840248341 0.69314717840248341 0.69314717840248341 0.69314717840248341 0.69314717840248341 0.69314717840248341 0.69314717840248341 0.69314717840248341 0.69314717840248341 0.69314717840248341 0.69314717840248341 0.69314717840248341 0.69314717840248341 0.69314717840248341 0.69314717840248341 0.69314717840248341 0.69314717840248341 0.69314717840248341 0.69314717840248341 0.69314717840248341 0.69314717840248341 0.69314717840248341 0.69314717840248341 0.69314717840248341 0.69314717840248341 0.69314717840248341 0.69314717840248341 0.69314717840248341 0.69314717840248341 0.69314717840248341 0.69314717840248341 0.69314717840248341 0.69314717840248341 0.69314717840248341 0.69314717840248341 0.69314717840248341 0.69314717840248341 0.69314717840248341 0.69314717840248341 0.69314717840248341 0.69314717840248341 0.69314717840248341 0.69314717840248341 0.69314717840248341 0.69314717840248341
probB 2.3918953807395669e-16 2.3918953807395669e-16 2.3918953807395669e-16 2.3918953807395669e-16 2.3918953807395669e-16 2.3918953807395669e-16 2.3918953807395669e-16 2.3918953807395669e-16 2.3918953807395669e-16 2.3918953807395669e-16 2.3918953807395669e-16 2.3918953807395669e-16 2.3918953807395669e-16 2.3918953807395669e-16 2.3918953807395669e-16 2.3918953807395669e-16 2.3918953807395669e-16 2.3918953807395669e-16 2.3918953807395669e-16 2.3918953807395669e-16 2.3918953807395669e-16 2.3918953807395669e-16 2.3918953807395669e-16 2.3918953807395669e-16 2.3918953807395669e-16 2.3918953807395669e-16 2.3918953807395669e-16 2.3918953807395669e-16 2.3918953807395669e-16 2.3918953807395669e-16 2.3918953807395669e-16 2.3918953807395669e-16 2.3918953807395669e-16 2.3918953807395669e-16 2.3918953807395669e-16 2.3918953807395669e-16 2.3918953807395669e-16 2.3918953807395669e-16 2.3918953807395669e-16 2.3918953807395669e-16 2.3918953807395669e-16 2.3918953807395669e-16 2.3918953807395669e-16 2.3918953807395669e-16 2.3918953807395669e-16 2.3918953807395669e-16 2.3918953807395669e-16 2.3918953807395669e-16 2.3918953807395669e-16 2.3918953807395669e-16 2.3918953807395669e-16 2.3918953807395669e-16 2.3918953807395669e-16 2.3918953807395669e-16 2.3918953807395669e-16 2.3918953807395669e-16 2.3918953807395669e-16 2.3918953807395669e-16 2.3918953807395669e-16 2.3918953807395669e-16 2.3918953807395669e-16 2.3918953807395669e-16 2.3918953807395669e-16 2.3918953807395669e-16 2.3918953807395669e-16 2.3918953807395669e-16 2.3918953807395669e-16 2.3918953807395669e-16 2.3918953807395669e-16 2.3918953807395669e-16 2.3918953807395669e-16 2.3918953807395669e-16 2.3918953807395669e-16 2.3918953807395669e-16 2.3918953807395669e-16 2.3918953807395669e-16 2.3918953807395669e-16 2.3918953807395669e-16 2.3918953807395669e-16 2.3918953807395669e-16 2.3918953807395669e-16 2.3918953807395669e-16 2.3918953807395669e-16 2.3918953807395669e-16 2.3918953807395669e-16 2.3918953807395669e-16 2.3918953807395669e-16 2.3918953807395669e-16 2.3918953807395669e-16 2.3918953807395669e-16 2.3918953807395669e-16 2.3918953807395669e-16 2.3918953807395669e-16 2.3918953807395669e-16 2.3918953807395669e-16 2.3918953807395669e-16 2.3918953807395669e-16 2.3918953807395669e-16 2.3918953807395669e-16 2.3918953807395669e-16 2.3918953807395669e-16 2.3918953807395669e-16 2.3918953807395669e-16 2.3918953807395669e-16 2.3918953807395669e-16 2.3918953807395669e-16 2.3918953807395669e-16 2.3918953807395669e-16 2.3918953807395669e-16 2.3918953807395669e-16 2.3918953807395669e-16 2.3918953807395669e-16 2.3918953807395669e-16 2.3918953807395669e-16 2.3918953807395669e-16 2.3918953807395669e-16 2.3918953807395669e-16 2.3918953807395669e-16 2.3918953807395669e-16 2.3918953807395669e-16 2.3918953807395669e-16 2.3918953807395669e-16 2.3918953807395669e-16 2.3918953807395669e-16 2.3918953807395669e-16 2.3918953807395669e-16 2.3918953807395669e-16 2.3918953807395669e-16 2.3918953807395669e-16 2.3918953807395669e-16 2.3918953807395669e-16 2.3918953807395669e-16 2.3918953807395669e-16 2.3918953807395669e-16 2.3918953807395669e-16 2.3918953807395669e-16 2.3918953807395669e-16 2.3918953807395669e-16 2.3918953807395669e-16 2.3918953807395669e-16 2.3918953807395669e-16 2.3918953807395669e-16 2.3918953807395669e-16 2.3918953807395669e-16 2.3918953807395669e-16 2.3918953807395669e-16 2.3918953807395669e-16 2.3918953807395669e-16 2.3918953807395669e-16 2.3918953807395669e-16 2.3918953807395669e-16 2.3918953807395669e-16 2.3918953807395669e-16 2.3918953807395669e-16 2.3918953807395669e-16 2.3918953807395669e-16 2.3918953807395669e-16 2.3918953807395669e-16 2.3918953807395669e-16 2.3918953807395669e-16 2.3918953807395669e-16 2.3918953807395669e-16 2.3918953807395669e-16 2.3918953807395669e-16 2.3918953807395669e-16 2.3918953807395669e-16 2.3918953807395669e-16 2.3918953807395669e-16 2.3918953807395669e-16 2.3918953807395669e-16 2.3918953807395669e-16 2.3918953807395669e-16 2.3918953807395669e-16 2.3918953807395669e-16 2.3918953807395669e-16 2.3918953807395669e-16 2.3918953807395669e-16 2.3918953807395669e-16 2.3918953807395669e-16 2.3918953807395669e-16 2.3918953807395669e-16 2.3918953807395669e-16 2.3918953807395669e-16 2.3918953807395669e-16 2.3918953807395669e-16 2.3918953807395669e-16 2.3918953807395669e-16 2.3918953807395669e-16 2.3918953807395669e-16 2.3918953807395669e-16 2.3918953807395669e-16 2.3918953807395669e-16 2.3918953807395669e-16 2.3918953807395669e-16 2.3918953807395669e-16 2.3918953807395669e-16 2.3918953807395669e-16 2.3918953807395669e-16 2.3918953807395669e-16 2.3918953807395669e-16 2.3918953807395669e-16 2.3918953807395669e-16 2.3918953807395669e-16 2.3918953807395669e-16 2.3918953807395669e-16 2.3918953807395669e-16 2.3918953807395669e-16 2.3918953807395669e-16 2.3918953807395669e-16 2.3918953807395669e-16 2.3918953807395669e-16 2.3918953807395669e-16 2.3918953807395669e-16 2.3918953807395669e-16 2.3918953807395669e-16 2.3918953807395669e-16 2.3918953807395669e-16 2.3918953807395669e-16 2.3918953807395669e-16 2.3918953807395669e-16 2.3918953807395669e-16 2.3918953807395669e-16 2.3918953807395669e-16 2.3918953807395669e-16 2.3918953807395669e-16 2.3918953807395669e-16 2.3918953807395669e-16 2.3918953807395669e-16 2.3918953807395669e-16 2.3918953807395669e-16 2.3918953807395669e-16 2.3918953807395669e-16 2.3918953807395669e-16 2.3918953807395669e-16 2.3918953807395669e-16 2.3918953807395669e-16 2.3918953807395669e-16 2.3918953807395669e-16 2.3918953807395669e-16 2.3918953807395669e-16 2.3918953807395669e-16 2.3918953807395669e-16 2.3918953807395669e-16 2.3918953807395669e-16 2.3918953807395669e-16 2.3918953807395669e-16 2.3918953807395669e-16 2.3918953807395669e-16 2.3918953807395669e-16 2.3918953807395669e-16 2.3918953807395669e-16 2.3918953807395669e-16 2.3918953807395669e-16 2.3918953807395669e-16 2.3918953807395669e-16 2.3918953807395669e-16 2.3918953807395669e-16 2.3918953807395669e-16 2.3918953807395669e-16 2.3918953807395669e-16 2.3918953807395669e-16 2.3918953807395669e-16 2.3918953807395669e-16 2.3918953807395669e-16 2.3918953807395669e-16 2.3918953807395669e-16 2.3918953807395669e-16 2.3918953807395669e-16 2.3918953807395669e-16 2.3918953807395669e-16 2.3918953807395669e-16 2.3918953807395669e-16 2.3918953807395669e-16 2.3918953807395669e-16 2.3918953807395669e-16 2.3918953807395669e-16 2.3918953807395669e-16 2.3918953807395669e-16 2.3918953807395669e-16 2.3918953807395669e-16 2.3918953807395669e-16 2.3918953807395669e-16 2.3918953807395669e-16 2.3918953807395669e-16 2.3918953807395669e-16 2.3918953807395669e-16 2.3918953807395669e-16 2.3918953807395669e-16 2.3918953807395669e-16 2.3918953807395669e-16 2.3918953807395669e-16 2.3918953807395669e-16 2.3918953807395669e-16 2.3918953807395669e-16 2.3918953807395669e-16 2.3918953807395669e-16 2.3918953807395669e-16 2.3918953807395669e-16 2.3918953807395669e-16 2.3918953807395669e-16 2.3918953807395669e-16 2.3918953807395669e-16 2.3918953807395669e-16 2.3918953807395669e-16 2.3918953807395669e-16 2.3918953807395669e-16 2.3918953807395669e-16 2.3918953807395669e-16 2.3918953807395669e-16 2.3918953807395669e-16 2.3918953807395669e-16 2.3918953807395669e-16 2.3918953807395669e-16 2.3918953807395669e-16 2.3918953807395669e-16 2.3918953807395669e-16 2.3918953807395669e-16 2.3918953807395669e-16 2.3918953807395669e-16 2.3918953807395669e-16 2.3918953807395669e-16 2.3918953807395669e-16 2.3918953807395669e-16 2.3918953807395669e-16 2.3918953807395669e-16 2.3918953807395669e-16 2.3918953807395669e-16 2.3918953807395669e-16 2.3918953807395669e-16 2.3918953807395669e-16 2.3918953807395669e-16 2.3918953807395669e-16 2.3918953807395669e-16 2.3918953807395669e-16 2.3918953807395669e-16 2.3918953807395669e-16 2.3918953807395669e-16 2.3918953807395669e-16 2.3918953807395669e-16 2.3918953807395669e-16 2.3918953807395669e-16 2.3918953807395669e-16 2.3918953807395669e-16 2.3918953807395669e-16 2.3918953807395669e-16 2.3918953807395669e-16 2.3918953807395669e-16 2.3918953807395669e-16 2.3918953807395669e-16 2.3918953807395669e-16 2.3918953807395669e-16 2.3918953807395669e-16 2.3918953807395669e-16 2.3918953807395669e-16 2.3918953807395669e-16 2.3918953807395669e-16 2.3918953807395669e-16 2.3918953807395669e-16 2.3918953807395669e-16 2.3918953807395669e-16 2.3918953807395669e-16 2.3918953807395669e-16 2.3918953807395669e-16 2.3918953807395669e-16 2.3918953807395669e-16 2.3918953807395669e-16 2.3918953807395669e-16 2.3918953807395669e-16 2.3918953807395669e-16 2.3918953807395669e-16 2.3918953807395669e-16 2.3918953807395669e-16 2.3918953807395669e-16 2.3918953807395669e-16 2.3918953807395669e-16 2.3918953807395669e-16 2.3918953807395669e-16 2.3918953807395669e-16 2.3918953807395669e-16 2.3918953807395669e-16 2.3918953807395669e-16 2.3918953807395669e-16 2.3918953807395669e-16 2.3918953807395669e-16 2.3918953807395669e-16 2.3918953807395669e-16 2.3918953807395669e-16 2.3918953807395669e-16 2.3918953807395669e-16 2.3918953807395669e-16 2.3918953807395669e-16 2.3918953807395669e-16 2.3918953807395669e-16 2.3918953807395669e-16 2.3918953807395669e-16 2.3918953807395669e-16 2.3918953807395669e-16 2.3918953807395669e-16 2.3918953807395669e-16 2.3918953807395669e-16 2.3918953807395669e-16 2.3918953807395669e-16 2.3918953807395669e-16 2.3918953807395669e-16 2.3918953807395669e-16 2.3918953807395669e-16 2.3918953807395669e-16 2.3918953807395669e-16 2.3918953807395669e-16 2.3918953807395669e-16 2.3918953807395669e-16 2.3918953807395669e-16 2.3918953807395669e-16 2.3918953807395669e-16 2.3918953807395669e-16 2.3918953807395669e-16 2.3918953807395669e-16 2.3918953807395669e-16 2.3918953807395669e-16 2.3918953807395669e-16 2.3918953807395669e-16 2.3918953807395669e-16 2.3918953807395669e-16 2.3918953807395669e-16 2.3918953807395669e-16 2.3918953807395669e-16 2.3918953807395669e-16 2.3918953807395669e-16 2.3918953807395669e-16 2.3918953807395669e-16 2.3918953807395669e-16 2.3918953807395669e-16 2.3918953807395669e-16 2.3918953807395669e-16 2.3918953807395669e-16 2.3918953807395669e-16 2.3918953807395669e-16 2.3918953807395669e-16 2.3918953807395669e-16 2.3918953807395669e-16 2.3918953807395669e-16 2.3918953807395669e-16 2.3918953807395669e-16 2.3918953807395669e-16 2.3918953807395669e-16 2.3918953807395669e-16 2.3918953807395669e-16 2.3918953807395669e-16 2.3918953807395669e-16 2.3918953807395669e-16 2.3918953807395669e-16 2.3918953807395669e-16 2.3918953807395669e-16 2.3918953807395669e-16 2.3918953807395669e-16 2.3918953807395669e-16 2.3918953807395669e-16 2.3918953807395669e-16 2.3918953807395669e-16 2.3918953807395669e-16 2.3918953807395669e-16 2.3918953807395669e-16 2.3918953807395669e-16 2.3918953807395669e-16 2.3918953807395669e-16 2.3918953807395669e-16 2.3918953807395669e-16 2.3918953807395669e-16 2.3918953807395669e-16 2.3918953807395669e-16 2.3918953807395669e-16 2.3918953807395669e-16 2.3918953807395669e-16 2.3918953807395669e-16 2.3918953807395669e-16 2.3918953807395669e-16 2.3918953807395669e-16 2.3918953807395669e-16 2.3918953807395669e-16 2.3918953807395669e-16 2.3918953807395669e-16 2.3918953807395669e-16 2.3918953807395669e-16 2.3918953807395669e-16 2.3918953807395669e-16 2.3918953807395669e-16 2.3918953807395669e-16 2.3918953807395669e-16 2.3918953807395669e-16 2.3918953807395669e-16 2.3918953807395669e-16 2.3918953807395669e-16 2.3918953807395669e-16 2.3918953807395669e-16 2.3918953807395669e-16 2.3918953807395669e-16 2.3918953807395669e-16 2.3918953807395669e-16 2.3918953807395669e-16 2.3918953807395669e-16 2.3918953807395669e-16 2.3918953807395669e-16 2.3918953807395669e-16 2.3918953807395669e-16 2.3918953807395669e-16 2.3918953807395669e-16 2.3918953807395669e-16 2.3918953807395669e-16 2.3918953807395669e-16 2.3918953807395669e-16 2.3918953807395669e-16 2.3918953807395669e-16 2.3918953807395669e-16 2.3918953807395669e-16 2.3918953807395669e-16 2.3918953807395669e-16 2.3918953807395669e-16 2.3918953807395669e-16 2.3918953807395669e-16 2.3918953807395669e-16 2.3918953807395669e-16 2.3918953807395669e-16 2.3918953807395669e-16 2.3918953807395669e-16 2.3918953807395669e-16 2.3918953807395669e-16 2.3918953807395669e-16 2.3918953807395669e-16 2.3918953807395669e-16 2.3918953807395669e-16 2.3918953807395669e-16 2.3918953807395669e-16 2.3918953807395669e-16 2.3918953807395669e-16 2.3918953807395669e-16 2.3918953807395669e-16 2.3918953807395669e-16 2.3918953807395669e-16 2.3918953807395669e-16 2.3918953807395669e-16 2.3918953807395669e-16 2.3918953807395669e-16 2.3918953807395669e-16 2.3918953807395669e-16 2.3918953807395669e-16 2.3918953807395669e-16 2.3918953807395669e-16 2.3918953807395669e-16 2.3918953807395669e-16 2.3918953807395669e-16 2.3918953807395669e-16 2.3918953807395669e-16 2.3918953807395669e-16 2.3918953807395669e-16 2.3918953807395669e-16 2.3918953807395669e-16 2.3918953807395669e-16 2.3918953807395669e-16 2.3918953807395669e-16 2.3918953807395669e-16 2.3918953807395669e-16 2.3918953807395669e-16 2.3918953807395669e-16 2.3918953807395669e-16 2.3918953807395669e-16 2.3918953807395669e-16 2.3918953807395669e-16 2.3918953807395669e-16 2.3918953807395669e-16 2.3918953807395669e-16 2.3918953807395669e-16 2.3918953807395669e-16 2.3918953807395669e-16 2.3918953807395669e-16 2.3918953807395669e-16 2.3918953807395669e-16 2.3918953807395669e-16 2.3918953807395669e-16 2.3918953807395669e-16 2.3918953807395669e-16 2.3918953807395669e-16 2.3918953807395669e-16 2.3918953807395669e-16 2.3918953807395669e-16 2.3918953807395669e-16 2.3918953807395669e-16 2.3918953807395669e-16 2.3918953807395669e-16 2.3918953807395669e-16 2.3918953807395669e-16 2.3918953807395669e-16 2.3918953807395669e-16 2.3918953807395669e-16 2.3918953807395669e-16 2.3918953807395669e-16 2.3918953807395669e-16 2.3918953807395669e-16 2.3918953807395669e-16 2.3918953807395669e-16 2.3918953807395669e-16 2.3918953807395669e-16 2.3918953807395669e-16 2.3918953807395669e-16 2.3918953807395669e-16 2.3918953807395669e-16 2.3918953807395669e-16 2.3918953807395669e-16 2.3918953807395669e-16 2.3918953807395669e-16 2.3918953807395669e-16 2.3918953807395669e-16 2.3918953807395669e-16 2.3918953807395669e-16 2.3918953807395669e-16 2.3918953807395669e-16 2.3918953807395669e-16 2.3918953807395669e-16 2.3918953807395669e-16 2.3918953807395669e-16 2.3918953807395669e-16 2.3918953807395669e-16 2.3918953807395669e-16 2.3918953807395669e-16 2.3918953807395669e-16 2.3918953807395669e-16 2.3918953807395669e-16 2.3918953807395669e-16 2.3918953807395669e-16 2.3918953807395669e-16 2.3918953807395669e-16 2.3918953807395669e-16 2.3918953807395669e-16 2.3918953807395669e-16 2.3918953807395669e-16 2.3918953807395669e-16 2.3918953807395669e-16 2.3918953807395669e-16 2.3918953807395669e-16 2.3918953807395669e-16 2.3918953807395669e-16 2.3918953807395669e-16 2.3918953807395669e-16 2.3918953807395669e-16 2.3918953807395669e-16 2.3918953807395669e-16 2.3918953807395669e-16 2.3918953807395669e-16 2.3918953807395669e-16 2.3918953807395669e-16 2.3918953807395669e-16 2.3918953807395669e-16 2.3918953807395669e-16 2.3918953807395669e-16 2.3918953807395669e-16 2.3918953807395669e-16 2.3918953807395669e-16 2.3918953807395669e-16 2.3918953807395669e-16 2.3918953807395669e-16 2.3918953807395669e-16 2.3918953807395669e-16 2.3918953807395669e-16 2.3918953807395669e-16 2.3918953807395669e-16 2.3918953807395669e-16 2.3918953807395669e-16 2.3918953807395669e-16 2.3918953807395669e-16 2.3918953807395669e-16 2.3918953807395669e-16 2.3918953807395669e-16 2.3918953807395669e-16 2.3918953807395669e-16 2.3918953807395669e-16 2.3918953807395669e-16 2.3918953807395669e-16 2.3918953807395669e-16 2.3918953807395669e-16 2.3918953807395669e-16 2.3918953807395669e-16 2.3918953807395669e-16 2.3918953807395669e-16 2.3918953807395669e-16 2.3918953807395669e-16 2.3918953807395669e-16 2.3918953807395669e-16 2.3918953807395669e-16 2.3918953807395669e-16 2.3918953807395669e-16 2.3918953807395669e-16 2.3918953807395669e-16 2.3918953807395669e-16 2.3918953807395669e-16 2.3918953807395669e-16 2.3918953807395669e-16 2.3918953807395669e-16 2.3918953807395669e-16 2.3918953807395669e-16 2.3918953807395669e-16 2.3918953807395669e-16 2.3918953807395669e-16 2.3918953807395669e-16 2.3918953807395669e-16 2.3918953807395669e-16 2.3918953807395669e-16 2.3918953807395669e-16 2.3918953807395669e-16 2.3918953807395669e-16 2.3918953807395669e-16 2.3918953807395669e-16 2.3918953807395669e-16 2.3918953807395669e-16 2.3918953807395669e-16 2.3918953807395669e-16 2.3918953807395669e-16 2.3918953807395669e-16 2.3918953807395669e-16 2.3918953807395669e-16 2.3918953807395669e-16 2.3918953807395669e-16 2.3918953807395669e-16 2.3918953807395669e-16 2.3918953807395669e-16 2.3918953807395669e-16 2.3918953807395669e-16 2.3918953807395669e-16 2.3918953807395669e-16 2.3918953807395669e-16 2.3918953807395669e-16 2.3918953807395669e-16 2.3918953807395669e-16 2.3918953807395669e-16 2.3918953807395669e-16 2.3918953807395669e-16 2.3918953807395669e-16 2.3918953807395669e-16 2.3918953807395669e-16 2.3918953807395669e-16 2.3918953807395669e-16 2.3918953807395669e-16 2.3918953807395669e-16 2.3918953807395669e-16 2.3918953807395669e-16 2.3918953807395669e-16 2.3918953807395669e-16 2.3918953807395669e-16 2.3918953807395669e-16 2.3918953807395669e-16 2.3918953807395669e-16 2.3918953807395669e-16 2.3918953807395669e-16 2.3918953807395669e-16 2.3918953807395669e-16 2.3918953807395669e-16 2.3918953807395669e-16 2.3918953807395669e-16 2.3918953807395669e-16 2.3918953807395669e-16 2.3918953807395669e-16 2.3918953807395669e-16 2.3918953807395669e-16 2.3918953807395669e-16 2.3918953807395669e-16 2.3918953807395669e-16 2.3918953807395669e-16 2.3918953807395669e-16 2.3918953807395669e-16 2.3918953807395669e-16 2.3918953807395669e-16 2.3918953807395669e-16 2.3918953807395669e-16 2.3918953807395669e-16 2.3918953807395669e-16 2.3918953807395669e-16 2.3918953807395669e-16 2.3918953807395669e-16 2.3918953807395669e-16 2.3918953807395669e-16 2.3918953807395669e-16 2.3918953807395669e-16 2.3918953807395669e-16 2.3918953807395669e-16 2.3918953807395669e-16 2.3918953807395669e-16 2.3918953807395669e-16 2.3918953807395669e-16 2.3918953807395669e-16 2.3918953807395669e-16 2.3918953807395669e-16 2.3918953807395669e-16 2.3918953807395669e-16 2.3918953807395669e-16 2.3918953807395669e-16 2.3918953807395669e-16 2.3918953807395669e-16 2.3918953807395669e-16 2.3918953807395669e-16 2.3918953807395669e-16 2.3918953807395669e-16 2.3918953807395669e-16 2.3918953807395669e-16 2.3918953807395669e-16 2.3918953807395669e-16 2.3918953807395669e-16 2.3918953807395669e-16 2.3918953807395669e-16 2.3918953807395669e-16 2.3918953807395669e-16 2.3918953807395669e-16 2.3918953807395669e-16 2.3918953807395669e-16 2.3918953807395669e-16 2.3918953807395669e-16 2.3918953807395669e-16 2.3918953807395669e-16 2.3918953807395669e-16 2.3918953807395669e-16 2.3918953807395669e-16 2.3918953807395669e-16 2.3918953807395669e-16 2.3918953807395669e-16 2.3918953807395669e-16 2.3918953807395669e-16 2.3918953807395669e-16 2.3918953807395669e-16 2.3918953807395669e-16 2.3918953807395669e-16 2.3918953807395669e-16 2.3918953807395669e-16 2.3918953807395669e-16 2.3918953807395669e-16 2.3918953807395669e-16 2.3918953807395669e-16 2.3918953807395669e-16 2.3918953807395669e-16 2.3918953807395669e-16 2.3918953807395669e-16 2.3918953807395669e-16 2.3918953807395669e-16 2.3918953807395669e-16 2.3918953807395669e-16 2.3918953807395669e-16 2.3918953807395669e-16 2.3918953807395669e-16 2.3918953807395669e-16 2.3918953807395669e-16 2.3918953807395669e-16 2.3918953807395669e-16 2.3918953807395669e-16 2.3918953807395669e-16 2.3918953807395669e-16 2.3918953807395669e-16 2.3918953807395669e-16 2.3918953807395669e-16 2.3918953807395669e-16 2.3918953807395669e-16 2.3918953807395669e-16 2.3918953807395669e-16 2.3918953807395669e-16 2.3918953807395669e-16 2.3918953807395669e-16 2.3918953807395669e-16 2.3918953807395669e-16 2.3918953807395669e-16 2.3918953807395669e-16 2.3918953807395669e-16 2.3918953807395669e-16 2.3918953807395669e-16 2.3918953807395669e-16 2.3918953807395669e-16 2.3918953807395669e-16 2.3918953807395669e-16 2.3918953807395669e-16 2.3918953807395669e-16 2.3918953807395669e-16 2.3918953807395669e-16 2.3918953807395669e-16 2.3918953807395669e-16 2.3918953807395669e-16 2.3918953807395669e-16 2.3918953807395669e-16 2.3918953807395669e-16 2.3918953807395669e-16 2.3918953807395669e-16 2.3918953807395669e-16 2.3918953807395669e-16 2.3918953807395669e-16 2.3918953807395669e-16 2.3918953807395669e-16 2.3918953807395669e-16 2.3918953807395669e-16 2.3918953807395669e-16 2.3918953807395669e-16 2.3918953807395669e-16 2.3918953807395669e-16 2.3918953807395669e-16 2.3918953807395669e-16 2.3918953807395669e-16 2.3918953807395669e-16 2.3918953807395669e-16 2.3918953807395669e-16 2.3918953807395669e-16 2.3918953807395669e-16 2.3918953807395669e-16 2.3918953807395669e-16 2.3918953807395669e-16 2.3918953807395669e-16 2.3918953807395669e-16 2.3918953807395669e-16 2.3918953807395669e-16 2.3918953807395669e-16 2.3918953807395669e-16 2.3918953807395669e-16 2.3918953807395669e-16 2.3918953807395669e-16 2.3918953807395669e-16 2.3918953807395669e-16 2.3918953807395669e-16 2.3918953807395669e-16 2.3918953807395669e-16 2.3918953807395669e-16 2.3918953807395669e-16 2.3918953807395669e-16 2.3918953807395669e-16 2.3918953807395669e-16 2.3918953807395669e-16 2.3918953807395669e-16 2.3918953807395669e-16 2.3918953807395669e-16 2.3918953807395669e-16 2.3918953807395669e-16 2.3918953807395669e-16 2.3918953807395669e-16 2.3918953807395669e-16 2.3918953807395669e-16 2.3918953807395669e-16 2.3918953807395669e-16 2.3918953807395669e-16 2.3918953807395669e-16 2.3918953807395669e-16 2.3918953807395669e-16 2.3918953807395669e-16 2.3918953807395669e-16 2.3918953807395669e-16 2.3918953807395669e-16 2.3918953807395669e-16 2.3918953807395669e-16 2.3918953807395669e-16 2.3918953807395669e-16 2.3918953807395669e-16 2.3918953807395669e-16 2.3918953807395669e-16 2.3918953807395669e-16 2.3918953807395669e-16 2.3918953807395669e-16 2.3918953807395669e-16 2.3918953807395669e-16 2.3918953807395669e-16 2.3918953807395669e-16 2.3918953807395669e-16 2.3918953807395669e-16 2.3918953807395669e-16 2.3918953807395669e-16 2.3918953807395669e-16 2.3918953807395669e-16 2.3918953807395669e-16 2.3918953807395669e-16 2.3918953807395669e-16 2.3918953807395669e-16 2.3918953807395669e-16 2.3918953807395669e-16 2.3918953807395669e-16 2.3918953807395669e-16 2.3918953807395669e-16 2.3918953807395669e-16 2.3918953807395669e-16 2.3918953807395669e-16 2.3918953807395669e-16 2.3918953807395669e-16 2.3918953807395669e-16 2.3918953807395669e-16 2.3918953807395669e-16 2.3918953807395669e-16 2.3918953807395669e-16 2.3918953807395669e-16 2.3918953807395669e-16 2.3918953807395669e-16 2.3918953807395669e-16 2.3918953807395669e-16 2.3918953807395669e-16 2.3918953807395669e-16 2.3918953807395669e-16 2.3918953807395669e-16 2.3918953807395669e-16 2.3918953807395669e-16 2.3918953807395669e-16 2.3918953807395669e-16 2.3918953807395669e-16 2.3918953807395669e-16 2.3918953807395669e-16 2.3918953807395669e-16 2.3918953807395669e-16 2.3918953807395669e-16 2.3918953807395669e-16 2.3918953807395669e-16 2.3918953807395669e-16 2.3918953807395669e-16 2.3918953807395669e-16 2.3918953807395669e-16 2.3918953807395669e-16 2.3918953807395669e-16 2.3918953807395669e-16 2.3918953807395669e-16 2.3918953807395669e-16 2.3918953807395669e-16 2.3918953807395669e-16 2.3918953807395669e-16 2.3918953807395669e-16 2.3918953807395669e-16 2.3918953807395669e-16 2.3918953807395669e-16 2.3918953807395669e-16 2.3918953807395669e-16 2.3918953807395669e-16 2.3918953807395669e-16 2.3918953807395669e-16 2.3918953807395669e-16 2.3918953807395669e-16 2.3918953807395669e-16 2.3918953807395669e-16 2.3918953807395669e-16 2.3918953807395669e-16 2.3918953807395669e-16 2.3918953807395669e-16 2.3918953807395669e-16 2.3918953807395669e-16 2.3918953807395669e-16 2.3918953807395669e-16 2.3918953807395669e-16 2.3918953807395669e-16 2.3918953807395669e-16 2.3918953807395669e-16 2.3918953807395669e-16 2.3918953807395669e-16 2.3918953807395669e-16 2.3918953807395669e-16 2.3918953807395669e-16 2.3918953807395669e-16 2.3918953807395669e-16 2.3918953807395669e-16 2.3918953807395669e-16 2.3918953807395669e-16 2.3918953807395669e-16 2.3918953807395669e-16 2.3918953807395669e-16 2.3918953807395669e-16 2.3918953807395669e-16 2.3918953807395669e-16 2.3918953807395669e-16 2.3918953807395669e-16 2.3918953807395669e-16 2.3918953807395669e-16 2.3918953807395669e-16 2.3918953807395669e-16 2.3918953807395669e-16 2.3918953807395669e-16 2.3918953807395669e-16 2.3918953807395669e-16 2.3918953807395669e-16 2.3918953807395669e-16 2.3918953807395669e-16 2.3918953807395669e-16 2.3918953807395669e-16 2.3918953807395669e-16 2.3918953807395669e-16 2.3918953807395669e-16 2.3918953807395669e-16 2.3918953807395669e-16 2.3918953807395669e-16 2.3918953807395669e-16 2.3918953807395669e-16 2.3918953807395669e-16 2.3918953807395669e-16 2.3918953807395669e-16 2.3918953807395669e-16 2.3918953807395669e-16 2.3918953807395669e-16 2.3918953807395669e-16 2.3918953807395669e-16 2.3918953807395669e-16 2.3918953807395669e-16 2.3918953807395669e-16 2.3918953807395669e-16 2.3918953807395669e-16 2.3918953807395669e-16 2.3918953807395669e-16 2.3918953807395669e-16 2.3918953807395669e-16 2.3918953807395669e-16 2.3918953807395669e-16 2.3918953807395669e-16 2.3918953807395669e-16 2.3918953807395669e-16 2.3918953807395669e-16 2.3918953807395669e-16 2.3918953807395669e-16 2.3918953807395669e-16 2.3918953807395669e-16 2.3918953807395669e-16 2.3918953807395669e-16 2.3918953807395669e-16 2.3918953807395669e-16 2.3918953807395669e-16 2.3918953807395669e-16 2.3918953807395669e-16 2.3918953807395669e-16 2.3918953807395669e-16 2.3918953807395669e-16 2.3918953807395669e-16 2.3918953807395669e-16 2.3918953807395669e-16 2.3918953807395669e-16 2.3918953807395669e-16 2.3918953807395669e-16 2.3918953807395669e-16 2.3918953807395669e-16 2.3918953807395669e-16 2.3918953807395669e-16 2.3918953807395669e-16 2.3918953807395669e-16 2.3918953807395669e-16 2.3918953807395669e-16 2.3918953807395669e-16 2.3918953807395669e-16 2.3918953807395669e-16 2.3918953807395669e-16 2.3918953807395669e-16 2.3918953807395669e-16 2.3918953807395669e-16 2.3918953807395669e-16 2.3918953807395669e-16 2.3918953807395669e-16 2.3918953807395669e-16 2.3918953807395669e-16 2.3918953807395669e-16 2.3918953807395669e-16 2.3918953807395669e-16 2.3918953807395669e-16 2.3918953807395669e-16 2.3918953807395669e-16 2.3918953807395669e-16 2.3918953807395669e-16 2.3918953807395669e-16 2.3918953807395669e-16 2.3918953807395669e-16 2.3918953807395669e-16 2.3918953807395669e-16 2.3918953807395669e-16 2.3918953807395669e-16 2.3918953807395669e-16 2.3918953807395669e-16 2.3918953807395669e-16 2.3918953807395669e-16 2.3918953807395669e-16 2.3918953807395669e-16 2.3918953807395669e-16 2.3918953807395669e-16 2.3918953807395669e-16 2.3918953807395669e-16 2.3918953807395669e-16 2.3918953807395669e-16 2.3918953807395669e-16 2.3918953807395669e-16 2.3918953807395669e-16 2.3918953807395669e-16 2.3918953807395669e-16 2.3918953807395669e-16 2.3918953807395669e-16 2.3918953807395669e-16 2.3918953807395669e-16 2.3918953807395669e-16 2.3918953807395669e-16 2.3918953807395669e-16 2.3918953807395669e-16 2.3918953807395669e-16 2.3918953807395669e-16 2.3918953807395669e-16 2.3918953807395669e-16 2.3918953807395669e-16 2.3918953807395669e-16 2.3918953807395669e-16 2.3918953807395669e-16 2.3918953807395669e-16 2.3918953807395669e-16 2.3918953807395669e-16 2.3918953807395669e-16 2.3918953807395669e-16 2.3918953807395669e-16 2.3918953807395669e-16 2.3918953807395669e-16 2.3918953807395669e-16 2.3918953807395669e-16 2.3918953807395669e-16 2.3918953807395669e-16 2.3918953807395669e-16 2.3918953807395669e-16 2.3918953807395669e-16 2.3918953807395669e-16 2.3918953807395669e-16 2.3918953807395669e-16 2.3918953807395669e-16 2.3918953807395669e-16 2.3918953807395669e-16 2.3918953807395669e-16 2.3918953807395669e-16 2.3918953807395669e-16 2.3918953807395669e-16 2.3918953807395669e-16 2.3918953807395669e-16 2.3918953807395669e-16 2.3918953807395669e-16 2.3918953807395669e-16 2.3918953807395669e-16 2.3918953807395669e-16 2.3918953807395669e-16 2.3918953807395669e-16 2.3918953807395669e-16 2.3918953807395669e-16 2.3918953807395669e-16 2.3918953807395669e-16 2.3918953807395669e-16 2.3918953807395669e-16 2.3918953807395669e-16 2.3918953807395669e-16 2.3918953807395669e-16 2.3918953807395669e-16 2.3918953807395669e-16 2.3918953807395669e-16 2.3918953807395669e-16 2.3918953807395669e-16 2.3918953807395669e-16 2.3918953807395669e-16 2.3918953807395669e-16 2.3918953807395669e-16 2.3918953807395669e-16 2.3918953807395669e-16 2.3918953807395669e-16 2.3918953807395669e-16 2.3918953807395669e-16 2.3918953807395669e-16 2.3918953807395669e-16 2.3918953807395669e-16 2.3918953807395669e-16 2.3918953807395669e-16 2.3918953807395669e-16 2.3918953807395669e-16 2.3918953807395669e-16 2.3918953807395669e-16 2.3918953807395669e-16 2.3918953807395669e-16 2.3918953807395669e-16 2.3918953807395669e-16 2.3918953807395669e-16 2.3918953807395669e-16 2.3918953807395669e-16 2.3918953807395669e-16 2.3918953807395669e-16 2.3918953807395669e-16 2.3918953807395669e-16 2.3918953807395669e-16 2.3918953807395669e-16 2.3918953807395669e-16 2.3918953807395669e-16 2.3918953807395669e-16 2.3918953807395669e-16 2.3918953807395669e-16 2.3918953807395669e-16 2.3918953807395669e-16 2.3918953807395669e-16 2.3918953807395669e-16 2.3918953807395669e-16 2.3918953807395669e-16 2.3918953807395669e-16 2.3918953807395669e-16 2.3918953807395669e-16 2.3918953807395669e-16 2.3918953807395669e-16 2.3918953807395669e-16 2.3918953807395669e-16 2.3918953807395669e-16 2.3918953807395669e-16 2.3918953807395669e-16 2.3918953807395669e-16 2.3918953807395669e-16 2.3918953807395669e-16 2.3918953807395669e-16 2.3918953807395669e-16 2.3918953807395669e-16 2.3918953807395669e-16 2.3918953807395669e-16 2.3918953807395669e-16 2.3918953807395669e-16 2.3918953807395669e-16 2.3918953807395669e-16 2.3918953807395669e-16 2.3918953807395669e-16 2.3918953807395669e-16 2.3918953807395669e-16 2.3918953807395669e-16 2.3918953807395669e-16 2.3918953807395669e-16 2.3918953807395669e-16 2.3918953807395669e-16 2.3918953807395669e-16 2.3918953807395669e-16 2.3918953807395669e-16 2.3918953807395669e-16 2.3918953807395669e-16 2.3918953807395669e-16 2.3918953807395669e-16 2.3918953807395669e-16 2.3918953807395669e-16 2.3918953807395669e-16 2.3918953807395669e-16 2.3918953807395669e-16 2.3918953807395669e-16 2.3918953807395669e-16 2.3918953807395669e-16 2.3918953807395669e-16 2.3918953807395669e-16 2.3918953807395669e-16 2.3918953807395669e-16 2.3918953807395669e-16 2.3918953807395669e-16 2.3918953807395669e-16 2.3918953807395669e-16 2.3918953807395669e-16 2.3918953807395669e-16 2.3918953807395669e-16 2.3918953807395669e-16 2.3918953807395669e-16 2.3918953807395669e-16 2.3918953807395669e-16 2.3918953807395669e-16 2.3918953807395669e-16 2.3918953807395669e-16 2.3918953807395669e-16 2.3918953807395669e-16 2.3918953807395669e-16 2.3918953807395669e-16 2.3918953807395669e-16 2.3918953807395669e-16 2.3918953807395669e-16 2.3918953807395669e-16 2.3918953807395669e-16 2.3918953807395669e-16 2.3918953807395669e-16 2.3918953807395669e-16 2.3918953807395669e-16 2.3918953807395669e-16 2.3918953807395669e-16 2.3918953807395669e-16 2.3918953807395669e-16 2.3918953807395669e-16 2.3918953807395669e-16 2.3918953807395669e-16 2.3918953807395669e-16 2.3918953807395669e-16 2.3918953807395669e-16 2.3918953807395669e-16 2.3918953807395669e-16 2.3918953807395669e-16 2.3918953807395669e-16 2.3918953807395669e-16 2.3918953807395669e-16 2.3918953807395669e-16 2.3918953807395669e-16 2.3918953807395669e-16 2.3918953807395669e-16 2.3918953807395669e-16 2.3918953807395669e-16 2.3918953807395669e-16 2.3918953807395669e-16 2.3918953807395669e-16 2.3918953807395669e-16 2.3918953807395669e-16 2.3918953807395669e-16 2.3918953807395669e-16 2.3918953807395669e-16 2.3918953807395669e-16 2.3918953807395669e-16 2.3918953807395669e-16 2.3918953807395669e-16 2.3918953807395669e-16 2.3918953807395669e-16 2.3918953807395669e-16 2.3918953807395669e-16 2.3918953807395669e-16 2.3918953807395669e-16 2.3918953807395669e-16 2.3918953807395669e-16 2.3918953807395669e-16 2.3918953807395669e-16 2.3918953807395669e-16 2.3918953807395669e-16 2.3918953807395669e-16 2.3918953807395669e-16 2.3918953807395669e-16 2.3918953807395669e-16 2.3918953807395669e-16 2.3918953807395669e-16 2.3918953807395669e-16 2.3918953807395669e-16 2.3918953807395669e-16 2.3918953807395669e-16 2.3918953807395669e-16 2.3918953807395669e-16 2.3918953807395669e-16 2.3918953807395669e-16 2.3918953807395669e-16 2.3918953807395669e-16 2.3918953807395669e-16 2.3918953807395669e-16 2.3918953807395669e-16 2.3918953807395669e-16 2.3918953807395669e-16 2.3918953807395669e-16 2.3918953807395669e-16 2.3918953807395669e-16 2.3918953807395669e-16 2.3918953807395669e-16 2.3918953807395669e-16 2.3918953807395669e-16 2.3918953807395669e-16 2.3918953807395669e-16 2.3918953807395669e-16 2.3918953807395669e-16 2.3918953807395669e-16 2.3918953807395669e-16 2.3918953807395669e-16 2.3918953807395669e-16 2.3918953807395669e-16 2.3918953807395669e-16 2.3918953807395669e-16 2.3918953807395669e-16 2.3918953807395669e-16 2.3918953807395669e-16 2.3918953807395669e-16 2.3918953807395669e-16 2.3918953807395669e-16 2.3918953807395669e-16 2.3918953807395669e-16 2.3918953807395669e-16 2.3918953807395669e-16 2.3918953807395669e-16 2.3918953807395669e-16 2.3918953807395669e-16 2.3918953807395669e-16 2.3918953807395669e-16 2.3918953807395669e-16 2.3918953807395669e-16 2.3918953807395669e-16 2.3918953807395669e-16 2.3918953807395669e-16 2.3918953807395669e-16 2.3918953807395669e-16 2.3918953807395669e-16 2.3918953807395669e-16 2.3918953807395669e-16 2.3918953807395669e-16 2.3918953807395669e-16 2.3918953807395669e-16 2.3918953807395669e-16 2.3918953807395669e-16 2.3918953807395669e-16 2.3918953807395669e-16 2.3918953807395669e-16 2.3918953807395669e-16 2.3918953807395669e-16 2.3918953807395669e-16 2.3918953807395669e-16 2.3918953807395669e-16 2.3918953807395669e-16 2.3918953807395669e-16 2.3918953807395669e-16 2.3918953807395669e-16 2.3918953807395669e-16 2.3918953807395669e-16 2.3918953807395669e-16 2.3918953807395669e-16 2.3918953807395669e-16 2.3918953807395669e-16 2.3918953807395669e-16 2.3918953807395669e-16 2.3918953807395669e-16 2.3918953807395669e-16 2.3918953807395669e-16 2.3918953807395669e-16 2.3918953807395669e-16 2.3918953807395669e-16 2.3918953807395669e-16 2.3918953807395669e-16 2.3918953807395669e-16 2.3918953807395669e-16 2.3918953807395669e-16 2.3918953807395669e-16 2.3918953807395669e-16 2.3918953807395669e-16 2.3918953807395669e-16 2.3918953807395669e-16 2.3918953807395669e-16 2.3918953807395669e-16 2.3918953807395669e-16 2.3918953807395669e-16 2.3918953807395669e-16 2.3918953807395669e-16 2.3918953807395669e-16 2.3918953807395669e-16 2.3918953807395669e-16 2.3918953807395669e-16 2.3918953807395669e-16 2.3918953807395669e-16 2.3918953807395669e-16 2.3918953807395669e-16 2.3918953807395669e-16 2.3918953807395669e-16 2.3918953807395669e-16 2.3918953807395669e-16 2.3918953807395669e-16 2.3918953807395669e-16 2.3918953807395669e-16 2.3918953807395669e-16 2.3918953807395669e-16 2.3918953807395669e-16 